{
    "ApplyHiddenSize": 10,
    "ApplyLearningRate": 0.003,
    "ApplyOutputSize": 1,
    "HiddenBiases": [
        0.33653146275493506,
        0.18258704919235338,
        -0.4849510514163957,
        0.28059307853578724,
        -0.21140614449794187,
        -0.16042436938839527,
        0.02922892659875927,
        -0.15227765892796521,
        0.061494485796914654,
        -0.28271325024004673
    ],
    "HiddenOutputWeights": [
        [
            0.3710335880782812
        ],
        [
            0.7303743151265422
        ],
        [
            -0.37194311979290395
        ],
        [
            0.8294781218833425
        ],
        [
            0.3787068199296899
        ],
        [
            -1.1166942635971964
        ],
        [
            -0.24291210755667844
        ],
        [
            -0.2268132529098364
        ],
        [
            0.7200881320434249
        ],
        [
            0.16182025908006084
        ]
    ],
    "InputHiddenWeights": [
        [
            -0.07296373876050875,
            0.6047377153207727,
            -0.546366245296086,
            0.6628220786895572,
            0.5971771058570923,
            -0.8308013788586162,
            -0.5209457549262587,
            0.18695793840721392,
            0.6006267556472867,
            0.07834230791157012
        ],
        [
            -0.09836284749014708,
            0.11710183380016438,
            0.09980147535127659,
            -0.1435920183195442,
            -0.255532664501531,
            -0.8084284155072343,
            0.16571494629233668,
            -0.37431483404678667,
            0.6925908124627562,
            -0.08340486742880907
        ],
        [
            -0.01719030393425842,
            -0.17699727564975487,
            0.4308300383729914,
            0.448392107276091,
            -0.0791221900944058,
            -0.5824984230268017,
            -0.05150104085194788,
            -0.2461009420289233,
            0.4177449878360396,
            0.265923911315336
        ],
        [
            0.07237987809154191,
            -0.060615318688914094,
            -0.05867381086876279,
            -0.2657797620277801,
            -0.01750791334455709,
            -0.10398097435669533,
            -0.4457040891546003,
            -0.23810511548057006,
            0.35475139286596286,
            0.07383134108106874
        ],
        [
            -0.15390069490993602,
            0.45276886760104457,
            -0.3759301452711852,
            -0.18902309440520534,
            -0.03779040199937681,
            -0.42249024220861875,
            -0.11909871228242254,
            -0.0929726912948787,
            -0.23414530395623645,
            -0.3647087995436195
        ],
        [
            -0.21150694820327715,
            -0.3828075891314169,
            0.043515503649001405,
            0.29560301318013166,
            0.17438713675993028,
            -0.4685812845384977,
            -0.34297848728736524,
            0.3065508573184405,
            -0.3409393251282814,
            -0.41831399961984694
        ],
        [
            0.3842141423990334,
            0.5688372256672385,
            -0.221904478798445,
            -0.08801406280464977,
            0.14519761765493552,
            0.27693905803907665,
            0.031518466358013565,
            -0.349504279926841,
            0.4063437850374114,
            0.46389164303837677
        ],
        [
            -0.05861560190422656,
            0.5158432638978293,
            0.41446952847693747,
            0.6318356073319136,
            -0.04377915397947299,
            -0.6357585556188107,
            -0.09895728207609318,
            0.4850874972147426,
            -0.04821530083126497,
            -0.4086142973022892
        ],
        [
            -0.3438074315122805,
            0.0525598556064076,
            -0.04274424640004625,
            0.19137301413153085,
            -0.0008346891140213975,
            -0.5494653826298155,
            0.11340256858538167,
            -0.14249834666672698,
            0.19719659141366142,
            -0.3081166116245716
        ],
        [
            0.3670639646453724,
            -0.29903318701726767,
            -0.35774435045459063,
            0.1177180884086762,
            0.31559950095057393,
            -0.32135095422840804,
            0.2226908011682082,
            -0.40117303994374154,
            0.4803327920853446,
            0.37521767452095584
        ],
        [
            0.2662626307516921,
            0.24948931791358064,
            -0.07216002562559576,
            0.27756862818872713,
            0.2110747622079061,
            -0.5099538097427266,
            0.2844931663374903,
            0.03604887797530308,
            0.1360919813556539,
            -0.016439039206375745
        ],
        [
            0.1670307136456186,
            -0.121166660071047,
            -0.4781741181575377,
            0.616429634030637,
            0.09210226660634767,
            -0.6278621845887663,
            0.4456923655732893,
            0.057542113754319855,
            -0.1733068439338266,
            -0.20560709455851967
        ],
        [
            0.5768265802439663,
            0.6195063263643993,
            -0.058203104656053294,
            -0.20977991583218034,
            0.17172741125565882,
            -0.3275886779027566,
            -0.01400536969568789,
            -0.08948973387831269,
            0.37686095935025093,
            0.21639653229621528
        ],
        [
            -0.055884074580509764,
            0.18064539683905423,
            -0.21402461587366603,
            0.4694261238778292,
            0.36153945966090717,
            -0.023331868207248738,
            -0.015166590905247317,
            0.3633995080090252,
            -0.22037120270097696,
            0.46305447616022527
        ],
        [
            -0.1242017100871396,
            0.36868665112793114,
            -0.4380676160280906,
            -0.004393182149699397,
            -0.3525615244278008,
            0.25804223717827557,
            0.2172572127419871,
            -0.2643828040635437,
            -0.07422820612619757,
            -0.4783034514549991
        ],
        [
            0.21474599550900414,
            0.5694897485445692,
            -0.07797572099900921,
            0.12461740343588704,
            0.3128859558504829,
            0.10022696578712137,
            0.19587554550514774,
            0.22550303142978723,
            0.3577053329108002,
            -0.04555927967811354
        ],
        [
            0.37502416859557763,
            -0.2836567840433442,
            -0.4919385609641461,
            0.3992748810714916,
            -0.07033962950255565,
            0.24533569527952498,
            -0.2451170714729474,
            -0.2671508566679756,
            -0.018166527412229752,
            -0.45187531384810203
        ],
        [
            0.379325406656341,
            -0.38736526905767776,
            0.08994853509361755,
            0.5200037656149173,
            -0.3310206740418387,
            0.36966851497727043,
            0.10983292632122724,
            0.435965443926446,
            0.08359148482216101,
            0.01927316847945433
        ],
        [
            0.15185321612573374,
            -0.15321064547576668,
            0.1689008945187333,
            0.28552820600905326,
            0.06328954617089541,
            -0.2981350580275519,
            0.37623026859078795,
            -0.4166417966258692,
            -0.06289438348842294,
            0.07123304033798257
        ],
        [
            0.3668394620766935,
            0.1318389602568711,
            0.2509533000217149,
            -0.17353485079859657,
            0.12784945744709336,
            0.13576032055208428,
            -0.1219145731158145,
            -0.3144506102927897,
            -0.11728040776531085,
            0.15899560351532227
        ],
        [
            0.09091403161882676,
            0.5419111911443109,
            -0.3844071835483257,
            -0.1283514400748479,
            -0.22405819819374495,
            0.1890990163143522,
            -0.4178339972718756,
            0.3573411603154232,
            0.3690254298792936,
            -0.3460709153869722
        ],
        [
            0.38495214900085595,
            0.4283555569453655,
            0.45050120699678986,
            -0.2794071524774996,
            -0.1439618977316504,
            0.19437003196935726,
            -0.31815575234958926,
            -0.022808451008556403,
            -0.3192147407764583,
            0.5025059536428294
        ],
        [
            -0.15777517570171837,
            0.2624165742014426,
            -0.17225067565261656,
            -0.3010225604823763,
            0.5364913598017376,
            -0.32925656755859134,
            -0.11829436866589096,
            -0.19380921294098896,
            -0.28309923840079143,
            0.4693588862797122
        ],
        [
            0.010155346471568107,
            -0.0690234020700531,
            0.30452120963026846,
            0.04092389382464563,
            -0.29529632967136726,
            0.22144552010143614,
            0.3846081853013031,
            -0.2406838857632537,
            0.47640242132693533,
            0.3855169997485055
        ],
        [
            -0.28290390110684416,
            0.5380515277534219,
            0.09100150253728921,
            0.5872610539145707,
            0.2311384348327731,
            -0.40169580344084094,
            0.14870004501893175,
            0.40239618807677524,
            -0.25139903116892726,
            -0.027559452643358177
        ],
        [
            -0.1749206415593439,
            0.4955439806570389,
            -0.1897296975176285,
            0.49614583601062384,
            -0.10949008507228844,
            -0.14898662777029834,
            -0.2711093916813116,
            0.48153545287905003,
            0.38020509906670885,
            -0.4760301388434392
        ],
        [
            -0.19588997899154625,
            -0.12953671647730686,
            0.05831018579960699,
            0.5779328046971638,
            0.2164955374070407,
            -0.0964861509991902,
            0.09299692723920974,
            0.05556449491516431,
            0.11145691163453196,
            -0.43607385518573527
        ],
        [
            0.0505917071049258,
            -0.37751235694825025,
            0.3246047582018803,
            -0.15838435223550812,
            0.07789905897326224,
            -0.4269321664821622,
            0.34343865201524915,
            -0.3027514269275862,
            -0.0859139012859251,
            0.2013780554214519
        ],
        [
            0.018689693418518078,
            -0.36097400235490434,
            -0.4180163199056642,
            0.5536554316932704,
            -0.04537480854620052,
            0.205866872603117,
            0.37577144968032855,
            -0.10161976327292227,
            0.5695057614443825,
            -0.1000566224155845
        ],
        [
            0.26193932116969376,
            0.5655456152207559,
            -0.02856323618521399,
            -0.19430906836331735,
            0.4558788064211372,
            -0.3470806271704578,
            0.3410288638834351,
            0.37779048323601827,
            -0.24984600809255217,
            0.3776189232214278
        ],
        [
            0.45713214924035506,
            0.3412317162747666,
            -0.21372727920130433,
            0.17657201303861017,
            0.11750368268709253,
            -0.3471337900619366,
            0.3904543130600971,
            0.04467373233282146,
            0.41763280567214833,
            0.02090281702778442
        ],
        [
            -0.3884503736386963,
            0.5887225707852871,
            0.30786800917374724,
            0.19051771277294371,
            -0.29368792756048556,
            0.3000715360798051,
            -0.1966701256385777,
            -0.39817310545300816,
            0.18018431354747266,
            0.10781143730371802
        ],
        [
            -0.32161270686059834,
            0.5524770364793034,
            -0.5107788041218033,
            -0.309727539910321,
            0.25190597498187095,
            0.0030108576720470803,
            0.2637689361628354,
            -0.25630671433999896,
            0.5072954896422373,
            -0.07896015484413242
        ],
        [
            -0.2895251210402398,
            0.44742019318205273,
            -0.5318601946110962,
            0.5621836969801193,
            0.5457519262214902,
            0.18075593710759422,
            -0.08090160199190866,
            0.2674395360988181,
            0.5995837515098545,
            0.1948626250505441
        ],
        [
            0.3995025350241795,
            0.10677962422748,
            0.41314860056478103,
            0.4543432194859906,
            0.0352614673726083,
            -0.007011933679317463,
            0.07986267684414146,
            -0.18390252666793389,
            -0.3757007362834121,
            -0.24353843399379813
        ],
        [
            -0.3198002095372275,
            0.5618349248680329,
            -0.4331909429371556,
            0.19917622894486123,
            -0.11925292736842787,
            0.11387047375777971,
            0.0561473647160494,
            -0.019124236570709725,
            0.563796126293704,
            0.4866302874023013
        ],
        [
            0.2838397839896785,
            0.04475626849826048,
            0.23079107178029207,
            -0.0615056922610314,
            0.30638027661363026,
            -0.5767734446834711,
            -0.12388717403433351,
            -0.20960323412013798,
            -0.19242091770106629,
            0.32647297992810936
        ],
        [
            0.32207181489115555,
            0.46935979344962914,
            -0.29432157147297167,
            0.17002752288105846,
            -0.07321683786765991,
            -0.2069705221268347,
            -0.43536360172745675,
            -0.20665974491680897,
            0.13727999104210947,
            -0.3015979741316882
        ],
        [
            0.029850205920854637,
            0.19048281227580502,
            0.08109732421722642,
            0.27112348230789723,
            0.4826702796377885,
            -0.04869601307975131,
            0.43867157759357583,
            -0.3567470190588244,
            -0.3959948575843815,
            -0.024115697783958043
        ],
        [
            0.013992560954674094,
            0.2740003974220434,
            0.3144403996837088,
            0.4382752998629002,
            0.49852159448322647,
            0.06398059136934635,
            -0.426082346481878,
            -0.07878272666751543,
            0.34198953851273767,
            0.19230238586618464
        ],
        [
            -0.312909165359245,
            0.4571591418410999,
            0.4466045390486282,
            -0.25665118107338736,
            -0.07938028802742722,
            0.19136756729379287,
            0.4284876531266389,
            -0.45119115506493135,
            0.5079744006704278,
            -0.40625929559216795
        ],
        [
            0.3514458432057852,
            -0.1405287126272496,
            0.10960200005039072,
            0.11320042961276183,
            -0.060646085247065336,
            0.24764637542249648,
            -0.42340403136176447,
            0.12481223367331731,
            -0.3293487186645063,
            -0.3929459562010129
        ],
        [
            0.398417859601809,
            -0.2018459792803061,
            -0.0013992385516743374,
            0.40868288846768874,
            -0.15297811726511376,
            0.04540946349804004,
            -0.13288626855741623,
            -0.455496762726564,
            -0.3767094481127777,
            -0.1438079897312435
        ],
        [
            0.05689628147648765,
            0.347554758862991,
            0.460510605515182,
            0.483310878637876,
            -0.2626339748110216,
            -0.5527405144553432,
            0.07729090519011737,
            -0.10985148537211034,
            0.18731697344148732,
            -0.25074900637803316
        ],
        [
            0.3265647923093605,
            0.40035051396276666,
            0.45561138092709247,
            -0.38438410238601545,
            0.10410807456010245,
            -0.45601060584423975,
            -0.4835238078050737,
            -0.48009739529554024,
            0.24101112254433246,
            0.3640771771408786
        ],
        [
            0.16845773905990383,
            -0.41945475524240333,
            0.46138616838493457,
            -0.07968215546145944,
            0.30860930317906765,
            0.27987248634138673,
            0.08312271366508114,
            0.0720785591943716,
            0.1852433730858842,
            -0.3503261820107666
        ],
        [
            0.1462927610877579,
            0.5144981569619466,
            -0.0855812282334275,
            0.15706528238764328,
            -0.34713766054248085,
            -0.4797281364685183,
            0.17836495401532246,
            0.4300250000267518,
            -0.08990255841191612,
            -0.1541092396909747
        ],
        [
            0.08469647385117829,
            0.16494689465345255,
            0.45448313614048164,
            0.433739319290134,
            0.05378443302920213,
            -0.12485719318413568,
            -0.2744392001983735,
            0.16037780098822646,
            0.03915625699621884,
            0.19194964870417328
        ],
        [
            -0.24564503943194477,
            0.3152505643227943,
            -0.22868069911925923,
            -0.3834427386628599,
            -0.07190587251777944,
            -0.35829789686472135,
            0.4584004279131492,
            0.15139562897757292,
            0.4421534914576895,
            0.06251181876730892
        ],
        [
            0.437547482329679,
            -0.0912153979137481,
            0.32505068915550084,
            -0.09122388503560892,
            0.1490655773996243,
            -0.4123111313467302,
            -0.2085944824932521,
            -0.17902199536892785,
            0.18873313505355177,
            0.21599367788591153
        ],
        [
            -0.42657875014034863,
            0.09671933229511498,
            -0.287873571627657,
            0.5266022608210649,
            -0.05990069717791128,
            0.20838899840629063,
            0.006438421404643359,
            -0.12912091390802044,
            0.34941555842424876,
            -0.41013122274723296
        ],
        [
            0.39813208058016986,
            0.09795647886459435,
            0.310044799929923,
            -0.18812995296037696,
            0.1680674568135219,
            0.28142031947594576,
            0.43603578195963233,
            -0.13598843809393207,
            -0.1315479406338177,
            -0.4848554737077365
        ],
        [
            0.2375483855217936,
            0.5263521004301477,
            -0.22043746115349977,
            0.30453748926134006,
            0.43686562326531386,
            -0.15836984200579415,
            -0.2242060991613488,
            0.4242496151630938,
            0.5411985981953825,
            0.1284216616086553
        ],
        [
            0.37163157435276867,
            0.49273332047969975,
            -0.36478398087237013,
            0.3976885235415913,
            0.013857409396623289,
            -0.3441538251924589,
            -0.12573013423354631,
            0.3037350716173659,
            0.5409193398456137,
            -0.38357965852053144
        ],
        [
            -0.18572685879926257,
            -0.15359636017334055,
            0.1489570349024668,
            0.027496854918952283,
            -0.2637385542911223,
            0.07159342213351806,
            0.34171166261758407,
            -0.5065097281370546,
            0.24589349315454812,
            0.480401570755341
        ],
        [
            -0.3212509443147495,
            0.48732288849084265,
            -0.26779252054246355,
            0.1937791573278169,
            0.23425290827059375,
            0.42245685141262923,
            0.32124320772615206,
            -0.33621652348258807,
            -0.34344475438077837,
            -0.23870907406843916
        ],
        [
            -0.4499438289497934,
            0.05024975204660581,
            -0.4999384286705684,
            0.4716214787163506,
            -0.24221378786641212,
            0.3977868771667031,
            -0.21770660438639441,
            0.05340639094636514,
            0.42053948632870397,
            -0.11224748820505323
        ],
        [
            0.18220008407541327,
            0.22956887800135922,
            0.3598421786573044,
            -0.25620693298806874,
            0.1819133167480793,
            -0.05192565277003928,
            -0.034459580371081856,
            0.17855487516891855,
            -0.4074332558730895,
            -0.011872304997085071
        ],
        [
            0.18240912736320436,
            -0.2395060903693643,
            -0.32309777732385886,
            0.21894712537202318,
            -0.2541307930286638,
            0.21526593824240375,
            0.19042607523011243,
            -0.0029363327722024724,
            0.35685820323889506,
            -0.1636564320693599
        ],
        [
            0.47216764943891654,
            0.2739690643792265,
            0.3572184037269259,
            0.48991521521905973,
            0.14981714925177786,
            -0.0317638157806607,
            0.2582622852629512,
            0.056083234531928844,
            -0.4541107829005677,
            -0.27417099029701286
        ],
        [
            -0.16270643635607304,
            -0.06251937323149215,
            -0.4952933704910291,
            0.37539715647446714,
            0.2760813308048418,
            -0.07226217611142684,
            0.3107796197149747,
            0.3228562827514137,
            -0.11233989524973324,
            0.037401046473348465
        ],
        [
            -0.42119440007341863,
            -0.4393295936189145,
            0.3443203521966269,
            -0.2128188045549572,
            -0.05696012478032099,
            0.005718795933930598,
            0.2960411086883254,
            0.4498273347046955,
            0.2400662558185049,
            -0.1959275283060342
        ],
        [
            -0.41364981575038867,
            0.11941435009840788,
            0.4393442149127548,
            -0.2915827331343983,
            0.042449953155337526,
            -0.2794639880776383,
            0.3626735537658398,
            -0.19572525590536682,
            -0.11997143980912416,
            -0.3036852581457277
        ],
        [
            -0.22912823800028365,
            0.1379493057798084,
            0.1485623407761667,
            -0.24760221717167358,
            -0.06984483253658813,
            0.334852251328245,
            -0.4195060412682963,
            0.29953455548394703,
            0.006809337534841669,
            0.2861572499361332
        ],
        [
            -0.39558785426748433,
            0.2231896041186944,
            -0.03325184964586024,
            -0.4018639120939884,
            -0.0733702152014232,
            -0.5172129195402965,
            -0.4388929348533116,
            -0.4555831142128496,
            0.27918187596074595,
            -0.24382801125340722
        ],
        [
            0.45537167070800105,
            -0.4429945477996889,
            0.2323628067577311,
            0.10222680181508813,
            0.11430929575093536,
            -0.09273978296945878,
            -0.05853284996255895,
            -0.29812621368225006,
            0.300103269147973,
            0.02565410705713258
        ],
        [
            0.0948837159015112,
            -0.19959495898675775,
            0.3665755153646269,
            -0.1416113251208357,
            -0.03010096793938551,
            -0.0012633312554045694,
            0.37976681469424856,
            0.32305887383187426,
            -0.35278323848871657,
            0.25102080872862
        ],
        [
            -0.2661140548325588,
            0.35381873232613553,
            -0.10112450030191843,
            -0.33408137629065937,
            0.25655040643796806,
            0.07827781272566976,
            -0.10824516410325194,
            -0.040963428744044905,
            0.18395385026609481,
            0.36351327331908884
        ],
        [
            -0.1506630450862335,
            -0.4326906929163404,
            -0.18820408901339858,
            -0.4229481971602557,
            -0.3467873111577712,
            0.24396532561354464,
            0.07348756100227717,
            0.13654429823669442,
            0.20933352027435767,
            0.44485879409950163
        ],
        [
            -0.356562841410165,
            -0.4856840209594984,
            -0.4462484864571645,
            -0.27585529340223436,
            -0.39902394211609576,
            -0.4051811992522783,
            0.2069189386677223,
            -0.03520063327807914,
            -0.17245805012072912,
            -0.13431315254880155
        ],
        [
            -0.3504727840305887,
            0.2544175803924848,
            0.3821852584135628,
            0.18619029196631712,
            0.16340238189436648,
            -0.2861138298577422,
            -0.49076198153619743,
            -0.15447256157808856,
            0.49737755279152257,
            -0.10740975402278745
        ],
        [
            -0.44150416543012844,
            0.2793702861337897,
            -0.15767927730079592,
            -0.2790005038810827,
            0.15606459679948204,
            -0.15386578250448607,
            0.008220202958877047,
            0.08732877606991987,
            0.42729236070895826,
            0.5030040921976278
        ],
        [
            0.3464829947591027,
            -0.4876232314930536,
            -0.010856822435129462,
            -0.1823222430641079,
            -0.004235876780270314,
            -0.2760779363678294,
            -0.17913060720221935,
            0.33209310651152385,
            -0.47725342823691375,
            0.09320111598020592
        ],
        [
            -0.12765871055244526,
            0.2828360890513328,
            -0.11534337455728183,
            -0.31593210570769875,
            0.16806740149657068,
            -0.43363747360527743,
            0.12524590633373647,
            0.20112866287454093,
            -0.23201240418422073,
            0.189642159212595
        ],
        [
            -0.12710533673017566,
            0.005665364289768058,
            -0.23924365663356587,
            0.27759241150120173,
            -0.3397900379038623,
            0.44255136155251135,
            -0.07299594400439031,
            0.06836425625444287,
            -0.31594725734311274,
            -0.11137290347837578
        ],
        [
            0.4270684854680056,
            0.38782250575272326,
            0.4295986568936996,
            -0.11560673590798884,
            -0.24581417109791742,
            0.09652621670108413,
            0.026676958330697473,
            0.02455298176382863,
            -0.17400323483219302,
            0.07890174378153351
        ],
        [
            -0.01643523901907913,
            0.31072649043230266,
            -0.09281950463461312,
            -0.4334103403741111,
            -0.2573879701546405,
            -0.19484384381408756,
            0.43989181237877567,
            -0.4870023824716005,
            0.20839496256696327,
            0.26075624395820385
        ],
        [
            -0.2498706124712494,
            0.1019275223346634,
            0.19705936649657893,
            -0.05901975794144639,
            0.2358106556194047,
            0.46728047636788106,
            0.09187708084797634,
            0.4212036154232419,
            -0.49995920124107845,
            -0.4720346731527137
        ],
        [
            -0.007030337190512049,
            -0.1483691762615627,
            -0.3922713099576061,
            0.3521158783308141,
            0.15221253912747879,
            -0.0739755548629103,
            0.0020305611321302947,
            0.2341632179676043,
            0.42251878655418756,
            -0.31587504033648445
        ],
        [
            -0.38585759997117813,
            0.013006209699036249,
            0.19407640827299621,
            -0.006225481379382677,
            0.2083630045785538,
            0.33852861489836295,
            -0.48507780280619556,
            -0.17785551378491754,
            -0.03902473807813003,
            0.12906992582570698
        ],
        [
            0.29329162348757853,
            0.43512685920966415,
            -0.05035054760052899,
            0.2698316642570193,
            -0.22503490500559767,
            0.22637512902563983,
            -0.4281558532333337,
            0.16457948830914435,
            -0.4161205443168701,
            -0.30405830081583274
        ],
        [
            -0.04132821960204607,
            0.14862964487563235,
            0.27962032164258,
            0.1320301405405694,
            -0.11638079754007241,
            0.09399069086610161,
            -0.38630833488664756,
            0.4195752300130798,
            -0.3080027038621115,
            -0.2742810098809635
        ],
        [
            -0.06425782538510172,
            -0.35161346967266216,
            0.44343852426788266,
            -0.4922521796657947,
            0.3760921427349568,
            -0.1061747486608566,
            -0.29579984398688774,
            -0.09704841715302928,
            -0.3823262489041125,
            -0.171854718402655
        ],
        [
            -0.28974771286003626,
            -0.349667233649552,
            -0.2369603595533998,
            -0.26704429897343285,
            -0.2717732987677646,
            0.04246529566970339,
            -0.17184041911936793,
            0.2958830841893341,
            -0.26308989186695175,
            -0.1902898157687372
        ],
        [
            0.07123294489887574,
            -0.3186791259877252,
            0.14451691238349407,
            -0.4357934027932152,
            -0.004986284578191597,
            -0.21180992583966254,
            0.3383708028200988,
            0.4575120917871916,
            -0.4782365965675706,
            -0.42726818098866176
        ],
        [
            -0.47472927000883475,
            -0.3180444286073712,
            0.3119202405110537,
            -0.15081777966640234,
            -0.060524165017573545,
            0.1258367272972106,
            0.19058996149186166,
            0.13825510492923926,
            0.18729453598301862,
            0.21089025420810467
        ],
        [
            0.5016435426604855,
            -0.23073635136715398,
            -0.07020711163859376,
            -0.4554519078068383,
            -0.3842080913251602,
            -0.43314707695912624,
            0.14270787915242256,
            0.34656395877922497,
            -0.3271865541567635,
            -0.4771031835747257
        ],
        [
            -0.021429224375109225,
            -0.043045601785893936,
            -0.02746393124601696,
            0.28869946886408615,
            -0.2402790990754236,
            0.08763179000813719,
            -0.4519760549140661,
            -0.30039973064704534,
            0.40377742207222117,
            0.48187101497554347
        ],
        [
            0.14273527520138427,
            -0.07145596050733125,
            -0.06025224998561766,
            -0.04144441823743845,
            0.4089670215042127,
            0.09335675274016274,
            -0.06347601114431142,
            0.4563421839339919,
            -0.1269351311041719,
            0.35478980313442554
        ],
        [
            0.2441840837507034,
            -0.18241305738834657,
            -0.45154765346951925,
            -0.41411424855228174,
            0.20785859617667252,
            0.42249526368388446,
            0.31758320569350473,
            -0.3432767874987756,
            0.0666071949317258,
            -0.11118944771701499
        ],
        [
            -0.31741216383153753,
            0.11099751843694357,
            -0.2740308066259298,
            0.39826253011380514,
            0.3194899482389263,
            -0.21248442877862272,
            0.2238141068725267,
            -0.43266959763570306,
            0.40710450447966695,
            -0.19883287245426728
        ],
        [
            -0.1968038443512804,
            0.2802091167336972,
            0.1443462999699903,
            -0.49080451612124104,
            0.23293266619895264,
            0.03218716739364973,
            0.05419819206046453,
            0.027687326503132395,
            -0.4302075548586318,
            0.41218470103981203
        ],
        [
            0.2091286628589594,
            0.45146516096412387,
            0.13574172444131663,
            0.017585684533806406,
            0.2822189912361426,
            0.10222882579069408,
            0.367100450651577,
            -0.04927462713702399,
            -0.12164039013412206,
            0.27948908285634494
        ],
        [
            0.19342094530359544,
            -0.09452977833059382,
            0.14650354796196335,
            0.2452593011242439,
            -0.19071014979371825,
            0.04928833644127323,
            -0.3839142476340226,
            -0.19769640395659757,
            -0.24032705343792837,
            -0.33879646670015506
        ],
        [
            0.10114204280745022,
            -0.214196797090694,
            0.4553788529993227,
            0.22853709754258036,
            -0.1418706303475071,
            -0.24414426712101384,
            0.437553115629748,
            -0.056240676744651684,
            0.1324702376251317,
            0.324668254103339
        ],
        [
            0.3184391345886445,
            -0.08312816731752579,
            0.4395603108600095,
            -0.14364871676001717,
            0.013863107279875737,
            -0.24830622779185826,
            0.20968514343776246,
            -0.06026198164057259,
            -0.4830245637977383,
            0.11087019046571475
        ],
        [
            -0.09702931878296771,
            -0.017308402657230697,
            -0.11467441607625921,
            0.38586400567732404,
            -0.4905831890375267,
            0.01235099575436226,
            0.27364258917858675,
            -0.08798755011215947,
            -0.07569267995603716,
            0.47903580777008586
        ],
        [
            0.41154960453924383,
            -0.4442390474183258,
            0.09719260292308857,
            0.35749463023681366,
            -0.34513694201183465,
            -0.20007799386478883,
            0.08607903919052165,
            0.39225043018423633,
            0.3715994987705893,
            -0.42943492457117044
        ],
        [
            -0.41474955162887805,
            0.44085637941639494,
            -0.19980550173305003,
            0.14999012847101129,
            0.41377242006143916,
            0.37235767375223777,
            -0.23224817820170532,
            -0.5003106023307132,
            -0.14044531744291525,
            -0.18815130123867302
        ],
        [
            0.09800744346066805,
            -0.0995416247582966,
            0.3855584603537434,
            -0.1881331556806791,
            0.40170869066748865,
            -0.0481527405586022,
            0.1838371050639124,
            0.3123523924963095,
            0.46044950774864557,
            0.28331722021409234
        ],
        [
            -0.1387149058304368,
            0.2507937317101502,
            -0.10806185843695171,
            0.17340932605035872,
            0.00032143512401490323,
            0.09718933956731535,
            -0.07469331936770614,
            -0.42227450253841636,
            0.17108900496306476,
            -0.29094214800960827
        ],
        [
            -0.3286102106113158,
            0.284980835250014,
            0.3005745579908997,
            -0.14648814883835876,
            0.044236954401005245,
            0.43522050215117797,
            0.4863281059549271,
            0.0944436117034176,
            0.06956255520195907,
            -0.4298854923374755
        ],
        [
            -0.13463020257230213,
            0.18072365402885318,
            -0.2785015376797749,
            -0.4299305640784305,
            -0.013410408463085716,
            0.20231360221090133,
            -0.27550872363580037,
            -0.2021673377305239,
            -0.37053029401796694,
            0.0905818580534066
        ],
        [
            0.029862331693566842,
            0.4803443348524451,
            0.48858462039236883,
            0.04767671697108983,
            -0.18813764987238135,
            0.09830832051653021,
            0.3873321417618332,
            0.4137863419997914,
            0.08698065155800101,
            0.41700838281797487
        ],
        [
            0.026975072784233264,
            0.2756973211510068,
            -0.3362531557034813,
            0.20648703775518992,
            0.2898619816243209,
            -0.12369462747069453,
            0.30379703231838084,
            0.153931955699585,
            -0.4676665695330804,
            -0.27800054917571865
        ],
        [
            0.3986886621553626,
            -0.21348223318175816,
            -0.24974280654787753,
            -0.49457560645681903,
            0.39029086463414575,
            0.49655637639272554,
            -0.16470103217496884,
            -0.08475412540143833,
            -0.369448642067713,
            -0.08058727024156138
        ],
        [
            0.3613294017305661,
            0.07380973000035233,
            -0.17477556680149745,
            0.0739270710346858,
            0.4916522945301765,
            0.18972851257567205,
            -0.4910192921093565,
            0.46054376772927025,
            -0.12138105325289784,
            -0.23208909072055656
        ],
        [
            0.27480072942241823,
            0.21230990900126157,
            -0.006112527074924008,
            0.14457386799141553,
            -0.4406849261144734,
            0.10232925494647423,
            -0.45666563376974023,
            -0.29428054033962037,
            0.12661591041730072,
            -0.015061558387406401
        ],
        [
            -0.006788565353995921,
            0.19769097748955253,
            -0.05673330028822582,
            -0.27601567022870477,
            0.20199608118228618,
            0.13846410134834886,
            0.33536381162777523,
            0.15218939163616255,
            -0.39211535772909345,
            0.24654022782564916
        ],
        [
            -0.29300791467649945,
            -0.15921296751626543,
            -0.15269954317234896,
            -0.011158948431217265,
            0.07526416073782262,
            -0.2394851408164802,
            0.044039441884125036,
            0.3145097088162202,
            0.11243269531115023,
            0.20225162589860296
        ],
        [
            0.15905721618854654,
            0.3912086502822932,
            -0.18880469102805467,
            0.1020526819922504,
            0.05420823143275979,
            -0.2251163338506453,
            0.2943555004677715,
            0.31385748672814834,
            0.10062984983981442,
            -0.462645888713584
        ],
        [
            0.3688207116660427,
            -0.35573074014429074,
            -0.23478800806906872,
            -0.04579967610690204,
            -0.2407703570629741,
            -0.41588356722829195,
            -0.12404787961923873,
            0.26841735770683933,
            0.07503822583604457,
            0.27999566490482264
        ],
        [
            -0.4748637138841643,
            -0.21957168168368962,
            0.23530964672557383,
            -0.18814541991056158,
            -0.32234895346274317,
            0.43450634717442965,
            0.23321737711726087,
            0.3437408766222412,
            -0.1478864917819061,
            -0.39372546175623424
        ],
        [
            -0.4548468666907109,
            -0.20923881256946172,
            -0.1435534593651297,
            -0.4877805888324157,
            0.39734566149408723,
            0.3609283927431302,
            -0.3313399264246783,
            -0.05639937189101067,
            -0.4037586180400794,
            -0.029256856179679994
        ],
        [
            0.05487173721226384,
            0.37202654460050355,
            0.08523275861747777,
            0.09472319587456293,
            0.36399632948698174,
            -0.1608498466397025,
            -0.36083075899160244,
            0.15715314027226884,
            0.47574463373870673,
            0.0999655079216481
        ],
        [
            0.44736170762563465,
            -0.33063663523907516,
            0.2846463438308419,
            -0.40395060135830924,
            0.37485951062480877,
            -0.23747213051897592,
            0.42828301743957464,
            -0.14871792842458617,
            0.05068197049665225,
            -0.1291577589220043
        ],
        [
            0.1936188628533788,
            -0.4713857473575465,
            0.46202955747298763,
            0.42662474066060957,
            -0.27849098183750004,
            0.2585807571492761,
            -0.03028552278830518,
            0.34140966399085276,
            -0.17220478416986298,
            -0.04222663773752819
        ],
        [
            0.0022624636668285465,
            -0.267450226971309,
            0.4529254179014426,
            0.1786921780693558,
            -0.3025232183705112,
            0.4283275209908369,
            -0.2137384168812589,
            0.007334294466461783,
            0.15227156414261644,
            0.018060815543577226
        ],
        [
            -0.24910401235341992,
            -0.36293518819337356,
            0.48025367574523514,
            0.33527739637147674,
            0.17790397840322072,
            0.16074003305050097,
            0.01997573294293263,
            0.1579608906468782,
            -0.2984924801003475,
            -0.28216885561130406
        ],
        [
            -0.41690935955525016,
            0.4543249806039227,
            -0.21012976527723418,
            0.04712156459674759,
            0.3587314931108488,
            -0.010655397641182292,
            -0.49655627410916825,
            -0.45011347573509414,
            -0.2530617772768442,
            -0.3162493467361638
        ],
        [
            0.10990116522394974,
            0.41689698357658206,
            -0.23991389360794735,
            0.00899771919325705,
            0.4554902725551917,
            -0.12789612437240494,
            -0.12111906996214092,
            -0.19057264870569365,
            -0.43407201365884146,
            0.14984959137970535
        ],
        [
            -0.2954609322110918,
            0.27203550616813865,
            0.4274388383256462,
            -0.1253364227029333,
            -0.4295509465887671,
            0.4734110893613576,
            0.004475275083373292,
            0.2539191442348202,
            -0.15654500771379806,
            0.26906030904009776
        ],
        [
            0.18607776187527794,
            0.2914032855097929,
            0.09513126790662114,
            0.44388093668508666,
            -0.027067892576396142,
            0.5140636066631368,
            0.49238648618570885,
            -0.12968485511782477,
            -0.0358763327375902,
            0.3894637357845016
        ],
        [
            0.27424658861670453,
            0.06362403097108303,
            -0.48420937547804965,
            0.42074323265930325,
            -0.03589797383781787,
            -0.13835409188632677,
            0.23035161020666448,
            0.10519300634985235,
            -0.43578412757556967,
            -0.28925615146822
        ],
        [
            -0.1788403665444019,
            0.25420998141780526,
            0.3794322738767598,
            -0.22111883115453804,
            0.31901595334551935,
            -0.2882913640254874,
            0.3728093827406245,
            0.2912427666714028,
            0.0793189629086244,
            0.21715252715735162
        ],
        [
            0.35156939226023237,
            -0.10076248704539821,
            0.4982066915412597,
            -0.18147940512634686,
            0.20508994930638647,
            0.34033900504344927,
            -0.4149674660009644,
            -0.41356768712036285,
            -0.12267444568661257,
            0.30226969198790954
        ],
        [
            -0.05047381908591363,
            -0.4662568694889505,
            0.2825541798379891,
            0.39189602777958576,
            -0.33377382520625093,
            0.4620637346577225,
            0.47737375784857194,
            -0.1196564187892812,
            -0.056739764776910215,
            -0.3510307183656495
        ],
        [
            0.02773175293061671,
            -0.3762188126926845,
            0.08532523269299809,
            -0.21151987068995648,
            0.13061464392806768,
            0.03229139384082492,
            0.25621388938265244,
            -0.1695740201462735,
            -0.20536321438587754,
            0.34032084062672796
        ],
        [
            0.29960144306629155,
            -0.341035787614743,
            -0.26900405128624755,
            -0.400839019591171,
            0.3734251054431437,
            0.46942495086891306,
            -0.20522093820792311,
            -0.32985746751966216,
            -0.026387394079114296,
            0.488719305457545
        ],
        [
            0.377627571683212,
            0.027265644597157624,
            0.25456205116819597,
            -0.25004423097649503,
            -0.1353139414660793,
            -0.2335852759166083,
            -0.2990662889780973,
            0.3029059012705936,
            -0.08960128792542679,
            0.4937369988393472
        ],
        [
            -0.12413387798353664,
            0.015173875529591025,
            -0.2688532289561354,
            0.27991834506012575,
            -0.47768943887955084,
            -0.3546496902879361,
            -0.3305006966570079,
            0.0762679957004643,
            0.07233151821976128,
            -0.005683812577589778
        ],
        [
            0.09087537227924762,
            0.17945681866055974,
            0.006681262895938346,
            -0.3072512702541505,
            0.03065628973149966,
            -0.4258858034864918,
            -0.4380803837113512,
            0.16174495294420527,
            -0.004869806456639785,
            0.3154075417459463
        ],
        [
            0.09042109880606926,
            -0.2874598516152909,
            -0.46938287706317217,
            -0.4534486855242872,
            -0.23584804554942862,
            -0.28728462249352327,
            0.3886952467758832,
            0.2503719444436176,
            0.24562714240956496,
            0.32926370501684676
        ],
        [
            -0.2603433006639778,
            -0.3656351352805586,
            0.21887125251088962,
            -0.27232689614330374,
            0.4844339034936126,
            -0.3931016597766379,
            -0.18575138424178547,
            -0.041106993964385614,
            0.45330626581047745,
            -0.21400192354423422
        ],
        [
            -0.28341846635319146,
            -0.2751628449057721,
            -0.30220549785296963,
            -0.38464927559250506,
            0.14013773288747483,
            -0.15796908374207536,
            0.0736782711544218,
            -0.45868973687855574,
            -0.19893240432541776,
            -0.06439386658824099
        ],
        [
            0.29421048944427214,
            0.14560648752621977,
            0.30400659064685837,
            0.25154226923513745,
            -0.26949600311910665,
            0.017101323632432174,
            0.4041319708112758,
            -0.1668619395038999,
            0.448998425404842,
            0.31483067690477146
        ],
        [
            -0.4518884494732059,
            0.14737133592137028,
            0.09978146066811927,
            0.004556890182373759,
            0.267540626525671,
            0.24030008065957997,
            0.3971221631392442,
            0.46231469269938535,
            0.11227445405660252,
            0.5019609780251874
        ],
        [
            -0.17181389571742342,
            -0.46098900134916077,
            0.03936117866461803,
            -0.43468717635220677,
            0.4003346628452606,
            -0.35652894694867104,
            0.17982341311760433,
            -0.14479052124584513,
            0.4135860298407968,
            0.0841032953220163
        ],
        [
            -0.03390237360260025,
            -0.43549076107420265,
            0.35259680729763015,
            0.30295447754315924,
            -0.4094796771451206,
            0.5260227505857125,
            0.1642982915677774,
            0.07485926798445044,
            0.06838047436337508,
            -0.3274292508820292
        ],
        [
            0.029556762582864993,
            0.3947859589704052,
            0.26927124331357005,
            -0.09292613080319222,
            -0.023176620146431567,
            -0.028250329241260308,
            0.3811880166876105,
            -0.32178772400559774,
            -0.2247234676510608,
            0.1612222253732126
        ],
        [
            0.2320480381370982,
            0.26650980807465796,
            -0.2389195714899968,
            -0.5186278950734617,
            0.0034457911839513937,
            -0.04201979820377169,
            0.28519327855400334,
            0.19671865083431514,
            0.06323963999580762,
            0.15628542122698783
        ],
        [
            0.49093291041355624,
            0.26592153246576017,
            -0.1856795018313126,
            -0.15889431702840465,
            0.17563262608466512,
            0.09951893498371431,
            0.4758322410548574,
            0.15172546185682512,
            -0.28175189736695555,
            0.27275763004424125
        ],
        [
            -0.20238149807387873,
            -0.4951149551404293,
            0.2535660055129385,
            0.2020043871082229,
            -0.33766700368860186,
            0.15137502994559857,
            0.17123482566378032,
            0.3356705755437301,
            -0.15491012476223853,
            0.39457568368242
        ],
        [
            0.3382686637243037,
            -0.05361330204813132,
            0.34616951092128495,
            -0.2318120749452116,
            0.09380694669332003,
            0.4314381784161946,
            -0.37508498050650035,
            0.055648031061620584,
            -0.37180974978542136,
            -0.34840245462150843
        ],
        [
            0.38516279761055566,
            0.3554510362262531,
            0.3910829661624081,
            -0.06309652715374842,
            0.21353201028069058,
            0.5052199639089007,
            0.08730753728802522,
            -0.23883316758857814,
            -0.07827184891730855,
            0.4400261951460226
        ],
        [
            0.21012145932451268,
            -0.3925011714423269,
            -0.48031545843841217,
            -0.3644993712547733,
            -0.40211227051405457,
            -0.3586336538033325,
            -0.44571989757421654,
            -0.39407479650657345,
            0.1570245933859929,
            -0.1365507436751449
        ],
        [
            0.13353598275322115,
            0.4011587469665521,
            -0.05970897048935844,
            0.35289921695865,
            0.24626210182403416,
            -0.020197861598217633,
            0.48902701031940904,
            -0.38724253270900066,
            -0.15411024729929432,
            0.20637944704302072
        ],
        [
            0.14482615412896155,
            0.31572965385103724,
            0.12926310951111172,
            -0.3825028974371858,
            0.03469812031420376,
            -0.36356478015403126,
            0.11662981332044337,
            -0.10056758351039753,
            -0.431074541415992,
            0.016050055564957887
        ],
        [
            -0.4059640159290617,
            -0.12258939129825946,
            0.06353090009182977,
            -0.12008290940812823,
            0.24985484359851462,
            0.3338655280024308,
            -0.12066439082580382,
            0.46155568309257844,
            0.1779737520027147,
            -0.2592901254472144
        ],
        [
            0.3792168923860544,
            -0.2586520773951856,
            -0.4149884002513151,
            -0.21013331732517665,
            -0.23555837837622012,
            0.13170690938423504,
            0.323426281247738,
            -0.06352644049393721,
            0.25633531155554345,
            0.2623495959237666
        ],
        [
            -0.15557499174891654,
            0.4333397815865205,
            -0.3465105940887863,
            -0.17707847825357376,
            -0.14939571471982327,
            0.5542826138036937,
            0.21236226660299742,
            0.2190792567101815,
            0.35956624599470954,
            -0.3197044733981061
        ],
        [
            -0.3994195631309075,
            -0.5194868086508535,
            0.49107723801094244,
            -0.4695022932370146,
            -0.4611019554146833,
            -0.4073945201266585,
            0.12929460143737298,
            0.3963311907625846,
            0.04037756831030076,
            -0.0017044683626410437
        ],
        [
            -0.47905258257427213,
            0.16404272934391068,
            -0.15913294735171643,
            -0.03215563315638944,
            -0.38636378463427684,
            -0.42856809224627695,
            0.378103543986233,
            -0.19008562444393046,
            0.32191172448537414,
            -0.4542011354527734
        ],
        [
            -0.2965971564646218,
            -0.006870839633680532,
            -0.41422329514440004,
            -0.174557800198822,
            0.30315337086746613,
            -0.014846591920380237,
            -0.24982245409762305,
            -0.1910504820064427,
            0.30230346715011003,
            -0.3348900797304515
        ],
        [
            0.04201551004164609,
            0.10831673358508603,
            0.19758650706491554,
            0.10331463658773905,
            0.2035723055016986,
            -0.10502084483092412,
            -0.20253529115633617,
            -0.4902931649301108,
            0.12853993557596233,
            0.02966569749378636
        ],
        [
            -0.45120588782365123,
            0.4230829708093471,
            -0.15350014819897398,
            0.0785058516659001,
            0.40353584418487465,
            0.25766141548359534,
            -0.20717826561149216,
            0.28372026847269366,
            0.42777246547237885,
            -0.43619534353077294
        ],
        [
            -0.21149833636341425,
            -0.2201226356343985,
            -0.3096515612446701,
            0.27334986860448884,
            0.1474505431169258,
            0.44664192400869246,
            -0.3384790483352397,
            0.3549471192510285,
            0.3422538363141026,
            -0.0667365079070476
        ],
        [
            -0.24050772167329643,
            0.2697218626504489,
            0.04933183881560941,
            -0.4539803086236026,
            -0.26635249346071654,
            0.04680790864365967,
            -0.012380742173493966,
            0.45244797812165977,
            -0.4466117801503014,
            -0.421981065424715
        ],
        [
            -0.4526954544675382,
            -0.011731333692929405,
            -0.10481413237389561,
            0.26498632475328454,
            0.02868085023568566,
            0.13026895928373075,
            -0.15569332258662288,
            -0.4701691602475687,
            -0.5094645923724238,
            -0.08819075903394677
        ],
        [
            0.1309310365801824,
            0.37280341890975077,
            -0.4792905978942756,
            0.22421245948163504,
            -0.0943013067781726,
            0.2676028289283482,
            -0.21320703036646788,
            -0.22116082765730674,
            0.318217784453794,
            0.23063732132792825
        ],
        [
            -0.015462234041634224,
            -0.47484384108999544,
            0.5106856183123077,
            0.1945592621855061,
            0.3557943371718642,
            0.3193530159872561,
            0.018609889633646567,
            0.1410360456039143,
            0.37455553934539193,
            -0.31726838072328706
        ],
        [
            -0.372825181301018,
            0.029155780165543023,
            0.41088890680242146,
            0.14498153175873366,
            -0.08261562359630173,
            0.2676292242762927,
            -0.367597316468006,
            -0.10348916495021049,
            -0.54091149157005,
            -0.041115150208683005
        ],
        [
            0.43845021515920857,
            -0.042965770127036396,
            -0.3018061357053189,
            -0.38819648636668996,
            -0.08434206881886805,
            -0.05713513727214081,
            0.010896602155347641,
            0.2812395882949754,
            -0.4850290441221933,
            -0.1483081359092825
        ],
        [
            -0.4852873000052103,
            -0.3538289322285282,
            0.2534584033249114,
            -0.1790329393557762,
            0.34711414613542857,
            0.323865025784346,
            0.15557672219446023,
            0.1268220469894095,
            -0.14481014072841136,
            0.028675277285806256
        ],
        [
            -0.20616387801735725,
            0.05202335437043862,
            0.2945591235751674,
            -0.01887811825012761,
            -0.14515991615690166,
            0.35007219472851003,
            -0.07859163736307104,
            -0.2100619168727578,
            -0.5389239787427547,
            0.01515283530085448
        ],
        [
            -0.3029369164644211,
            -0.04021507482560184,
            0.06882333929762707,
            0.06081986691325337,
            -0.32237728599111076,
            -0.16171205110350337,
            0.10023688560706039,
            -0.16594194580457317,
            0.12400508454983103,
            -0.009540304335803771
        ],
        [
            -0.24684875830059455,
            0.1664157675546985,
            0.40180690478597386,
            0.04386248544232653,
            0.3266549169310858,
            0.5106985793272297,
            0.04413999036886245,
            -0.38220738592755843,
            0.35276048796793497,
            0.2951056513611633
        ],
        [
            -0.2732699694042078,
            0.06169464262582436,
            -0.16389325642652972,
            -0.31638127401890387,
            -0.3109893858716496,
            0.2590295744365396,
            0.24947851130146434,
            -0.22261122858623023,
            0.17158125634636215,
            0.07952668835364714
        ],
        [
            0.24717053488259505,
            0.08148991025910733,
            0.4159289795415688,
            -0.1439149676492931,
            -0.07701628488935702,
            -0.16966114279099323,
            0.12006754905857034,
            0.20479481189763662,
            0.4026384679715712,
            -0.04265269867684639
        ],
        [
            -0.43096517343361473,
            0.24109061918022048,
            -0.4211216886130269,
            0.37710457702231903,
            -0.48994898870678183,
            0.057887989917235136,
            0.13161773069326185,
            0.11005512972816524,
            -0.18319967526780617,
            0.47256385484662206
        ],
        [
            0.2976066878090131,
            -0.4296598276072829,
            -0.0016934114735918094,
            -0.0059438469569696875,
            -0.2797030909085103,
            0.14606087116009628,
            -0.05633082698427116,
            -0.23405433348651622,
            -0.34516439946954924,
            0.28176621024900866
        ],
        [
            -0.3695802453844561,
            0.04726458839574472,
            -0.13781359560717327,
            0.3453279112899136,
            0.35090987275413255,
            -0.33877793132182116,
            -0.20604694334877952,
            0.18688117193504683,
            0.005715336264372044,
            -0.19698560041829535
        ],
        [
            0.09862601161204587,
            0.27881538821579993,
            0.040625788193130244,
            -0.20675277693896185,
            0.19856530383974608,
            0.09419804573590651,
            -0.12962450924049912,
            -0.09258027436420188,
            -0.22313420147259738,
            0.3261735350772131
        ],
        [
            0.08634948699885246,
            0.4236321243099644,
            -0.023776577699047247,
            -0.1317028138266445,
            0.42832663006245913,
            -0.20707782884875428,
            0.42017118539834475,
            -0.16542706118286712,
            -0.37546835511714527,
            -0.1575750121241333
        ],
        [
            -0.4078077272614813,
            0.11286496357446796,
            0.1456931482392155,
            0.02289644226321713,
            -0.18692572509774322,
            0.5197575408958379,
            0.24432700901422802,
            0.4673748110437216,
            0.15264608603658658,
            -0.2513131572749332
        ],
        [
            0.03306102306493181,
            0.36113704785473605,
            -0.40015104479812236,
            -0.5548577590394412,
            0.1292442821831029,
            0.11589590282628294,
            0.07743973845707365,
            0.24169851681808582,
            -0.5555340207853334,
            -0.2476645021074244
        ],
        [
            0.3395384870993625,
            -0.24076011722780022,
            -0.3447544429172948,
            -0.06775764560702877,
            -0.49135187615455717,
            0.048627672613674754,
            0.27795182416285036,
            -0.009214087549982607,
            0.0836991558050222,
            0.3462988860581244
        ],
        [
            -0.494400383509633,
            -0.0271605286269666,
            0.20736441752378848,
            -0.30326464547795823,
            -0.05364973713539128,
            0.5395995367694498,
            0.36713333819254657,
            0.1216412998806229,
            0.26048883120470107,
            -0.18105199658492263
        ],
        [
            -0.06118909376194552,
            -0.4702631377737273,
            -0.2345686874741209,
            0.027215153957647367,
            -0.04487041234799852,
            0.524432398170979,
            0.42743150299588384,
            -0.2502155631751885,
            0.3506097543154902,
            0.4546791086630761
        ],
        [
            -0.10687402947998571,
            0.39378114753309706,
            0.007647478007694663,
            -0.3271732263957836,
            0.21501960098679856,
            0.1501037632718049,
            0.2706303650313831,
            0.31095507191277627,
            -0.266399245129304,
            0.06762724807778693
        ],
        [
            -0.18641724072462845,
            0.1640601133231439,
            -0.2620761061343377,
            -0.4388936640670248,
            -0.21236426280041748,
            0.3915097550502451,
            -0.2279544625296834,
            -0.2964039398455967,
            -0.0364780443927,
            -0.11478642397352756
        ],
        [
            -0.2276722373687335,
            0.3985034601930744,
            -0.29644650872771955,
            -0.29898902078676315,
            0.17157842796219352,
            0.13709623680043168,
            -0.040732453310732164,
            0.45175611241481683,
            -0.03819195824600273,
            -0.3269658626697745
        ],
        [
            -0.3931587400944216,
            -0.24318997312299773,
            -0.2303435881900892,
            0.05582534404667756,
            -0.3718479987060296,
            -0.225217586558541,
            0.45604263686596785,
            0.3213115680161237,
            0.3270123293625344,
            -0.46914099448290264
        ],
        [
            -0.3119049421988242,
            0.1549746879241452,
            -0.15209450760255158,
            0.4364579247982877,
            0.3743061991508041,
            -0.31491885375415135,
            -0.13546258970601438,
            -0.07885595356197962,
            0.2993759107652302,
            -0.43857019857200363
        ],
        [
            -0.015423460279110087,
            0.4343176127594049,
            -0.4679485644054445,
            -0.2008431557706377,
            0.1624893074659093,
            0.3678582301159254,
            -0.29804906176290596,
            -0.343879676128906,
            -0.38811414198352756,
            0.31906595179383246
        ],
        [
            -0.0656608496120981,
            0.022904938353166964,
            0.0708511749235545,
            0.31376027419661456,
            0.021511069439671484,
            0.11654604105902626,
            -0.22631983633899574,
            -0.3395940134533025,
            -0.48541452401731416,
            0.12083952536578803
        ],
        [
            0.1482578452736893,
            -0.004083995025002194,
            -0.0928134256000436,
            -0.22989368430711962,
            0.07921369989842458,
            -0.2719521643848899,
            0.43659670953350643,
            -0.4092923560590335,
            -0.32173262434925065,
            -0.3445616875905359
        ],
        [
            -0.1420333997011931,
            -0.1806039803953471,
            -0.03972036266412778,
            0.028497179134142115,
            0.20513521794415712,
            0.27720041811684054,
            0.24234758222789252,
            0.058514169555006545,
            -0.22347832227273842,
            0.4208353012516261
        ],
        [
            -0.19852854479699217,
            0.14525010176770708,
            -0.033772835969945576,
            -0.17055231986446945,
            0.13192498682985832,
            0.23705105312873842,
            0.061877858789155,
            -0.3475279047923408,
            0.2508512763983782,
            0.01873774616860741
        ],
        [
            -0.31841027238899655,
            0.38648112937326506,
            -0.0973419774769127,
            0.13585457755273145,
            -0.4172502223723765,
            -0.3743637065381365,
            0.10557153165615056,
            -0.44825904823855633,
            0.44036304196204507,
            -0.15538192250471433
        ],
        [
            -0.1396993150277649,
            0.40855317367070904,
            -0.2754788987829094,
            -0.4295629610082235,
            0.08788141612650792,
            0.3602972782836833,
            0.39871961094587793,
            0.30908296515517913,
            -0.3719077151726726,
            -0.14045834807955196
        ],
        [
            0.4380647777580259,
            -0.0218590412707314,
            -0.38075929630470584,
            -0.42936064147603875,
            -0.4184738510296869,
            -0.22403552366186275,
            0.3634337224988538,
            0.0914833870577985,
            0.3108203037440408,
            -0.45366083489670445
        ],
        [
            -0.2845862102663487,
            -0.47848529915998506,
            -0.3188090842653487,
            -0.17056162757027474,
            -0.10690714183186188,
            0.2862605436992772,
            0.3362453268554485,
            0.14774382667284305,
            -0.2104950201798455,
            0.4650279828039381
        ],
        [
            -0.003919484700500841,
            0.2544137349204007,
            -0.2729053152745811,
            0.0858465607331699,
            -0.4260771020700713,
            0.04876713743439729,
            0.2242211116132595,
            0.1366230149259111,
            0.2525466733269878,
            -0.3640952280612323
        ],
        [
            0.31312840364205663,
            0.3579937795807372,
            -0.31213575425939444,
            0.21207698060801466,
            -0.18966482855360967,
            -0.359551241177572,
            0.21306641606958182,
            -0.156445451186484,
            0.13305594570634227,
            -0.05501673941098965
        ],
        [
            -0.25148657328103147,
            0.4254292780644176,
            0.0574782666349346,
            0.42801376455228207,
            0.15698730150639967,
            -0.1857066617852413,
            -0.41266797629135826,
            0.3264859301982926,
            -0.16199686745954184,
            0.5013795921484416
        ],
        [
            -0.20011419177934067,
            0.027843296886461,
            0.19657645913298016,
            -0.5374393199331015,
            -0.22470965962727962,
            0.529559162185982,
            0.4741877033898107,
            0.33050270735691123,
            -0.4447919667060213,
            -0.014693667095738642
        ],
        [
            -0.05508974373106512,
            0.2686167648691144,
            0.07060080657241496,
            0.2126928667901516,
            -0.053789818302347726,
            0.1856353024983099,
            -0.2505562178347351,
            -0.5043771942158767,
            -0.1181560750695195,
            0.16613294723467809
        ],
        [
            0.07898879438759687,
            0.40033082416641214,
            0.38178240506066735,
            0.23061624345444964,
            -0.17777351034927602,
            0.4055182211269,
            -0.38027441510368015,
            0.06895089771687779,
            0.2874225450094728,
            -0.45794584335593996
        ],
        [
            0.2620876983985828,
            -0.35493602363822324,
            0.08351549408590843,
            0.367142624760017,
            0.04418462521879817,
            -0.22532242529069368,
            -0.39058461401772393,
            0.17885912514817504,
            -0.40571722679258543,
            0.10004387054634045
        ],
        [
            0.00664333112699638,
            -0.3777847315497265,
            0.19289479210882968,
            0.035559079083577284,
            -0.1915237782380007,
            0.00617470937845994,
            -0.01338057292914291,
            -0.1707637043659825,
            0.18017990146330298,
            0.11748576819941745
        ],
        [
            -0.4118747553268435,
            0.2161425195222778,
            -0.35130970938403355,
            0.12260848345879102,
            -0.39180845449275387,
            0.09776024839754255,
            0.1573953581339589,
            0.267694854197997,
            0.20973451357196027,
            0.3805352939511668
        ],
        [
            -0.4720295433410531,
            -0.19192492411596637,
            -0.13168987235166874,
            -0.15147742597762992,
            0.2265555523515397,
            0.042750483567968255,
            0.39225284919727965,
            -0.11270141274865739,
            -0.2844800098689991,
            -0.21777060873432177
        ],
        [
            -0.4218980268904767,
            -0.09790752744754745,
            -0.16749205425533528,
            0.30013798711330536,
            -0.39495883226238654,
            0.42945952737082954,
            -0.47008123028853216,
            -0.02433494528847941,
            -0.277345463088298,
            -0.38725162208139824
        ],
        [
            -0.45238817779825574,
            -0.3871041930821878,
            -0.07956498464005424,
            0.2679265183694998,
            0.41885354831593274,
            -0.3042983483807207,
            0.1682372141751718,
            0.0438748934928767,
            -0.3919528848625299,
            -0.40093049980725914
        ],
        [
            0.017394595328037693,
            -0.06952455819765287,
            -0.31937541518987456,
            0.0392403848441447,
            0.27634408120221193,
            -0.45245604601170475,
            0.4083302415140749,
            -0.2367939359417339,
            -0.2635612838926359,
            -0.48160537919879715
        ],
        [
            -0.22350492633117588,
            -0.26261941801185845,
            0.1582361338845656,
            -0.430520659303105,
            -0.08802557659588418,
            -0.2962199968394924,
            -0.3790424804960597,
            0.3734132159749854,
            0.1497373971722938,
            -0.4003280186603909
        ],
        [
            -0.49172876984852837,
            -0.08418021342348608,
            -0.34438294731473806,
            -0.3844759640734867,
            0.3399490028062853,
            0.24365642409799365,
            0.04520464185434443,
            0.3831114813196332,
            -0.036866451342579244,
            -0.4040686803167922
        ],
        [
            0.39668209803006244,
            0.15253621981826027,
            -0.26413653049795593,
            -0.30943503403080935,
            0.24063657525561155,
            0.06838993873750226,
            0.44575329781920525,
            0.10481036676724864,
            0.22596204034434506,
            -0.02103066384458706
        ],
        [
            -0.48837819297235113,
            -0.19712617215159003,
            0.33407971711006973,
            0.46412463227322714,
            0.44131189615360567,
            0.09699148406218175,
            -0.2993257624714013,
            -0.2976385003353801,
            0.3545821535848326,
            -0.24296690105134713
        ],
        [
            -0.25163682650778774,
            0.04178346099448398,
            -0.19124634696572457,
            0.38063681610611166,
            -0.07080964196061906,
            0.17493524178587458,
            0.12555004395968003,
            -0.4545172719193733,
            0.12013312321371156,
            -0.3450782269749082
        ],
        [
            0.3038583295725411,
            0.2070935683318739,
            0.11905316602418475,
            0.17844464444560185,
            -0.06473151203515591,
            0.25360729944074295,
            -0.23642872493931422,
            0.4540558043020833,
            -0.4861200539515449,
            0.35192254984607246
        ],
        [
            -0.0867180255416546,
            0.3253411801711933,
            -0.23247704712581826,
            -0.36284016175038003,
            0.04960966321530386,
            0.2968404859158275,
            -0.1494985792073594,
            0.4523514513322394,
            0.08993923891823306,
            -0.1434455809049205
        ],
        [
            -0.17737887259929158,
            -0.08521348561576621,
            0.2916246975809779,
            0.4742282663940799,
            0.46370814749744416,
            -0.17732143187083962,
            0.3502280005055919,
            -0.4216517782810433,
            0.2545213432871953,
            0.4810656840069758
        ],
        [
            0.37307395423388984,
            -0.30844499841312584,
            -0.35421692005118616,
            -0.4080933901543037,
            -0.0014413696183630889,
            0.3631290539930605,
            -0.014225089883242297,
            -0.2441729308592594,
            -0.2273285555008926,
            -0.10977017013948889
        ],
        [
            0.0018219648302889066,
            0.06262179167928911,
            0.1344078775614866,
            -0.054847243196181804,
            0.4225012201954012,
            -0.40442114637767124,
            -0.35178651000938366,
            0.30654211452353003,
            0.002976756241381483,
            0.008500189397535968
        ],
        [
            -0.3912227742583247,
            -0.05792228633809823,
            -0.31212335437301014,
            -0.061184458274301565,
            -0.14211881790523043,
            -0.00931013071709011,
            -0.382980609215114,
            0.04509793837854076,
            0.35750537450389536,
            -0.2544440620091421
        ],
        [
            -0.4183534745472693,
            -0.16264748231756224,
            0.4423625103204479,
            -0.3420802263678381,
            -0.1940644165734789,
            -0.3705886090497255,
            -0.20440937923090421,
            -0.3540260149937833,
            -0.03031591974507439,
            0.17697412299805473
        ],
        [
            -0.10946196306513886,
            -0.18141738678777744,
            -0.3860836362727481,
            0.27406528856707374,
            0.1317236585226429,
            0.42253744946448,
            0.20795572210954533,
            -0.28437246352300766,
            -0.20068926956947666,
            -0.30111749705439766
        ],
        [
            -0.08754123014492474,
            0.1178016225501877,
            0.20313212854127638,
            0.23094911839325424,
            0.4698431176851938,
            -0.3983942328562932,
            -0.42041965453866437,
            0.42286006452020475,
            -0.3861606829803957,
            0.22956131296458157
        ],
        [
            0.015070325743681015,
            -0.16378780506104193,
            -0.36245499331965575,
            0.15038373051509163,
            0.0667758182930018,
            -0.31772401695542984,
            -0.09689719846565244,
            0.1928342254190888,
            -0.2608382297306461,
            -0.43899791378578235
        ],
        [
            -0.1520951297965881,
            -0.0013952202502342948,
            -0.3064679266426173,
            -0.3262609990317301,
            0.3722768468027448,
            0.20527096289618418,
            -0.2770372435865632,
            -0.4653942143128146,
            -0.45751197353870315,
            -0.046200409057568934
        ],
        [
            0.315591207032919,
            0.42235682443058964,
            -0.2606813767309488,
            0.3910605951085925,
            0.4063220646023686,
            0.44044940362650986,
            -0.4971977503796168,
            0.13415497054620987,
            -0.45456786086085527,
            -0.2660587383371972
        ],
        [
            0.19109456803244887,
            -0.45054830214967595,
            -0.1878741123495466,
            -0.48491903728566343,
            -0.22062069871305595,
            -0.3498796136465422,
            0.05273993038324199,
            -0.42387997936999433,
            0.254721772394106,
            -0.4573511983134214
        ],
        [
            -0.3079035392714042,
            -0.09519963967458955,
            0.2493130625036253,
            0.4659934858349805,
            -0.18429201069526538,
            -0.15496542762056068,
            -0.35932994825535663,
            0.011934761254173297,
            0.1604261765414486,
            -0.26667852664404784
        ],
        [
            -0.24208964506128552,
            -0.2686340442476416,
            -0.08643450385584227,
            0.42052847878410665,
            -0.008321333904769255,
            -0.39468116603094755,
            0.3236375892730573,
            0.4860361650603678,
            -0.19233362195449516,
            -0.31278877444725006
        ],
        [
            -0.025204794051130092,
            -0.37530299734313327,
            0.2422442711161352,
            0.4361140834927074,
            -0.18721833593671616,
            -0.11759590177304491,
            0.20167554073056382,
            -0.007720846695435265,
            0.13797940991670904,
            0.3265811037303672
        ],
        [
            -0.41597277742606964,
            -0.07750856484551458,
            -0.07801905499200253,
            -0.016907163461709937,
            -0.36776458265741063,
            0.488386120892117,
            -0.012609041356988733,
            0.3803345474639673,
            -0.044394935885841216,
            0.3003488530437992
        ],
        [
            0.3586486305283434,
            -0.3045909279542789,
            -0.1848874201790223,
            0.23865505223724878,
            0.40754799784320705,
            -0.4285430929231458,
            -0.4945458411573783,
            -0.492390173247907,
            -0.494047528645399,
            -0.05250183928221417
        ],
        [
            0.3076642349013039,
            -0.1203738296377245,
            0.007574458969863481,
            -0.1867933939884382,
            -0.002573797847867481,
            0.49271920395007923,
            -0.32714822179593855,
            0.2188575026849883,
            -0.22545830657393923,
            -0.21307247029156845
        ],
        [
            0.22292770321291397,
            -0.35971397727556975,
            -0.2519537843342558,
            -0.17441634959687202,
            0.2892980775356155,
            0.5061795993823657,
            0.2887677583251269,
            0.4352010757567823,
            -0.14020222705212412,
            -0.45842754782237766
        ],
        [
            0.25798036212129055,
            -0.3735129288907619,
            -0.39049584447233204,
            -0.4049305803579786,
            -0.4617780123939421,
            0.3097047245132696,
            -0.32398367390731336,
            0.4683838583768597,
            0.2999452601782288,
            0.257223539147087
        ],
        [
            0.13548733369503366,
            -0.36570102162230694,
            -0.4258513714704303,
            0.09355058817246191,
            -0.13355629158011667,
            -0.08928389166523752,
            0.017409854169019818,
            0.2824336223470527,
            0.47486513182234036,
            0.5033608408892181
        ],
        [
            0.269819747726556,
            0.09471001631887326,
            0.09601100897173519,
            0.2397096415890883,
            -0.03736016258316684,
            -0.07270843233228647,
            0.23134475446819597,
            0.4161144065557534,
            0.1968631339097024,
            -0.4060825299196527
        ],
        [
            0.24237992635373815,
            0.2908974831864037,
            -0.35984789457740735,
            -0.18712103668904406,
            -0.17312407202709348,
            0.0289730564163692,
            -0.43845759702957415,
            0.29199764759678865,
            -0.44926273569659314,
            -0.14914736747356164
        ],
        [
            -0.21291986416739128,
            -0.008892655788672266,
            -0.18986976533898373,
            -0.13795841357007535,
            0.035977821174217564,
            0.3530131436430699,
            -0.15602176017765465,
            0.2889098494767195,
            0.05722599559878069,
            -0.21756198131670695
        ],
        [
            -0.061659972266764805,
            -0.07816741733002011,
            0.11342367205592019,
            -0.25774523658776183,
            -0.3483763836826443,
            -0.2528424183973676,
            -0.23891851413011442,
            -0.13394552530170722,
            -0.377540187092072,
            0.3073299450862294
        ],
        [
            0.23011542389304432,
            -0.26859174798199004,
            -0.16306444304103127,
            -0.39171210542633395,
            -0.44926079112127404,
            -0.169767861967776,
            0.47515737879075143,
            -0.16230783248035152,
            0.22520609122820962,
            0.40008371085019645
        ],
        [
            -0.006987211296581153,
            0.2014774026519177,
            -0.4672037239949959,
            0.09288109758882726,
            -0.2642213694219907,
            0.33410821566894044,
            -0.08345771681889359,
            0.22093602468642196,
            0.19353406364656336,
            0.4351935478987761
        ],
        [
            0.2379737333373152,
            -0.051390201542117604,
            0.20599482960164653,
            0.17673639576240152,
            -0.4164188749579133,
            0.20443152248910001,
            -0.15471879071384187,
            -0.46371948042384065,
            -0.12551622158795728,
            -0.31275920328942547
        ],
        [
            -0.021581944439984367,
            0.0050903803031628996,
            -0.09325102927553382,
            0.36300699927080443,
            0.46284146880056065,
            0.35582121379918075,
            -0.2652237124504934,
            -0.32530252033289675,
            0.48036552551361716,
            0.4840186876720449
        ],
        [
            -0.2656871316653405,
            0.3454076373676164,
            -0.12731038610324064,
            -0.006633734320243015,
            0.47255002616881786,
            0.10325768042744081,
            -0.34744616790008304,
            0.06101514314661467,
            0.16578999168288347,
            0.08886917189909305
        ],
        [
            0.2711058310200953,
            -0.41113627132701097,
            -0.12964321935699172,
            -0.009377862135324676,
            0.017963891304250072,
            0.35836616183568865,
            -0.2398522620343853,
            0.4784565716383044,
            -0.41029817193920004,
            0.10889409299702937
        ],
        [
            0.4064536788919986,
            0.4164664992622317,
            0.21971988655758448,
            -0.16353760261667047,
            -0.3809655811014514,
            -0.3412308079891539,
            -0.022980296106936342,
            0.1981664857088514,
            0.16005226552328636,
            -0.31488835626191575
        ],
        [
            0.38109746474806344,
            -0.32289908187444444,
            -0.018915815119633424,
            -0.4052770947683782,
            0.17374792610955847,
            -0.37834426723756054,
            -0.17670867333589468,
            -0.40801515332823174,
            -0.21790609361367178,
            -0.38678933808213956
        ],
        [
            -0.40409403941225325,
            -0.13046987167569213,
            0.3820157019879356,
            -0.011736659637478662,
            -0.3935756242341726,
            0.2712438363635946,
            -0.3422791004006405,
            -0.15804683942486297,
            0.4395967328323888,
            0.41032091048121677
        ],
        [
            -0.08129797175709186,
            -0.28806241489337975,
            -0.36120326860254665,
            0.3368527899096616,
            -0.1161146320988235,
            -0.4694343455008501,
            -0.45943509337703364,
            0.3138777174356278,
            0.21588122183742484,
            -0.12675423925121324
        ],
        [
            0.1583819093588206,
            0.21833276994684606,
            0.15226050205671096,
            -0.3627626989395967,
            -0.30021099751540625,
            0.2571414828890253,
            -0.07988253437558959,
            0.23326044167015733,
            0.03144775831371951,
            0.4725672799683849
        ],
        [
            -0.040496687479923285,
            -0.15474318865563497,
            -0.30972889228960593,
            0.22898734394278739,
            -0.08243700299410531,
            -0.22516324479919128,
            0.3929933713213027,
            0.17452550306521106,
            -0.11235209292024229,
            -0.4023642209019994
        ],
        [
            0.28920497182927646,
            0.3609596202180238,
            -0.21542494007613117,
            -0.40712912604599977,
            0.20503878980341544,
            -0.1350526051387197,
            0.03836822583053832,
            0.10392122458127263,
            -0.4212093451011321,
            -0.12800909597671908
        ],
        [
            0.11846642649046597,
            -0.10536081527951181,
            0.22761583900366664,
            -0.12799658571800776,
            0.3671118742612143,
            -0.04745407066247955,
            0.4122395827625027,
            -0.01162846501197638,
            0.11344408703944008,
            0.0891109071153091
        ],
        [
            -0.10461899339729588,
            -0.3262750926859677,
            0.4330686051299216,
            0.10101164887436276,
            -0.20614702062363605,
            0.45094400598098894,
            0.3084892891781789,
            -0.12897447967934494,
            0.408810201324424,
            0.4353494871224237
        ],
        [
            0.07041671900741854,
            -0.13902975923484134,
            -0.36406156695620545,
            0.43000519620557087,
            0.2562640308870502,
            -0.12128041022685074,
            0.017753510240802337,
            0.48685900123455933,
            0.24225219500496784,
            0.1457737723334858
        ],
        [
            0.4827497309818309,
            0.3875374602041557,
            -0.44537521730711843,
            -0.2433515914472869,
            0.2399256912961035,
            0.3771734971855441,
            0.12331244619288284,
            -0.4489343881662198,
            0.3846708241365885,
            0.2590446245785105
        ],
        [
            -0.15693148079838073,
            0.2031430906866149,
            0.397782773338333,
            0.34684077355178544,
            0.07769177567308454,
            0.09820305765076921,
            0.017938736099705813,
            0.4204572147009729,
            -0.023601471040280042,
            0.2795072639872764
        ],
        [
            0.1596754913130017,
            -0.19917423793553068,
            0.002828596202160387,
            0.34833962805016977,
            -0.31296692471177034,
            0.3485963830824997,
            0.41734028874840934,
            -0.4625905015269932,
            0.242062358175535,
            -0.01797413136069125
        ],
        [
            -0.3659430129915686,
            -0.4687935427775433,
            -0.30263018208357256,
            -0.34227665439799554,
            -0.48667718917629865,
            -0.15182192731046618,
            0.3252844862876736,
            -0.44395702613336036,
            0.03174848305834066,
            -0.11152345745363432
        ],
        [
            -0.28831881335451776,
            0.07708240516404988,
            0.1576079630035909,
            -0.40997889960001815,
            -0.11198206671235991,
            -0.18836956381941836,
            0.27710972562532005,
            -0.09246223501872823,
            0.24295921145626595,
            -0.22070656886497952
        ],
        [
            0.43105902945778163,
            -0.21637262884031006,
            0.3711992794500732,
            0.2582708665074416,
            0.10164124671731582,
            0.16280101062302427,
            0.40054455344407197,
            0.4550070327568258,
            0.36893240228042606,
            -0.4449544069779388
        ],
        [
            0.36009427132639654,
            0.17853787822058323,
            -0.19212335195204988,
            -0.39277730202263583,
            -0.468623774881895,
            0.09604357514326554,
            -0.0174529265529915,
            0.4075640198041683,
            -0.11620487052622924,
            0.49936431130885356
        ],
        [
            0.2560222790364334,
            -0.2749967957118522,
            0.19220490557828254,
            0.18136896642460115,
            0.2060111445271774,
            0.12981714324424648,
            -0.029825794511084112,
            0.4560868907581257,
            -0.07040371208404186,
            0.11560575711510931
        ],
        [
            0.15453559022685598,
            -0.26445377173932605,
            0.12139440099098212,
            0.13710477360457743,
            0.11880549276832209,
            -0.081755987498669,
            0.27855838614356376,
            -0.22045035630588733,
            -0.4917727939616354,
            -0.16761367243853278
        ],
        [
            0.2604635912329726,
            -0.27008924175314464,
            0.06870218383733162,
            0.12719926117076258,
            -0.026866175655957884,
            0.10291578610548621,
            0.03750668191347522,
            -0.24241840402464887,
            -0.01273959675901221,
            -0.33572679670139244
        ],
        [
            -0.3855639257325863,
            0.36011305043446273,
            0.4383394002143697,
            0.2975591136393579,
            0.4895789560682131,
            -0.07263336060621245,
            0.1384146738740332,
            -0.4221146603877503,
            -0.47257421142844447,
            -0.06307171892838635
        ],
        [
            0.487903709285337,
            -0.38325697264537445,
            0.1593434753582371,
            0.2327563334083104,
            -0.37900354486239946,
            -0.009002091000311766,
            -0.27050077925251337,
            0.011739615682293014,
            -0.015130297327113748,
            0.14175439617996524
        ],
        [
            -0.44986361238044176,
            0.13884539569110538,
            0.2226032720260858,
            -0.1745539013505207,
            0.4277509269284169,
            0.0004338045781910987,
            -0.1771638906875452,
            0.14291466413816525,
            0.059965319779558934,
            0.40612060690590424
        ],
        [
            -0.4177862474411617,
            -0.3156531436301882,
            0.4425945891085351,
            -0.4923966896632711,
            -0.16764936240061595,
            0.1913116270296685,
            0.00017632046446022909,
            0.33394970209700514,
            0.15327863508694448,
            -0.3291070516426562
        ],
        [
            -0.279536891419472,
            -0.01832590427899307,
            -0.11918125346194922,
            -0.2224492426389922,
            -0.473742875550666,
            -0.20148792813367614,
            0.4880922195008438,
            -0.12907848438383984,
            -0.18296052105715221,
            0.010839645462490801
        ],
        [
            0.19653416804280985,
            -0.4643288671357349,
            -0.2227779163419016,
            -0.24933396981891356,
            0.4958403718055532,
            0.48239606901932564,
            -0.27080203851112483,
            0.13362264808538324,
            -0.39647061980132225,
            0.2910603087759521
        ],
        [
            0.22141825884366628,
            0.40457942771841016,
            -0.18874018119487904,
            0.48133039854861054,
            -0.3325003902699526,
            0.4121202292678334,
            0.1546141843226265,
            0.45895971138549063,
            -0.06545162562165956,
            0.09197701670553714
        ],
        [
            0.4467287698885023,
            -0.0175168192386176,
            -0.038303238477734314,
            -0.47399816568846886,
            -0.3416767398889228,
            0.3083966183436211,
            0.241709419916159,
            -0.3244642276612827,
            0.34173789071454214,
            0.25175462908602597
        ],
        [
            0.2561725216790701,
            0.45997195692153575,
            0.3942327014168758,
            -0.2914095531081989,
            0.3148963214512131,
            -0.3458677652023818,
            0.29210995193648726,
            0.25848919651948105,
            -0.428474614117888,
            0.03782648639384448
        ],
        [
            0.0780013913465729,
            0.4714408051506564,
            -0.11439490260308198,
            -0.1904275422309845,
            -0.15915782806204526,
            -0.055999502782216395,
            -0.21176627777821955,
            -0.22630651089204842,
            -0.2931756257684511,
            -0.4866031023725278
        ],
        [
            0.24033759117199213,
            -0.4912333432285015,
            0.24789505184401986,
            0.023409655753076044,
            0.025920321461286876,
            -0.3833662457649743,
            -0.1813018005313494,
            0.4112260271017768,
            0.1205936174901495,
            -0.26764041222796753
        ],
        [
            -0.21869779723941626,
            0.46894567576275276,
            0.2009042348240887,
            0.11907248260753639,
            -0.33899061089012866,
            -0.23961558038382116,
            0.004079246836697753,
            -0.47207327685753536,
            -0.10249054137961208,
            -0.3744704410369436
        ],
        [
            -0.1940724696896809,
            0.3344777180791274,
            -0.4859922310761602,
            0.052294416867763656,
            0.283892798874545,
            0.31572445520866055,
            -0.21379842602226287,
            -0.08698998269028126,
            -0.3613249174899728,
            0.392253932292431
        ],
        [
            0.27490575051830723,
            0.1668875412221488,
            -0.3374816510541546,
            -0.3999007927984773,
            -0.12323750849967871,
            0.218533766840807,
            -0.10633601657396669,
            -0.49251181605196287,
            -0.04732820420266011,
            -0.37912172161646807
        ],
        [
            -0.27116419564348676,
            0.4777968320146786,
            0.4608002109302224,
            -0.19869999147649572,
            0.14543659671184525,
            -0.14735085373915513,
            -0.4617355696142697,
            0.26796491197249717,
            -0.49073954456264324,
            -0.30800519516516206
        ],
        [
            -0.4197100832504312,
            -0.07333823097495558,
            -0.4355510696701975,
            -0.14009533119357717,
            -0.2167305086508163,
            -0.2073502159070928,
            0.3555337809910493,
            0.28635543568759103,
            -0.15181411262901337,
            0.10168715160040812
        ],
        [
            0.30758674559310756,
            0.21887206859251535,
            0.1802387404891676,
            -0.31536684946089794,
            -0.23413990104980148,
            -0.0024453352988919436,
            -0.3791672986315319,
            -0.11588033057656641,
            -0.13107900549030785,
            -0.41175000432401443
        ],
        [
            0.14578143255521198,
            -0.114799668285751,
            0.3915654966834269,
            0.12001946957198192,
            0.1098229803026447,
            0.4153098289638314,
            -0.20380310815635097,
            -0.2588215405519968,
            0.15323451197834198,
            0.15274238968453968
        ],
        [
            0.24363212904983203,
            0.10097560192307325,
            -0.34631949924446465,
            0.45570334741890156,
            0.31289139601748833,
            -0.45609264181268566,
            0.22185607412012315,
