{
    "ApplyHiddenSize": 10,
    "ApplyLearningRate": 0.03,
    "ApplyOutputSize": 1,
    "HiddenBiases": [
        -0.2322399615369974,
        -0.42368972320709014,
        -0.013510488133703594,
        -0.07416536892335986,
        -0.2012581886926845,
        -0.1676321791888444,
        0.09835610048824797,
        0.1568510961682899,
        1.326283342853496,
        -0.911407901308875
    ],
    "HiddenOutputWeights": [
        [
            0.22301395050287043
        ],
        [
            -1.7828262117676903
        ],
        [
            -0.019513572449096017
        ],
        [
            0.2048130286136061
        ],
        [
            -0.12079872538789266
        ],
        [
            -0.4698328809339966
        ],
        [
            0.021908892420327924
        ],
        [
            1.05059243889897
        ],
        [
            2.1862913260096972
        ],
        [
            -1.2692812437969871
        ]
    ],
    "InputHiddenWeights": [
        [
            0.3523808967636715,
            -1.0332800716087704,
            -0.31123741654917836,
            0.48206578666612354,
            0.3127198080612977,
            -0.12212219720456952,
            -0.3624656006719818,
            0.6355110343866232,
            0.8020394950108816,
            -0.8981840332973796
        ],
        [
            -0.3648205547916102,
            -1.3665426560240665,
            -0.41949088571971943,
            0.4640940131680468,
            0.0626272785006174,
            -0.49164218693363465,
            0.2217957100256083,
            1.161190498824123,
            0.9004194522096804,
            -0.43889967316776435
        ],
        [
            -0.11628236682970433,
            -0.2139572456149183,
            0.13329009651931656,
            -0.25258162563917674,
            0.21586530427347567,
            0.440490977032656,
            0.2788153686471142,
            0.6122663631608983,
            0.34144969944109316,
            -0.24217900163845724
        ],
        [
            -0.0010080839719418552,
            -0.5928557803258556,
            -0.097337300897027,
            0.4355037293508753,
            0.06312904578051186,
            -0.453159770710864,
            -0.0724969232017504,
            0.004456010290979287,
            0.3726258356198991,
            -0.759390304725553
        ],
        [
            0.46648182156281615,
            0.04091238640669327,
            -0.24468816335868915,
            -0.187264933114113,
            0.3307198813131428,
            -0.047070745854494445,
            -0.11215970440387803,
            0.19373963609780329,
            0.8524572322972656,
            0.09505807175317595
        ],
        [
            -0.021483415413550283,
            -0.48870059236368535,
            -0.37134901318880725,
            0.21262430245982866,
            0.41887300602662686,
            -0.14015386091020532,
            -0.3160328063916648,
            0.2093046512375218,
            -0.0791511398366759,
            0.03677077429738142
        ],
        [
            -0.2759719396663789,
            -0.6526575690742429,
            -0.1453937984445391,
            -0.12062237020817064,
            0.16256955545224572,
            0.06474894461676103,
            -0.2253740763732297,
            -0.1982630501238132,
            0.5108560111623699,
            -0.15984287489516086
        ],
        [
            -0.08206463611054624,
            -0.07114665476249073,
            0.31368428476071036,
            0.4129830273262776,
            -0.13969370474058043,
            -0.034865178717886185,
            0.430636417886079,
            -0.22262007058885597,
            0.5530370928180033,
            -0.26329590630537864
        ],
        [
            0.3700624959037099,
            0.23425473308000438,
            0.23931850061782192,
            0.5266648888422006,
            0.45076413668795834,
            -0.4215729919197793,
            -0.10214569829125793,
            0.1032869589453687,
            0.7210612889458079,
            -0.07875362999060737
        ],
        [
            0.09028326941797299,
            -0.39309997408335434,
            -0.11321278323007938,
            -0.24985580764579549,
            0.2889791883139518,
            -0.4142368222777478,
            0.19531944773347676,
            0.5978468567667853,
            0.6636029928646852,
            -0.48929501677151277
        ],
        [
            -0.279391618172893,
            -0.7050269947875405,
            -0.3750492925477728,
            -0.3738207735100833,
            0.060219046973099495,
            0.010037932108153276,
            -0.11088091492370258,
            0.1380050714447545,
            0.6125429332797431,
            -0.41540694330001005
        ],
        [
            -0.17565746308713895,
            -0.04671370216734541,
            0.4384029484090816,
            -0.24038274347084307,
            0.14674136249760214,
            -0.2723352765772115,
            -0.48088960709013917,
            0.6871602039145769,
            0.11564821530778145,
            -0.4603080023293473
        ],
        [
            0.5517982748043806,
            -0.6016362600107319,
            0.44448269369795096,
            0.02591880316223226,
            -0.48556777331280554,
            0.08899059286500745,
            0.13656765071105278,
            0.3787826463555044,
            0.4744773892044682,
            0.14052732426574846
        ],
        [
            -0.044909997288953805,
            -0.26162639437556495,
            -0.0031251586077059015,
            -0.37906055957743456,
            -0.3686664782657714,
            0.10537107335424832,
            -0.22813749571291783,
            -0.011390294772609005,
            0.4605568025584362,
            0.05193565715911771
        ],
        [
            0.2334200040756291,
            0.051644291802339135,
            0.3462208700220797,
            0.17200919350902866,
            -0.2536407499067912,
            -0.3274154494861547,
            -0.28315454632952736,
            0.21725815235553153,
            -0.22038466396394946,
            0.04111770745908929
        ],
        [
            -0.35803996892830653,
            -0.4019464406534076,
            -0.18010461850747686,
            0.3772836226231414,
            -0.3939224714018879,
            -0.3752421432913317,
            0.39497722728895024,
            0.16194886940723277,
            0.23919813207207952,
            0.021611046940210814
        ],
        [
            -0.2693126140234114,
            -0.2153433084957047,
            0.1662367211720176,
            0.34820667052974685,
            0.05526610877474527,
            -0.09246741161402727,
            0.45081700073032843,
            -0.012270523112779964,
            -0.197568776126087,
            -0.38504831989455873
        ],
        [
            -0.3699275363989509,
            -0.2693656844165412,
            0.2384450354682773,
            -0.4374021207201063,
            0.39889484658617214,
            -0.007298396430772739,
            -0.40713748096811464,
            0.21330548377865222,
            0.4567638810158263,
            -0.012634526514430151
        ],
        [
            0.37851915803276304,
            0.17989228228438237,
            -0.3521101888230264,
            -0.38186397816789813,
            -0.1260232534571121,
            0.14676395127176475,
            -0.1283199891263841,
            -0.2814895925027111,
            0.034062977840575916,
            -0.07905323083700659
        ],
        [
            -0.07419627683515445,
            -0.3923413297602798,
            -0.4216276822146033,
            -0.4380464305973374,
            0.361648259872329,
            0.22673634849870214,
            -0.4818017595948132,
            0.4546174353417437,
            0.5258014415071751,
            0.30561785565487887
        ],
        [
            0.15360534681798493,
            -0.16354276511235197,
            -0.30181007793225817,
            0.19572398506191044,
            0.30008153473602733,
            0.41630819001773556,
            0.37905554742171,
            0.3078345527217529,
            0.4831249484625335,
            0.3467887442324331
        ],
        [
            -0.09717616420048548,
            0.27848206171678686,
            0.1914886455183745,
            -0.4088219849480761,
            0.44309257060717266,
            0.12474201534283531,
            0.4704532187669369,
            0.5445518795508917,
            0.038646947730034575,
            -0.4514144441144225
        ],
        [
            0.2851795187706505,
            -0.29086502500251565,
            0.45585165472297645,
            0.33765993215518053,
            -0.01301082819448503,
            -0.06888991924149122,
            0.3657104068895313,
            0.051397732130120236,
            -0.18800525687753783,
            -0.19827058338075235
        ],
        [
            0.01950108560646227,
            -0.32453008285582796,
            0.13446547220144897,
            -0.15303668426612313,
            -0.5161686278149499,
            0.38085244001806406,
            0.1429695336431481,
            0.5013589130508381,
            -0.22830704589814768,
            -0.4435273969862006
        ],
        [
            -0.12997093999696718,
            -0.296094504176546,
            -0.04211842006244598,
            0.5035581943114159,
            0.3632182063835646,
            -0.4987605192597479,
            -0.4046604070209096,
            0.46599038826023104,
            0.7143293240464293,
            0.08842861043600084
        ],
        [
            -0.06404214667472626,
            0.2679515265961723,
            -0.4831768926775551,
            -0.4444987363870397,
            -0.3583465080411616,
            -0.4715241117436538,
            0.4524430807233108,
            0.49770140495841947,
            0.5927570219204682,
            -0.6877367069373855
        ],
        [
            0.4661001294708892,
            -0.34398621908389637,
            -0.31885606600420097,
            -0.16108954569925615,
            -0.22857986761437268,
            0.2731512996556052,
            -0.3860167351271391,
            0.4663209071097124,
            0.30484257528660696,
            -0.14104110153132696
        ],
        [
            0.3278714842315875,
            -0.34365253385412753,
            0.05603335227757207,
            0.4338203565047047,
            -0.37483241901541253,
            0.3301618390901346,
            -0.022099510625485146,
            -0.2964798140723323,
            -0.27256310914029513,
            -0.6053890378681425
        ],
        [
            0.1889281286509133,
            0.2661431347397249,
            -0.2579140446398316,
            -0.3067962629972482,
            -0.4784534577260862,
            -0.30524558541242836,
            0.4755288787876307,
            0.19738497042195377,
            -0.280345499541808,
            -0.485760641646314
        ],
        [
            0.1892785983297695,
            -0.14731446642291868,
            -0.1306876565281296,
            0.4578819960223353,
            0.05767083688569334,
            -0.21307824727579797,
            -0.4574766089773505,
            -0.3001245356639237,
            0.2639440805953384,
            -0.4292072153360749
        ],
        [
            0.39281493342279095,
            0.13231299760504894,
            0.03805253080222176,
            0.3522948466820911,
            0.38718700427141717,
            0.11467858359702615,
            -0.43707801367030674,
            -0.18472892822932424,
            -0.06485110406451665,
            0.22872177504735788
        ],
        [
            -0.16534050244527718,
            -0.5912791086612269,
            0.0315399363987276,
            0.29570399208722564,
            -0.23498468906550207,
            0.43682791752073963,
            -0.029638355169721946,
            0.2106465522915405,
            0.09238252175415369,
            -0.06783277514883639
        ],
        [
            0.36048599998560754,
            0.10037445093005487,
            0.10592462294276919,
            -0.4521508504412231,
            -0.3860236125373577,
            -0.07218153702003836,
            -0.21312697336390066,
            0.710814865922733,
            0.32874108736757746,
            -0.5918495065052597
        ],
        [
            0.4679201724907253,
            0.05960764879519192,
            -0.06722786349578423,
            0.3559534964349959,
            0.247122599668851,
            0.07791431787774722,
            -0.4526848112349321,
            -0.23899114638255112,
            0.04956121674760545,
            -0.06758039307289193
        ],
        [
            0.16733603193374497,
            -0.39418620994565795,
            -0.014266627213457868,
            0.016087771105466896,
            -0.07028819710016208,
            -0.32956780690381154,
            -0.056887829253627606,
            -0.26765140496655526,
            0.38028126729244294,
            0.17078072557428883
        ],
        [
            -0.4003181784340817,
            0.13247944672466552,
            -0.03315938361929169,
            -0.1286842742576272,
            0.09983746670642282,
            -0.43611770016328616,
            0.21785011378755867,
            0.5232303180431659,
            0.5811694860851692,
            0.021220443007029546
        ],
        [
            0.19759168442462124,
            -0.04090658644438561,
            -0.13411777853371556,
            -0.31917264148319446,
            -0.4039688429568202,
            -0.050778633193903355,
            -0.4930383180388559,
            0.16748982856422842,
            0.5311995090566699,
            -0.023250137642663954
        ],
        [
            -0.011916966899764677,
            0.09287742814102821,
            -0.42098462927757874,
            -0.14690658255773203,
            -0.27455216056841397,
            -0.12692842932776344,
            0.05085325546540721,
            -0.13959381739204246,
            -0.20944302029979373,
            -0.269268652500135
        ],
        [
            0.2674615426900161,
            -0.5188029901173037,
            -0.20670303371239673,
            -0.35315752301102515,
            0.0563922638107357,
            -0.3458105218851194,
            -0.34903572300665864,
            0.4751524362788528,
            0.038474491000578794,
            -0.06222929853677486
        ],
        [
            0.510352105040605,
            0.17794160263596212,
            0.20862145405319757,
            0.4079844878655319,
            0.03923070628533874,
            0.050684753138131707,
            0.0025682320517119556,
            0.07741004542078903,
            0.46922291949923234,
            -0.5212444719887912
        ],
        [
            0.008639423724809565,
            -0.5051649657756608,
            0.2292994363435971,
            -0.33925266831737444,
            0.1853227306131538,
            0.3253555608998306,
            -0.23662953438379483,
            -0.09349148027511942,
            -0.1132411191332719,
            0.1243761297609196
        ],
        [
            -0.3320473259435422,
            -0.1330278806551978,
            0.15375071841521057,
            0.2593054380029933,
            -0.4817065340513305,
            0.2244486150654116,
            -0.48904441312404745,
            -0.13082939337933794,
            -0.16964363750995168,
            -0.17794928828917003
        ],
        [
            0.48097850460208913,
            -0.6346304316179133,
            -0.26779243971683614,
            0.18531303138096192,
            -0.3161769071203518,
            0.09105995980244333,
            0.2499471455754614,
            0.40455375733590765,
            0.5931082308945866,
            0.10747582368095239
        ],
        [
            0.04648259075915568,
            -0.3614747683212715,
            -0.10827190627018786,
            -0.09007499101173713,
            0.33497484352352425,
            0.3303355927142606,
            -0.04868765761612133,
            0.08873825955514382,
            -0.1507792389904112,
            -0.47078400887324295
        ],
        [
            0.5205194423695262,
            -0.26851380786481355,
            -0.45175824914385165,
            -0.2512272860300175,
            -0.34869376842934063,
            0.09401934342517321,
            -0.09935719943631074,
            0.42887946632326324,
            0.5023485164938122,
            -0.3594589678672777
        ],
        [
            0.48821408341676464,
            -0.5038483577466711,
            -0.11356589751558388,
            0.3555029692145238,
            -0.1404940307973296,
            -0.3044534278232088,
            0.48264112318787267,
            0.3366086314071522,
            0.279668596700746,
            0.023762399088956807
        ],
        [
            -0.060999323432860394,
            -0.02757616329952805,
            0.3924644183283848,
            -0.2596459125470021,
            -0.15127955667313817,
            -0.21522335103841905,
            -0.39918576536117695,
            0.11977393795676299,
            0.6156173736306736,
            -0.37707401592672
        ],
        [
            0.26334521708022884,
            -0.24269821180949544,
            0.4121703796601623,
            -0.2709189788140874,
            0.3358165170644301,
            0.1655816241668849,
            0.3207230547866329,
            0.2080351839279984,
            0.07356240920615852,
            -0.4646552716672652
        ],
        [
            -0.0005804092956872796,
            -0.061246709932573425,
            0.1987385312006565,
            0.2634689262182336,
            -0.27739616241741716,
            0.02800921844092358,
            -0.32875012022196115,
            0.287934984762681,
            -0.24242405091319738,
            -0.5288063634897165
        ],
        [
            0.021747315379116484,
            0.2035981242293529,
            0.4263461741159095,
            -0.19896002323764816,
            -0.005461819958412879,
            -0.09804274290699228,
            -0.03564882139528797,
            -0.23661190440987398,
            -0.1481670349400073,
            0.31365951902941286
        ],
        [
            0.27769082835487,
            -0.43531162637175186,
            0.12366151462161724,
            0.26501923669291677,
            -0.3242991358217518,
            0.3941007947266588,
            -0.38486983886170406,
            0.2507544044487951,
            0.48845524397436724,
            0.35739265717539226
        ],
        [
            -0.17352304000929802,
            0.18739772154348694,
            0.02374205184469293,
            -0.24348816870600995,
            0.37250876807967076,
            -0.48264549618999125,
            0.4080479904349883,
            0.0010680695007800254,
            -0.04028086069743619,
            0.25944518204124867
        ],
        [
            0.44552097337454716,
            -0.5400441863154338,
            -0.4167964401714903,
            -0.44620190132809373,
            -0.364771510452378,
            -0.45697582133841985,
            -0.4465352989781524,
            -0.13731483173031184,
            0.5797659823177743,
            -0.4588589683732703
        ],
        [
            0.01884888991021775,
            0.05475190338201201,
            0.5008080446354808,
            0.1249591734844455,
            0.1460461326938159,
            -0.2940183773631081,
            -0.12723367004174505,
            -0.16571532176424558,
            0.4151437263195366,
            -0.46667753846747834
        ],
        [
            -0.0940178234436509,
            0.3445144234971414,
            -0.3980797312212217,
            -0.1414113751879245,
            -0.5222957370220626,
            0.14831178815616727,
            0.13448294809574088,
            -0.35923517165712116,
            0.028430501916934903,
            -0.4046123541532085
        ],
        [
            0.21753203832955786,
            0.27364580127243904,
            -0.4378823079215312,
            0.27498004839296286,
            0.25146520705002784,
            0.02917273299712451,
            0.08565971129392556,
            0.41501743831584514,
            -0.2860069392278292,
            0.32891770164882533
        ],
        [
            -0.02353547565256241,
            0.3187212783047548,
            0.26137054081412414,
            -0.3636615827287602,
            0.2741332039337759,
            0.20008327202898357,
            0.19080087191678605,
            0.25764035365982846,
            -0.20936705182670126,
            -0.4619649856404299
        ],
        [
            0.2123891363814101,
            0.03226403630266419,
            -0.2975267361741647,
            0.40571516593493556,
            -0.4453195971961381,
            -0.000977751433112491,
            -0.36121872151959944,
            0.028147505816447017,
            0.0711457868578885,
            -0.26247101357420305
        ],
        [
            0.4513287694601324,
            -0.1848661260363827,
            -0.4785877494727883,
            -0.2984574765945609,
            -0.02947503060437025,
            0.16612409520366214,
            -0.06629590162323168,
            -0.38154008487864954,
            -0.05538986890576552,
            -0.4002545303544815
        ],
        [
            0.05977666520348673,
            -0.02635967438873034,
            0.29177150785815487,
            0.40463284100311364,
            -0.11307277167290569,
            0.13775291533540276,
            0.46113789516572384,
            -0.09508172910973596,
            0.05588352216989398,
            0.27463194664114404
        ],
        [
            0.2859498038664071,
            0.005738776298735639,
            0.20314967875530932,
            0.4214599570856957,
            0.46381187201188473,
            -0.1440726929735606,
            -0.04081002412447305,
            0.48364840915610713,
            -0.023819858657771628,
            -0.23489743111626749
        ],
        [
            0.1524505185281777,
            0.04396613847806284,
            0.3980707545368004,
            0.5102226587256904,
            -0.3110426330911921,
            0.13990951567740795,
            -0.06907577705376475,
            0.04616217792984091,
            -0.03616651769358879,
            0.16813673305595436
        ],
        [
            0.2527024133317935,
            -0.43728013555444895,
            0.4094712504419639,
            -0.4213892953664295,
            -0.3621726113909403,
            0.4289983710716024,
            -0.149101130480329,
            0.35288621716219687,
            -0.391457845722449,
            0.4208829802347989
        ],
        [
            -0.4656243277259837,
            -0.23347796949124133,
            -0.12214306539296514,
            0.17471777662681703,
            0.06649237095781484,
            -0.17906301905855002,
            -0.33673463070837584,
            -0.08090408506539278,
            0.024095732057766845,
            -0.4707447099726641
        ],
        [
            0.22680889923924866,
            -0.4464287190567373,
            0.1671556446048645,
            -0.4307530406387897,
            0.39128067691005525,
            0.4420131911827051,
            -0.3406622081091769,
            0.417692841494279,
            -0.11063893672992059,
            0.44377521892234306
        ],
        [
            0.24148370467874503,
            0.3863995149568139,
            -0.2358386561867715,
            0.009841637116044931,
            -0.45030115951573924,
            -0.0035144974827481033,
            -0.4974685212172245,
            -0.41808747825289155,
            0.5101831513483794,
            -0.0009025636266126379
        ],
        [
            0.04619518945581974,
            0.17790783273618185,
            -0.4302379745784472,
            0.08976126939465265,
            0.18401842117632555,
            0.34892735509360984,
            0.040299296698481146,
            0.12926032475578267,
            0.4062958494725777,
            0.02574862927127366
        ],
        [
            -0.031006428337124872,
            -0.16542479470093785,
            0.48573913546459846,
            0.2582041295829638,
            0.30814453296280686,
            -0.051350595362195446,
            -0.24890825416645712,
            0.20897726098705444,
            0.2574053695436724,
            -0.19072279264999528
        ],
        [
            -0.4517362224830232,
            -0.42001436802233016,
            0.20550616771132751,
            -0.008282376337595024,
            0.12414845787813461,
            0.34562315023388107,
            0.3316570041293792,
            0.2491846082583584,
            -0.48953524285189337,
            -0.21117159291189974
        ],
        [
            -0.16004012204577409,
            -0.31491894315399943,
            -0.0527743617967296,
            -0.3144629440704281,
            0.11987825179071208,
            -0.37054586584220783,
            0.16504718617605715,
            0.198997655660624,
            -0.2514009317350372,
            0.3247761462859583
        ],
        [
            -0.2489419061669858,
            -0.3290311418087435,
            0.14786046900206135,
            0.42826054226853405,
            0.14186704853058757,
            -0.019381135656569168,
            0.3514340224571,
            0.4014039350599699,
            0.44092094756920247,
            -0.18393349862818026
        ],
        [
            0.5249886433500852,
            -0.10281456396634972,
            0.0020721617304840087,
            0.2792088878823185,
            -0.11953730294595634,
            0.2775275386874037,
            -0.25038814870326453,
            -0.14787185520159388,
            -0.5196428550431565,
            0.007261478013951069
        ],
        [
            -0.24986482740448923,
            0.42992736193384956,
            0.2924916995234808,
            -0.03894085237474854,
            0.27715133406090775,
            0.43426261382562503,
            0.19817612746986485,
            -0.11701497912047655,
            -0.07988729388512279,
            0.32362507767149623
        ],
        [
            -0.45620160717649816,
            -0.04085222548325709,
            0.34875682007690206,
            -0.3159748017728943,
            -0.07644067502501448,
            -0.4153130667624277,
            -0.11522127711429755,
            0.2034619997519908,
            0.4666767538293079,
            0.31871569069836064
        ],
        [
            0.36554211204810044,
            0.07505008236279967,
            0.32202215318062616,
            -0.190959272175759,
            -0.40135261426709606,
            -0.14118884644158017,
            -0.16642281001569353,
            0.06220121035564726,
            -0.30240332777753337,
            0.2850703972324381
        ],
        [
            0.0007399455019657967,
            -0.04850100504240052,
            0.3828614150222535,
            -0.22269998077867603,
            -0.06885335216270139,
            0.06977251951358897,
            -0.1894697761806944,
            -0.3976688732041269,
            -0.3062522281563341,
            0.06546766904292385
        ],
        [
            0.03341886768425973,
            -0.42583853720193054,
            0.07767321229767735,
            -0.1575781515529407,
            -0.19512396950540417,
            -0.29257481821133685,
            -0.27005316186432565,
            -0.499697638992557,
            -0.4805003211295218,
            0.36689023646182534
        ],
        [
            -0.46106631703293716,
            -0.3861919385960305,
            0.035071819400486204,
            0.27689881875230216,
            -0.27339666727735035,
            -0.1698829029180784,
            0.0067522444812905145,
            -0.19046283912024217,
            0.008652379562934895,
            0.41060966920482417
        ],
        [
            0.0137216655492706,
            0.09135895141945992,
            -0.3792080294032092,
            -0.4728856038110158,
            0.03504497034805343,
            0.4458093824270284,
            0.36398584703283215,
            -0.3338519449153311,
            -0.06677848064420322,
            -0.07618967039282551
        ],
        [
            -0.20987582560214418,
            0.2949749312947129,
            0.12644737278534748,
            -0.20541274056454797,
            -0.2688633562285341,
            0.3188031805709409,
            0.49606191372307396,
            0.12024850568616942,
            -0.10498110306714947,
            0.17978125143260051
        ],
        [
            0.418155923681078,
            0.07908101600546778,
            -0.23420007620180144,
            0.45969068760490783,
            -0.09880072409303674,
            -0.44656443801814427,
            -0.16323602570604587,
            0.1416944706378183,
            0.01844890641807169,
            -0.32091308325286866
        ],
        [
            0.1213206559862729,
            -0.1836913248695527,
            0.27314127065649346,
            0.25863320193185657,
            0.3451374107095272,
            0.2953628783348345,
            -0.39871007470218506,
            0.22316543738501302,
            -0.43737295063993475,
            -0.233274251826271
        ],
        [
            0.10194029482656976,
            -0.2578985662596618,
            0.3637204515231752,
            -0.3716869899167206,
            0.30443291979914283,
            0.22102422321238238,
            0.4022577957340552,
            0.1564705259236534,
            0.37657779176135653,
            -0.13838423111111767
        ],
        [
            -0.06603677209117816,
            0.5430860552018107,
            -0.12926849741985214,
            0.0752613784604645,
            0.06434434494463273,
            -0.3763477067703399,
            0.1903357040861632,
            -0.3313839955560861,
            -0.43087557377544,
            -0.18080379636392485
        ],
        [
            -0.0446537390867469,
            0.14960887428676725,
            0.1203519851875344,
            0.0924616806080694,
            0.03741632860444538,
            -0.3463014968959439,
            0.18487577239111902,
            -0.3532899489560414,
            0.038513026135491034,
            0.05822483517524082
        ],
        [
            0.32124407926281834,
            -0.3099041735417505,
            0.19033292363573168,
            -0.027558698766260752,
            -0.41164835745244666,
            0.05388094761356165,
            -0.06278650592386474,
            0.15980377351224015,
            0.3005856475908158,
            -0.39980104234548813
        ],
        [
            -0.3941146960193278,
            0.41063166879006185,
            0.22782440743435395,
            0.20917212938087518,
            -0.27426355299114874,
            0.38300544068098685,
            -0.13133825008717975,
            0.22939142046090555,
            -0.29223116217243245,
            0.13516199077152397
        ],
        [
            0.33059687367055596,
            -0.38474186255657805,
            0.11635534110230773,
            -0.09608979905219707,
            -0.2778706270828352,
            -0.3307803647924741,
            -0.3662859558815629,
            -0.28133958702931394,
            -0.012915471177906012,
            0.007126162137227703
        ],
        [
            0.08492901142221004,
            -0.2420553399669773,
            -0.4075598716755109,
            0.07780902168515294,
            0.12401018873227135,
            -0.5038202631738918,
            -0.36252187108594436,
            -0.49015945193524574,
            -0.4989613994405604,
            0.18979377150536852
        ],
        [
            -0.34078355880605066,
            -0.08245326203008888,
            -0.4405039587372477,
            -0.055510975625439975,
            0.32850229843499473,
            0.12219992817550168,
            0.0792774480573189,
            0.1354762303194223,
            -0.047164850914933096,
            -0.08455288278148929
        ],
        [
            0.47680089204528403,
            -0.27321189518442124,
            -0.060840907656481834,
            0.34742402247315557,
            0.30985818105741125,
            0.18525623513386108,
            0.14890177956724696,
            0.2963645204046411,
            -0.01051900243489125,
            -0.36336079148396344
        ],
        [
            0.028327095061550633,
            0.33127103148811,
            0.07374323542334592,
            -0.44033738610400047,
            0.1390336490776541,
            0.3468752109099004,
            -0.41641593588442727,
            -0.3490507706840407,
            -0.4987655691768621,
            -0.09965798054799586
        ],
        [
            0.08897480122173304,
            -0.2982074628894861,
            -0.42546218992343016,
            0.054784256531926284,
            -0.2027128519737528,
            -0.4737715218204982,
            -0.17777545115321247,
            -0.10878039982504564,
            0.11275951658246884,
            -0.26192057100119837
        ],
        [
            0.023956687378223745,
            0.32867980263313346,
            -0.29024925176122257,
            0.16590241915003304,
            -0.31459783618923864,
            -0.11616749137500744,
            -0.389173194463079,
            0.14845572125709328,
            -0.02114007968359896,
            0.2096392419995346
        ],
        [
            0.17603171863731756,
            -0.08121124454750339,
            0.08910375585380546,
            -0.353453397956662,
            0.10563821473363992,
            -0.10894961017987824,
            0.22229363755300552,
            0.08601188419262093,
            -0.14411276759773547,
            -0.3850681116098818
        ],
        [
            -0.31007065723883587,
            -0.3638984119084493,
            -0.36370173040644765,
            0.3978143628865827,
            0.14242950303797128,
            -0.5153544626527741,
            -0.40119596926410156,
            -0.30248645593971674,
            0.1590592403896681,
            0.20918932097493131
        ],
        [
            -0.28317140011003994,
            0.31884965315244723,
            -0.2201003636266693,
            -0.17261037758379552,
            -0.17726401296121538,
            -0.09271328122994692,
            -0.17895038330068586,
            -0.13104915713225518,
            0.2067998982201235,
            0.23200841163836133
        ],
        [
            -0.3296417817256703,
            -0.2740655254299038,
            -0.43947196047422354,
            -0.0282229193721826,
            0.35246896677652473,
            0.14329671310643335,
            0.4817187073326893,
            0.26417421944830943,
            -0.5249314448305299,
            0.4034167108777624
        ],
        [
            0.3396366567679283,
            -0.17915617198653475,
            0.07568515124232748,
            0.4149408296507028,
            -0.3256581552225298,
            0.3573728865823432,
            -0.08391259796856483,
            -0.07454648552288297,
            -0.16805120069411264,
            -0.20444715768128216
        ],
        [
            0.1387440479014844,
            0.2698545448934159,
            0.47761127556117344,
            -0.4434348447487274,
            -0.16354559108636077,
            0.22010028981854468,
            -0.04914364006474974,
            -0.039380114453094944,
            -0.5408989059047564,
            -0.05006423675003335
        ],
        [
            -0.12326768081214096,
            -0.26100062895316106,
            -0.25455797385546436,
            -0.15520889326569542,
            -0.3558685213680116,
            -0.07161949510663923,
            -0.011297995026984586,
            -0.30262690515040896,
            -0.40201280225848224,
            0.43118542279225525
        ],
        [
            0.354459825984898,
            0.5348275631397382,
            -0.2173845130855534,
            -0.428896112723351,
            0.03353334963738626,
            -0.19715065188921066,
            -0.01905811916121947,
            -0.3567538195213934,
            -0.18116501289081874,
            -0.3322521680455335
        ],
        [
            -0.43083275181292213,
            0.40599279204611044,
            0.1703664649844041,
            0.4691597930820704,
            -0.31674695089125837,
            0.2378145530333481,
            0.2840084848697945,
            -0.34750342734536716,
            -0.147232609345512,
            0.0687030335146607
        ],
        [
            0.06365824814718382,
            0.3838026735767736,
            0.27442959801696065,
            0.29184836624119725,
            -0.40040673794383724,
            -0.020256923792089526,
            -0.34211293912106755,
            -0.5036402342548809,
            0.017034989869312397,
            0.24047377649119192
        ],
        [
            0.5138064506501155,
            -0.033842366882766,
            0.4622376633144019,
            0.33214121540583386,
            0.023120586363318707,
            0.007620438528658234,
            -0.10825420426891225,
            0.23223083469150477,
            -0.5384896249742652,
            -0.44613971614448383
        ],
        [
            -0.4114884744245966,
            0.02268755888804775,
            0.08320801478831959,
            0.19322095350993274,
            0.003359241764233616,
            0.15754868166144237,
            -0.16605850800091354,
            0.2746322680931933,
            -0.40854045376706144,
            -0.27683936544777576
        ],
        [
            0.32157989098623113,
            0.36927539274052207,
            -0.29112044529838155,
            -0.4440597293542283,
            -0.36837900100417476,
            -0.17976632566592748,
            0.11058338263398475,
            -0.08988226109101743,
            -0.5431969718559326,
            0.13406428753264504
        ],
        [
            -0.16734385044163178,
            0.2528119537829975,
            0.054115820255360866,
            -0.06925769470835075,
            0.2187974493829365,
            0.09679294417912776,
            -0.3543068046130489,
            -0.2392285832053627,
            -0.1580139883371764,
            0.09409724861512184
        ],
        [
            -0.44109970248313746,
            0.300172759260905,
            0.12776758228590085,
            0.009880290051494916,
            -0.1570825584378397,
            0.34888289693355706,
            0.3768224396755392,
            -0.479744147808847,
            -0.4370758381621734,
            -0.2183850772974088
        ],
        [
            0.021011880252051716,
            0.17603885886552387,
            -0.3842093891472431,
            -0.15007328180868929,
            -0.19370543340398313,
            -0.17761844421317605,
            0.4250249290157787,
            0.3048517389206305,
            -0.43277360891413397,
            -0.13565023906854784
        ],
        [
            -0.03289417885391697,
            -0.3772299922899677,
            0.4082718876982135,
            0.4025361392998488,
            -0.3023854946266595,
            0.47881626497958585,
            -0.46042917950899964,
            -0.4957085938755439,
            -0.1189243617975915,
            0.21678489241868104
        ],
        [
            0.4304660484271124,
            0.40870077223828927,
            -0.33242557039204745,
            0.45555551450678083,
            0.13993920311569288,
            0.0491978929976804,
            0.03245602298247977,
            -0.25189825649590314,
            -0.07792095446779292,
            -0.3034999382397144
        ],
        [
            0.038279082578112945,
            -0.199042837623387,
            0.025823836620675823,
            0.4676257611278361,
            0.010576982965616284,
            0.20858596692468584,
            -0.23859128126269538,
            0.3719481823634814,
            0.2608180250626752,
            -0.10701886776811627
        ],
        [
            -0.07241036312042963,
            0.2994286587220358,
            -0.48474221454403676,
            -0.2677187970678977,
            0.07494501358368157,
            0.2918776980234837,
            0.14637355881463035,
            -0.08352754509908818,
            -0.2846836832261372,
            -0.343066969230094
        ],
        [
            -0.06390912113102508,
            0.1657213955437689,
            -0.19239430369500432,
            0.39600187082208244,
            -0.28867838724658806,
            -0.24014190817593417,
            -0.17154326416011556,
            -0.057307693727244646,
            -0.53621700919619,
            -0.045516993863059844
        ],
        [
            -0.46859150809987277,
            0.5105963085470048,
            0.3866393103169209,
            -0.28683968659821024,
            -0.15258518773455476,
            0.3206988509509516,
            -0.46112586994864235,
            -0.24880165147005637,
            -0.1402730039733127,
            0.3725091126017066
        ],
        [
            0.2985096158137442,
            -0.264242593829187,
            -0.46953784881612204,
            0.1530479863858783,
            -0.5113123812776625,
            -0.2144739235219109,
            0.14977932087536613,
            0.3543837004371084,
            0.20707259714473225,
            -0.21342338578069958
        ],
        [
            -0.14130479554791708,
            -0.1472815336907372,
            -0.4414188626055599,
            0.23315923775245403,
            0.4617193675784621,
            0.10208753180519595,
            -0.13103798987541598,
            0.08564889841467883,
            -0.22663337349121312,
            -0.04577787748282825
        ],
        [
            0.004231229733403194,
            -0.041311437336597215,
            -0.16503179247063798,
            -0.12106219867819659,
            0.25316539882005795,
            0.08766126694352107,
            0.22691025225197925,
            -0.06120585815136337,
            -0.13702816766914688,
            0.5040907623125276
        ],
        [
            -0.3196787457735792,
            -0.34966243498332106,
            -0.37329020910215027,
            0.23952841670883623,
            0.3718009238537336,
            -0.10561567649159231,
            0.023964438497862964,
            -0.20761293766858127,
            -0.18948216052757383,
            0.07557764436859721
        ],
        [
            0.3430349270526588,
            0.46766159251645556,
            0.23400068382805836,
            -0.02382383592914976,
            0.46689185795904076,
            -0.25106717665456246,
            -0.12453458323603472,
            -0.5124732970626258,
            0.41703512828824774,
            0.5642919038320218
        ],
        [
            0.38136399468891463,
            0.476983681757652,
            -0.05081744281238959,
            -0.41066328566147814,
            -0.28400964882918234,
            -0.35597149873582673,
            -0.4583697842391851,
            -0.3876901843736357,
            0.2853790206570342,
            -0.01068527963274972
        ],
        [
            -0.285049779714965,
            -0.13036827128766665,
            0.49867829234252503,
            0.08243135497722082,
            -0.128540772843385,
            0.09316599905068475,
            -0.01944359316832126,
            0.3266358897243454,
            -0.11979296475382803,
            0.5092388555165359
        ],
        [
            -0.37675431954868915,
            0.4428232282381197,
            -0.20520938410094966,
            -0.2736665569798396,
            -0.08858847324739086,
            0.3567923040270943,
            0.14393918883847046,
            -0.3501117585710598,
            0.3934354487369185,
            0.5494936097018813
        ],
        [
            0.3168298731315165,
            0.1011040984368628,
            0.20217042421358175,
            -0.4403008250359539,
            -0.36827586129708406,
            0.37123138857514304,
            0.06632601679061406,
            -0.4797803322658531,
            0.2736898551414275,
            0.22583688980760303
        ],
        [
            -0.03855719492841649,
            0.25769837291027925,
            0.22797487549057574,
            0.15185209113227283,
            -0.1348229293312023,
            -0.42246727793803573,
            -0.08737124415863592,
            0.01807149429786263,
            0.2339661643643768,
            -0.22949634689235113
        ],
        [
            -0.10238898706614694,
            0.036281096412331154,
            -0.296466931855153,
            -0.32875419451417,
            0.43679794215030726,
            -0.4237554619630599,
            0.460538116931028,
            -0.3430148459662265,
            -0.33077247531469967,
            -0.3402773158924344
        ],
        [
            -0.26418967010690236,
            -0.2049860521568771,
            0.26159172781577417,
            0.09587790937112758,
            -0.40653108610474203,
            -0.35362000855973086,
            0.13880758251605352,
            0.42771102991557486,
            -0.3563469314986488,
            0.2416096758503749
        ],
        [
            0.09069978413140353,
            -0.27973919737456354,
            0.3519509972343568,
            0.09378406036691794,
            -0.41008242618020113,
            0.30982088984715667,
            0.33726561579076425,
            -0.17527662793772017,
            -0.27042860275934044,
            0.08586334159253711
        ],
        [
            -0.03443044941497531,
            -0.39039819175246915,
            0.30767777438387484,
            0.28048525163957794,
            -0.4594272565736547,
            -0.10580276266803552,
            0.3783000213618689,
            0.04367571722783045,
            -0.21963099569238065,
            0.1569002788442168
        ],
        [
            0.3395776789190856,
            -0.25013909258261163,
            0.19241260112803293,
            -0.08052488844018157,
            -0.3863205793560804,
            0.08738099362747452,
            0.4169559268155745,
            -0.46011077259981903,
            0.1566951262745698,
            -0.3077666286983272
        ],
        [
            -0.4050767955422659,
            0.08719917186166734,
            0.45951520580103844,
            0.20957337087068678,
            0.3510428044018844,
            0.41243203989444177,
            -0.2582759845468279,
            -0.08867974350201469,
            0.3346385754276466,
            -0.3958053823159261
        ],
        [
            -0.0022386730979070285,
            0.06862565148942472,
            -0.044063313763995596,
            -0.17675385768967974,
            0.3994286010140696,
            -0.0036477596946053992,
            -0.3941504249278418,
            0.05703402594742913,
            -0.18487878394340737,
            0.5572703023192037
        ],
        [
            -0.20756268159913221,
            0.030256346686323477,
            -0.3664410808398555,
            -0.1398935851198371,
            0.41336842185524436,
            -0.415840661943282,
            -0.045245869780246674,
            -0.3298982831611069,
            -0.15944791321508675,
            -0.3387522291565257
        ],
        [
            -0.4326245084249629,
            0.34221573437371616,
            -0.38738308440378516,
            0.5146278441447931,
            0.45127569870340106,
            0.1266588012951528,
            0.35741253946119,
            0.35708976092685996,
            0.19378625522812612,
            0.35766601592385644
        ],
        [
            -0.3269341652688558,
            0.1821857442072893,
            0.10540603896105988,
            0.20323058037997993,
            -0.07819658250524501,
            -0.0012309037120567029,
            0.21409462196901474,
            0.3993192870754431,
            0.210000281977606,
            0.23617769331095734
        ],
        [
            -0.32694342985877606,
            0.17881883192368694,
            0.27155682369004375,
            0.17081017298253204,
            0.22486639601821923,
            -0.34790925639520703,
            0.033905331438174445,
            0.2232152942699229,
            -0.06091382298415403,
            -0.10046229678139489
        ],
        [
            0.13050098467866325,
            0.2589535383327194,
            0.4684052856017712,
            0.45111179034564025,
            -0.2379538585637783,
            -0.0609463992373775,
            0.376319783821034,
            -0.11664282551960312,
            0.10872387920909592,
            -0.24772183366047576
        ],
        [
            -0.24363465205363893,
            0.20941544952508395,
            -0.29277899915360833,
            -0.018281028053120187,
            0.11585745624807905,
            -0.011746866630737507,
            0.05197010263326046,
            -0.10623414198009538,
            0.3719432727702516,
            -0.3733322631763184
        ],
        [
            0.15150315570465955,
            -0.10570676290514454,
            -0.45198195266750746,
            0.4411376106439423,
            -0.014903474688768707,
            0.0654032588455151,
            -0.49396080350680166,
            0.2828909235680736,
            -0.48357422510210707,
            0.4675860437296393
        ],
        [
            0.03265263972020854,
            0.31910981031733915,
            0.2942834388265737,
            0.4668435283030888,
            0.1282328264571931,
            -0.06131660053996192,
            0.09376586254172747,
            -0.4427425805714884,
            -0.37718837892470974,
            0.30383718511317787
        ],
        [
            0.32394655744160655,
            0.28942151103772734,
            0.30253120915955556,
            0.056535901001680405,
            0.16396359889611953,
            0.4815452370387936,
            0.3178454578993413,
            -0.12397994184819836,
            -0.17263135705476487,
            -0.009209613388266652
        ],
        [
            -0.23450838927935483,
            -0.07281559322790436,
            -0.3684185463454753,
            -0.2662883166884056,
            -0.26816299885782746,
            0.20827943116758332,
            0.1611686720356312,
            0.3265880960878572,
            -0.5760019962404198,
            -0.12575689614273397
        ],
        [
            -0.1411692108033644,
            0.23811754537353336,
            0.24065766139598752,
            0.09697549124247774,
            0.40893049520576275,
            -0.1788396833634959,
            -0.4585957006477221,
            0.12494491379283085,
            -0.5275652906895509,
            -0.24250122462095988
        ],
        [
            0.3552662323140747,
            -0.15599706164815175,
            -0.36296480765802813,
            0.3114970368246618,
            -0.022379661693923764,
            0.22619244944146558,
            -0.23996645110195222,
            -0.1570928530393478,
            0.036823206104199674,
            -0.13174714768045492
        ],
        [
            -0.10859783730036146,
            0.5463095663401852,
            0.38920610891626173,
            0.5122540248913579,
            0.31159392330798913,
            -0.48887145070609467,
            -0.25792020627966344,
            0.21896227696443707,
            0.2965408389170536,
            0.3899643825163652
        ],
        [
            0.2980148638467271,
            0.5820711223679941,
            0.3946781005622648,
            -0.2542208019146346,
            0.35619492829140986,
            -0.35075747252990913,
            -0.009968641648058468,
            0.06234713670179987,
            0.21097522678529498,
            0.3972931034652356
        ],
        [
            0.34345989337216465,
            0.22723714307761209,
            0.33899648970036783,
            0.3665381434542205,
            -0.367388364545207,
            -0.11187447114775055,
            -0.3720178210189353,
            -0.5331999443908503,
            -0.020938086425338773,
            0.5689295847939624
        ],
        [
            -0.47241914559289067,
            0.35817095186304254,
            -0.46597811970054764,
            -0.42950091585722117,
            -0.5182566373136175,
            -0.5141520192683818,
            -0.17413931599904187,
            -0.3891099257960033,
            0.08791012006927382,
            -0.12403987948578574
        ],
        [
            0.14541628886089492,
            0.2877347033871539,
            0.4044025947377245,
            0.5111102950657547,
            -0.04223478558379079,
            0.2849596955224089,
            0.37334623662648203,
            0.28012691293561337,
            -0.1769929812102531,
            -0.15093054060795416
        ],
        [
            0.19256020374806398,
            -0.04609540670737003,
            0.4253354531524474,
            -0.14075256898448915,
            0.07874550598372987,
            0.20983871393514386,
            0.36747058790613785,
            0.1039512016438641,
            -0.3714712381587346,
            -0.3213848332102503
        ],
        [
            0.06267496302749825,
            0.18595285032384273,
            0.42343865204691344,
            0.2904040769196017,
            0.17173559703125818,
            -0.2084737452662471,
            -0.0073490299405045666,
            0.2615505854364553,
            -0.43095993290935686,
            -0.12994659073895362
        ],
        [
            0.3774688382159973,
            -0.23874275931807107,
            -0.030665561460361812,
            -0.019830670861427584,
            0.35197216925875024,
            -0.18959107257243604,
            0.34404143058425896,
            -0.27672283620791915,
            0.27242522524106405,
            -0.016769852347900623
        ],
        [
            -0.04854215374864042,
            0.2974370396893448,
            0.23263400374298626,
            0.25060374750081543,
            -0.02735888346619536,
            -0.1901764933468318,
            0.2936044318740318,
            -0.5658294271004872,
            0.11378390351335693,
            0.02043044193602823
        ],
        [
            -0.17680599084670043,
            0.5095873683707309,
            0.2643353492394523,
            -0.2888917972818308,
            0.2371698616400511,
            0.14980581014979077,
            -0.35049542503453407,
            -0.1238294022416481,
            -0.6631581874811596,
            0.48600939382739156
        ],
        [
            -0.30338174817595104,
            0.011207751272786833,
            0.34723179942347643,
            0.22235092220386196,
            0.2414420519589248,
            0.07072720637022858,
            0.4413537936829053,
            -0.22124119644363205,
            0.08863040974934211,
            0.45013705222747225
        ],
        [
            0.1492568698529798,
            -0.11321929352032366,
            -0.06850821263408917,
            0.3949851181320179,
            -0.4178366632888482,
            -0.44142356741175903,
            0.19382757024473232,
            -0.347198853508428,
            -0.3178301654233701,
            -0.04472013539704962
        ],
        [
            -0.39292364569274185,
            0.0442903001935179,
            -0.12343555967997659,
            -0.30404481998675825,
            -0.45764493440277804,
            0.27852652981815423,
            -0.3335884231440815,
            0.02514978168647722,
            0.026540806736395636,
            0.6198928279358414
        ],
        [
            -0.3596573839794716,
            0.37254236474207814,
            0.37986773093699866,
            0.2713081745292615,
            -0.22581060909981557,
            0.05690504988082194,
            -0.15117095386272617,
            0.09816356779883958,
            -0.558622944488709,
            0.06440779199694915
        ],
        [
            -0.41031781378870136,
            0.649298934820528,
            0.20867312960346213,
            -0.10064280394401139,
            -0.4818486167678319,
            0.020091034271893394,
            0.1447201851061319,
            -0.6395772979601464,
            0.00498379460769405,
            0.590387892334269
        ],
        [
            0.10046251388340062,
            0.6282003759284879,
            -0.208408124613432,
            -0.35801918744470806,
            -0.13463713806618535,
            0.1260516249769896,
            -0.22788011297574814,
            -0.550244117445047,
            -0.6462332549228343,
            -0.05843933356489449
        ],
        [
            -0.16291006503207567,
            -0.031655057321379486,
            0.49211263048768994,
            0.47488285544291137,
            -0.5125391375243545,
            0.11490486706870762,
            -0.41571007134063487,
            -0.34988575029314095,
            -0.13517768423040366,
            -0.2277110992432271
        ],
        [
            -0.17049179984425938,
            -0.22017479345588895,
            0.10947175310584245,
            0.03292489799553906,
            -0.2948280952650288,
            0.421238616049454,
            -0.11172299682890688,
            -0.21962908616830054,
            -0.7276013112609643,
            0.5846386641791083
        ],
        [
            0.32606157399684055,
            0.4704335651226716,
            0.4489869939485225,
            0.16047193246086808,
            0.011137383590726335,
            0.049956283286604376,
            -0.4523315460689464,
            -0.3376478839183385,
            -0.483818298517485,
            0.5114301358241137
        ],
        [
            0.22892892670234005,
            -0.2491657021009205,
            -0.19245267956372675,
            0.010403268058337098,
            0.12878864268362458,
            0.33968340333891384,
            -0.18985262288253907,
            0.3276265648383161,
            -0.35927875418800337,
            0.4078864266900563
        ],
        [
            -0.06588156062689247,
            -0.14135487699196286,
            -0.45109159724026027,
            0.4014704786213012,
            -0.3010771863165677,
            -0.3489920959560806,
            0.04111018587739967,
            -0.6122820517059809,
            -0.595737155483909,
            0.5655196244336891
        ],
        [
            0.09917607095876028,
            0.4207421974525144,
            -0.27346301983708143,
            -0.1956037617745572,
            -0.284974681316051,
            -0.15548082156423268,
            -0.020147856060671415,
            0.2506473862643566,
            0.12754702928552353,
            -0.2842861844306996
        ],
        [
            0.4083042603780853,
            0.19784563924346016,
            0.07517665432909797,
            0.26974970064063053,
            0.06919411436893547,
            -0.3270090447428738,
            0.4046211745246109,
            -0.47430592422104434,
            -0.1613130491232675,
            0.4652512153208676
        ],
        [
            0.11829370169357203,
            0.4084775018578039,
            -0.24648530241140248,
            0.37593542473734815,
            0.1822804365420925,
            0.47066507432593285,
            0.31399742934431946,
            -0.23151108936989237,
            -0.43064130224759795,
            -0.22001387359897426
        ],
        [
            0.0061588848125063616,
            0.2035808980116258,
            0.11537414086707885,
            -0.3809272242779843,
            -0.294816616208758,
            0.4258350474678273,
            0.02979481646089649,
            -0.5845016192755891,
            -0.382307642811685,
            0.5128365897167275
        ],
        [
            -0.4160193554714137,
            -0.12245887282937477,
            -0.3688067872411876,
            0.13758790666488185,
            -0.11492127730955048,
            -0.12481693912167457,
            0.12877920381435778,
            -0.45399631769660087,
            -0.36682261955859974,
            0.12475598133174402
        ],
        [
            0.0766357499135679,
            0.5297555433028766,
            0.006984627461254544,
            -0.12401243809411205,
            -0.48538974024926784,
            0.12632480392440137,
            -0.05955568289683331,
            -0.5267593468291663,
            -0.38864778411422385,
            0.43741364879454925
        ],
        [
            -0.09623932992337447,
            0.24808960642670785,
            -0.32728349424704123,
            -0.08018016860285866,
            -0.4770122470432117,
            -0.1080621466247314,
            -0.36754760000610404,
            0.3393610058461235,
            -0.5218814536617609,
            0.6517742155441881
        ],
        [
            0.3550685501207795,
            0.04436361962317115,
            0.2688761223694699,
            0.367778705771062,
            0.36605146990387505,
            0.11412622936193782,
            -0.23481769249933607,
            -0.6289568259239411,
            -0.27730782890157274,
            0.5212654892898896
        ],
        [
            -0.11071769447476952,
            0.4344425327386353,
            -0.33258124319120147,
            0.3811969035167262,
            -0.46538480423649553,
            0.4587312474755891,
            -0.23792162473208275,
            -0.41759963300314784,
            -0.5069571390625652,
            0.4442531583796232
        ],
        [
            0.26004780472831807,
            0.15230364459926304,
            -0.449509749649346,
            -0.40213521237410893,
            -0.11312471863042631,
            -0.4014035169962311,
            0.13444678939989071,
            -0.06685839192986574,
            -0.3963215237751684,
            0.3368927470590672
        ],
        [
            0.3845170997518304,
            0.024906125066594807,
            -0.24274263423280906,
            0.5097749236944953,
            0.22894511487525954,
            0.3352734068145162,
            -0.35285764021256283,
            0.16639326295918339,
            -0.1957383589633748,
            0.5503583053863774
        ],
        [
            -0.01759739207360932,
            0.47578768238724356,
            -0.3693559188421388,
            0.3809610309356426,
            -0.3110002346661309,
            0.07653256850513863,
            0.031618494727320846,
            0.29236715368241384,
            0.2724059982621877,
            0.508521947281363
        ],
        [
            0.24558294758905913,
            0.5991358589825704,
            -0.43607596151314637,
            0.35321980241728596,
            0.19829298286082014,
            0.025595215786108377,
            0.4827296901507145,
            -0.1231494803302758,
            0.25116846465825726,
            -0.08009282714270881
        ],
        [
            -0.37049420095415697,
            -0.28626733384443764,
            -0.004938890937415042,
            0.22718213135174084,
            -0.16893297112342304,
            0.10080645813045228,
            0.1314612567818123,
            -0.07818940944090041,
            0.2333277372996079,
            0.054291774744806745
        ],
        [
            0.2302349543716742,
            0.027128032939531005,
            0.35150744083616786,
            -0.3227703211472386,
            0.003747624829344021,
            -0.20672654953293731,
            0.08978293866438594,
            -0.0802275065840183,
            -0.16324825025103784,
            0.47666346157684397
        ],
        [
            0.22048308777985814,
            0.6373154889310614,
            0.026380032965270136,
            -0.0954060695915599,
            -0.23178196475467755,
            -0.467586970101393,
            -0.3445779993629199,
            0.2715103928995651,
            -0.42889546561253045,
            0.5726464798888377
        ],
        [
            -0.20788615718261566,
            0.310253438988142,
            0.5007275983286142,
            -0.3561299213506251,
            -0.27733366319122305,
            0.19725162101676194,
            -0.05130542021156194,
            -0.10405702210966879,
            0.18202811661609122,
            -0.28961011121869984
        ],
        [
            -0.19754609345373883,
            0.059379746670610925,
            0.33627046385223364,
            -0.4362503920203666,
            -0.4049781917486289,
            -0.04951979286706656,
            -0.22368409613280713,
            -0.4505212781753178,
            -0.38968612472207576,
            -0.15196931298359756
        ],
        [
            0.34068085546810495,
            -0.05532017768426109,
            0.08137206277927582,
            0.23644931788337653,
            0.33057478363804244,
            0.03628093097991835,
            -0.017125198746505164,
            -0.45254313287892095,
            -0.21852390208730021,
            -0.09911039308946193
        ],
        [
            0.47995280536687096,
            -0.33185896506328977,
            0.27104797712100737,
            0.3421961933914129,
            -0.14830018076554377,
            0.3652359503354794,
            0.10285856547302799,
            -0.4693212729967981,
            -0.22192835899579477,
            -0.007002764272033991
        ],
        [
            -0.012257262580183767,
            -0.2831224902326651,
            -0.19973765141037547,
            -0.46573007311770853,
            -0.5088621993760087,
            0.11731174648621026,
            -0.12335176094614889,
            0.013916385180053479,
            0.2608341733740403,
            -0.18339878426481
        ],
        [
            -0.3580327466925951,
            0.5570980606950631,
            0.12337349559814971,
            -0.13502752055183445,
            -0.3344102793942093,
            -0.11021743021993297,
            0.27477709246396864,
            -0.1410460039486238,
            0.13476395132433702,
            -0.2389208476326782
        ],
        [
            0.31149643675446687,
            0.5666136197767648,
            0.10801394680443405,
            -0.47954589654294133,
            -0.23839036867021648,
            -0.2445846264468071,
            0.20671846137430347,
            -0.48257259090785015,
            -0.2589478520546638,
            0.5711401801050987
        ],
        [
            0.13631790808107724,
            -0.14630062924064288,
            0.07914890142712323,
            -0.4776396394930357,
            -0.46579158615326266,
            -0.456441114419096,
            0.20234290003753042,
            0.39970270200280217,
            -0.3140956086988368,
            0.5632335157487411
        ],
        [
            0.1584991953164866,
            0.36603430087886357,
            -0.25525562342170544,
            -0.43620968690257106,
            -0.23818541833472195,
            0.4045861838892075,
            0.17035769678964297,
            0.2730228958971066,
            -0.41994538752941085,
            0.4088808634756095
        ],
        [
            -0.27896288082508547,
            0.44940323163903867,
            0.4326191541330272,
            -0.055371245891811124,
            -0.49007042749659935,
            -0.18436013796705789,
            -0.022451744649035273,
            -0.31247281790507775,
            -0.05404312870187274,
            0.1448786462796711
        ],
        [
            0.037205786720660716,
            -0.16277725726297243,
            -0.4931832645341111,
            0.24581373784552946,
            0.3244117671634733,
            0.33433373111050396,
            0.19012220498797616,
            -0.19018538835110138,
            0.08730339751815236,
            -0.2659710170088791
        ],
        [
            -0.4730205484613349,
            -0.23563322085329128,
            0.0999004461637738,
            -0.40593031997341816,
            0.07303716503166352,
            0.17569346231592534,
            -0.00745951459234025,
            -0.34693423834636017,
            0.1576785420178669,
            -0.15998940165525896
        ],
        [
            0.13180392917599465,
            -0.4301310714433622,
            -0.48385029290427073,
            -0.3143908613331702,
            0.1556240831150823,
            -0.25560366732910705,
            0.17588070174187143,
            0.3876766600622295,
            0.2508760988011077,
            0.2832816847774441
        ],
        [
            -0.13595785811263575,
            0.4130953198523749,
            -0.03636676396600581,
            -0.1422668029078499,
            0.4721512103864012,
            0.15423229414109246,
            0.2918928972318465,
            -0.24414507063207436,
            -0.16725289065096677,
            0.31718823373621746
        ],
        [
            0.4281892437323811,
            -0.16833489049637018,
            -0.22890023229691212,
            -0.002153007551023909,
            0.06351895168784663,
            0.2458119682545382,
            -0.27202929074067966,
            0.41418637624976945,
            -0.3190247631689619,
            0.1804718463359462
        ],
        [
            0.08349626557170317,
            -0.2060466932960257,
            0.07731506775819358,
            -0.45035886839646283,
            -0.1706606912238724,
            0.18620520751366926,
            -0.30489981229998664,
            -0.33628423972225296,
            -0.027174653765506405,
            -0.20938367538657365
        ],
        [
            0.047064466834985816,
            -0.28461036965922737,
            0.2637613490587399,
            0.0807713053582453,
            0.2435056156336461,
            0.0890652194213835,
            0.05947498168991375,
            -0.16232284638663141,
            0.17678447220567023,
            0.3286481529146816
        ],
        [
            -0.14321846102870334,
            0.3382993345331976,
            0.2634869701103695,
            0.24973926669997945,
            -0.23739565769618232,
            -0.1603599296117294,
            -0.2843391717958644,
            -0.32420010710059755,
            -0.30799197118337956,
            0.4659658537092089
        ],
        [
            0.2616899415017368,
            0.11933605357534408,
            0.44133852121977507,
            0.3457739154099114,
            -0.3058491886688558,
            0.0664290420668343,
            -0.0786005870836686,
            -0.47109576486478416,
            0.4067164820334269,
            -0.21591822223039633
        ],
        [
            -0.41385718095617413,
            0.4318719618604645,
            0.13547243428503913,
            0.3633956571456443,
            -0.16684037775330454,
            -0.3896896422625031,
            -0.18830200249707807,
            0.07604719836608122,
            -0.33143173788778535,
            0.2030247912944112
        ],
        [
            0.25503556257457644,
            -0.2773652821710768,
            0.29527909879067044,
            -0.4182907610375449,
            0.2671033950613176,
            -0.5125483404358623,
            0.3113110647161184,
            0.21301392881941147,
            0.37121892685464264,
            0.0936641594775993
        ],
        [
            0.26155186416534837,
            -0.08664638735122546,
            0.07358004320244872,
            0.3103945480728841,
            -0.4114306978332584,
            -0.07233282706315708,
            -0.002531918015774849,
            0.43507473092346954,
            -0.0476552144477014,
            0.3620433607508045
        ],
        [
            0.1559985928925481,
            -0.09101164937368404,
            -0.14119812475882743,
            -0.41519305045059396,
            0.3878570683257119,
            0.12240867184184544,
            0.24482469300727464,
            0.34667543443317,
            -0.26189501338150084,
            -0.27220317794817356
        ],
        [
            -0.45710078978311736,
            0.07087777076023369,
            0.18860888776567356,
            -0.2342105049235474,
            0.47618481316355327,
            -0.47421381491421044,
            0.34714553531825204,
            0.17638507581992122,
            -0.3841595434833783,
            -0.374754493072261
        ],
        [
            0.3527703855154969,
            -0.08638626638889065,
            0.3930443645020712,
            -0.27787149560932867,
            -0.006805347501619719,
            -0.45190775528073746,
            0.3751593488206686,
            0.3699371264822329,
            -0.33698066008025557,
            -0.2249167162426644
        ],
        [
            0.34481744004567183,
            -0.16731010819353528,
            -0.1978188403147137,
            0.34481493573045136,
            0.4183856662696785,
            -0.15692143116214535,
            0.42272823508385077,
            -0.4758844744175787,
            0.08879512063097315,
            -0.30418135995292
        ],
        [
            -0.3355624456771634,
            -0.3726125597041532,
            0.04458997706791904,
            0.08942264235309041,
            -0.31136415877392043,
            -0.2370153814632885,
            -0.2627656422851383,
            -0.454414583092022,
            -0.4158983081627767,
            0.2668211003810729
        ],
        [
            -0.3082259322910182,
            -0.455991091688921,
            0.476244074850385,
            -0.3648005296483986,
            0.32888717733893774,
            -0.39719435052490587,
            0.15704254027977987,
            -0.17872736133714287,
            0.07000811715310253,
            0.01603261379111454
        ],
        [
            0.34181188662723666,
            0.49354527911664364,
            0.25517100682135807,
            0.40625658445687585,
            -0.31297693677787974,
            -0.48004630045547336,
            0.4019473715972735,
            0.17441160228331304,
            -0.47298772604781686,
            -0.16297206480721735
        ],
        [
            0.15692232316065957,
            -0.4163134209127196,
            0.12256780751104059,
            -0.003345672823460719,
            0.34759932628738943,
            0.23229878733930268,
            0.22289513873962516,
            -0.2880803854957171,
            0.34461043353422155,
            -0.016617603860240825
        ],
        [
            0.4961310758548062,
            0.49877008726970967,
            -0.29639858694763904,
            0.31303304094774076,
            -0.45980470376918814,
            0.25017058266188136,
            0.318649875173292,
            0.19360217915166045,
            -0.1423222564263968,
            0.34894856052870454
        ],
        [
            -0.37189036046718554,
            0.3164009220385944,
            0.2234226148816526,
            0.020414037169504257,
            0.07942206239216894,
            0.27661219159512784,
            0.4201938265493055,
            -0.02651221188102404,
            0.3540862642229602,
            0.03524193371638673
        ],
        [
            -0.07889680328578852,
            -0.2802917679757355,
            0.06305119584700451,
            0.2255049933238471,
            0.20050667596541127,
            -0.003017116826798454,
            0.1286277317766829,
            -0.14501135180792224,
            -0.06597340319689145,
            0.30109852506338824
        ],
        [
            -0.28370496041962284,
            -0.09625105429996413,
            -0.30476672321948756,
            0.0674430601825864,
            -0.38736220200108107,
            0.4592308822105046,
            0.11133456833078204,
            0.4313199080573652,
            -0.5044408824031058,
            0.14487664296879174
        ],
        [
            -0.1226213058993453,
            0.23993539377862894,
            0.35332590884988524,
            0.39676043402785793,
            0.4502207039641508,
            0.2784197028503583,
            0.2313377637650444,
            -0.406551595016277,
            -0.23810420455279258,
            0.5109646471786424
        ],
        [
            -0.43700600774100673,
            0.045173671632302306,
            0.42575884554445503,
            -0.21884535897128252,
            -0.3960751246783151,
            -0.44721294935115663,
            0.2368075243326045,
            0.003298892241258134,
            -0.5540968698084849,
            -0.2000267439574863
        ],
        [
            -0.11570813947436963,
            -0.2870254522699198,
            0.1711633847889415,
            0.3632106881985811,
            0.20886199995333876,
            0.25292733841157594,
            -0.11768352730727091,
            -0.02568377134905879,
            0.3928963841255495,
            -0.3309819737239244
        ],
        [
            0.3338425244909827,
            -0.3354442118804925,
            0.01599889543922083,
            -0.018990228007965747,
            0.2130627982181203,
            -0.2863226899825646,
            -0.05718173910232401,
            -0.10476574663163843,
            0.0036033152371098423,
            0.5328141497767499
        ],
        [
            0.002179224478905888,
            -0.21413003379995668,
            -0.42236282506428796,
            0.40180642887994944,
            -0.22150268111718407,
            0.12632610048274,
            -0.3933083841662856,
            -0.5187143240669491,
            -0.29528028345455215,
            -0.3133764771421268
        ],
        [
            0.19821754637689057,
            0.0517190472743296,
            -0.2404222491143005,
            -0.13951450608197716,
            0.15434950361844268,
            0.4295769370963354,
            0.35040806081926335,
            -0.5222766177142981,
            0.34259145203621816,
            0.41434247866417323
        ],
        [
            -0.3253863945596825,
            -0.32281330253184437,
            -0.07487195113168939,
            0.16704631049729526,
            -0.4572139957212509,
            0.1938484661928525,
            -0.291531032429101,
            0.1355054096317266,
            0.25445838284513284,
            0.3047778247858805
        ],
        [
            0.044418715949352205,
            -0.18582154690710448,
            0.38823578711801937,
            -0.1375909615040544,
            -0.33081767577248405,
            -0.24840411925685627,
            -0.5008586450984132,
            -0.4259809197378937,
            -0.24107082957021625,
            -0.025049562135127497
        ],
        [
            -0.34991363818483934,
            0.47854282076882937,
            0.4059765202937242,
            0.1824764495005427,
            0.14039920327715605,
            0.41546848291174765,
            0.15589727000807244,
            -0.028598580486137927,
            -0.4480959371443883,
            0.5317874043798754
        ],
        [
            -0.263277922270459,
            0.2564798687728282,
            -0.3825841602961701,
            0.18060312311786844,
            -0.32610066976770347,
            -0.052165373401011406,
            -0.004298528113713175,
            -0.37239650666329344,
            -0.2553136670299906,
            0.07595782335585388
        ],
        [
            0.0226375463335696,
            0.17108934416604588,
            -0.39816983376383724,
            0.30773404707289015,
            -0.3272360959518013,
            -0.05483743256498779,
            -0.374256150514751,
            0.06998959769259286,
            -0.2596159710592937,
            -0.21138462309670153
        ],
        [
            0.18242461869918913,
            0.42652700698926477,
            0.020948164773242014,
            0.2471347379965321,
            -0.10305152590939169,
            0.25744553985887725,
            0.3990074891683191,
            -0.38509224489635197,
            -0.44467920785949466,
            -0.022365255004910208
        ],
        [
            -0.09988166020974033,
            -0.1701643721136654,
            -0.18282905967321497,
            -0.13024449710707198,
            -0.05405956657792707,
            -0.4881572962559501,
            -0.013077799829292408,
            0.14725025374469472,
            0.05330849793847219,
            0.3271645635736036
        ],
        [
            -0.00046903271818195074,
            -0.028979096944289934,
            0.26767725149868576,
            0.1579248399258378,
            0.24595984325090356,
            -0.12595136484729638,
            -0.12786482167704358,
            0.3450508496332833,
            -0.3642015403805074,
            -0.07910717787218234
        ],
        [
            -0.25026623053228714,
            -0.41879811230688063,
            0.4765257576061832,
            -0.4111015222856906,
            0.30390868443153646,
            0.0585747473220747,
            0.0046177976543725,
            -0.37486980160633726,
            -0.4490935764064707,
            0.5224139134079808
        ],
        [
            0.061286112437396165,
            -0.12901318134131723,
            0.25071452804466615,
            0.40553661552654735,
            0.22207938123008367,
            -0.1628233494419512,
            0.13364729363150554,
            -0.38757644477410536,
            0.16429041230732946,
            -0.035504851101110145
        ],
        [
            -0.028408336113244947,
            0.12004254033382128,
            0.3681775060145849,
            -0.017508601469823432,
            0.06064244037033435,
            -0.454733684079313,
            -0.454108314382916,
            0.1449780805940777,
            0.1510489019597869,
            -0.3261366221690442
        ],
        [
            -0.3103249337756885,
            -0.13552293274158056,
            0.13999101216931154,
            -0.15046502566869893,
            -0.3500033588497098,
            -0.010760291956656459,
            0.23985917027563095,
            0.023992180170918014,
            -0.5582992886920939,
            0.21583059499846777
        ],
        [
            -0.3338108836037946,
            0.45117785218225276,
            0.014036515718699953,
            0.3706333440573038,
            0.09286626757850776,
            0.3373079766337318,
            0.07046596506307409,
            0.18008864098572014,
            0.303400471552441,
            0.213452749083707
        ],
        [
            -0.1945893832011119,
            0.13395791707455793,
            -0.10954730826839926,
            0.3141311448701532,
            -0.5071277577512451,
            -0.376953520405806,
            0.22621215056393823,
            0.22758939658670635,
            -0.027609249571614,
            -0.19736042251172917
        ],
        [
            0.21138685171490773,
            0.356428789841095,
            -0.05172419303993512,
            0.171725476246627,
            -0.4131822487338346,
            0.05102420756717105,
            -0.31691165396339804,
            0.037018270365811824,
            -0.29159449373285623,
            -0.40735181296720724
        ],
        [
            -0.22872370572617406,
            -0.037700763423102586,
            0.2357333701442467,
            -0.27256179095473243,
            0.05913428822850486,
            0.02495781006140082,
            0.14379905560410963,
            -0.16401905364007846,
            -0.11490746914511651,
            0.42240171025531215
        ],
        [
            -0.38875260926937966,
            0.354107578379796,
            0.1851339144709074,
            -0.3812541451144869,
            -0.49524497842174975,
            0.30237576731879545,
            -0.466196374146524,
            -0.20152648905159715,
            0.2551936664110466,
            -0.15521957547429904
        ],
        [
            0.2752223922239342,
            0.13289041544793204,
            -0.2991214414216936,
            0.22117558082989938,
            0.34957298325752645,
            -0.4807804884236938,
            -0.4824208676326683,
            0.2778982376001619,
            -0.5340434188856501,
            0.18663553676925393
        ],
        [
            0.1826653673382509,
            -0.030591607708351242,
            -0.3424080145603168,
            -0.42340400465408284,
            -0.22089276859126583,
            0.23978817450455533,
            -0.15532014013324796,
            0.26566854466091117,
            0.275717948789258,
            0.36504654909292
        ],
        [
            -0.03789029554943603,
            0.21550927363003497,
            -0.33765082372397237,
            0.06415311590652875,
            -0.1403585537913301,
            0.21148825260514262,
            -0.23897443818260466,
            -0.3795709765459179,
            0.040822397918254164,
            -0.10678431510695083
        ],
        [
            -0.38922201975464293,
            0.4704280439795862,
            -0.09214716006001186,
            -0.4160791131184563,
            -0.21995399401634336,
            0.2701177187260012,
            0.3436079327578331,
            -0.07831080910019061,
            -0.003258639622232915,
            0.38294315039532084
        ],
        [
            0.1497276063099976,
            0.48364555471115267,
            -0.01089576561420939,
            -0.13077340156411987,
            -0.4067103552797977,
            0.06067221295790439,
            -0.42364807045541886,
            -0.4716006443209497,
            -0.09483605671470859,
            0.5316241732290825
        ],
        [
            -0.11537566978554531,
            0.28408397076074393,
            -0.18881462137405544,
            -0.1838667080412929,
            0.07752315600963966,
            -0.10342566194360477,
            0.3893792407144238,
            -0.3947354824717613,
            -0.24609307265193797,
            0.07496618996893958
        ],
        [
            0.3789532437144928,
            0.4388034082082909,
            0.2943344112396402,
            -0.04101061472499048,
            -0.4154420353089118,
            0.4507877096520969,
            -0.12699736486697444,
            -0.39884505045343527,
            -0.2224708164126371,
            -0.06703207533268099
        ],
        [
            0.16912012345527727,
            -0.4415576550907405,
            -0.38579641923283925,
            0.09707169658035313,
            0.033304729548217456,
            0.058297023712484256,
            -0.43420350353542037,
            -0.15335874939084132,
            -0.4269910182904026,
            -0.10751599862559916
        ],
        [
            0.10643613361699501,
            -0.14434544358800083,
            0.3307027309692638,
            0.3145297025664574,
            -0.30573554959498006,
            -0.0948720854260861,
            0.23388693140121353,
            0.11570291854946374,
            0.2531833115036873,
            0.4863907032473625
        ],
        [
            0.11337307008559694,
            0.30992412393332036,
            0.06834718472210997,
            -0.39094655093228303,
            0.2627940573447349,
            -0.10605694345830109,
            0.0291362504457079,
            -0.056208869875114524,
            -0.4487459835281735,
            -0.4244515935420138
        ],
        [
            0.2810940044470882,
            0.17584122191335494,
            -0.4420161874956246,
            -0.018247075625232333,
            -0.01569108559336208,
            0.1194013761543618,
            0.46338518565575326,
            -0.5160721881390533,
            -0.022615523441037736,
            -0.19136749560099564
        ],
        [
            -0.3272437943895001,
            0.007627949546453917,
            -0.05861111243037099,
            0.5025980939357455,
            0.4740163652459184,
            0.3183738658356638,
            0.3875173672346059,
            -0.465459720600805,
            0.17819591483621625,
            -0.3361846344426375
        ],
        [
            0.14106753320423998,
            0.18771929843564308,
            0.41769377701320065,
            0.39148906508129494,
            0.4192313527210385,
            -0.057731153405397535,
            0.24437164414795312,
            0.4652424632737709,
            -0.10114034510359202,
            0.23759379708961584
        ],
        [
            -0.08188045934066637,
            0.4108673974349327,
            -0.31419387290008555,
            -0.002124842420483209,
            -0.25126122390378175,
            0.3394404608263818,
            0.39606532320853194,
            -0.48322804362918714,
            -0.39392870646787687,
            0.2758589434689419
        ],
        [
            -0.05159465169368909,
            0.0506756086578344,
            0.3417898050551367,
            0.4404780591522748,
            0.21670165808337669,
            -0.5073489864505865,
            0.44069759222885085,
            0.30454260395464416,
            0.07735776633306544,
            0.2155954143926163
        ],
        [
            -0.07624626135305441,
            -0.022434334993898714,
            -0.4518629208683618,
            0.20210147613949003,
            -0.24215035603691182,
            -0.5053064389395266,
            0.24624028602309164,
            0.3736190127959882,
            -0.36883743401860064,
            -0.4520643127407751
        ],
        [
            0.008372043962904746,
            0.2183583720418982,
            0.0311441153165222,
            -0.20623508641629415,
            -0.4146605344842973,
            0.0346820736442622,
            0.07035082040009985,
            0.039841172582585155,
            -0.08563411568833114,
            0.18583043385447504
        ],
        [
            0.21052395490316173,
            -0.44018778086911403,
            -0.1027946537925242,
            0.2258787521925797,
            -0.012099964605421443,
            0.34549611725007895,
            -0.2662358888284511,
            -0.17115527459751603,
            -0.46797724045170536,
            0.47948478243861614
        ],
        [
            -0.3095176889803693,
            -0.33006713020828315,
            0.031064640164764543,
            0.2742161568191572,
            0.16755419106497135,
            -0.2010604321208401,
            0.4864169138853772,
            -0.044816784992378435,
            -0.21655340595518527,
            0.304619330983902
        ],
        [
            -0.1895138322413235,
            0.5043524855104643,
            0.05617188494120076,
            -0.16634690451957732,
            0.45802001047455376,
            0.4045916781935084,
            0.08334174680817692,
            0.38559206359809706,
            -0.45411300145348765,
            0.1359118818763031
        ],
        [
            -0.20830050028219368,
            -0.20158522053238484,
            0.13847498649551646,
            -0.22441014491129113,
            -0.05787771223357368,
            0.38179823319063877,
            -0.2075121080367539,
            -0.41684334653974653,
            0.2281643153004369,
            0.39604033986794235
        ],
        [
            0.47979538987254766,
            0.05852536546398297,
            0.41641902226234645,
            0.21356603318792766,
            0.010833979653827628,
            0.4259006215827546,
            -0.28619783490998596,
            0.24394850248350436,
            0.11483257791472132,
            0.2880412461309539
        ],
        [
            -0.028330507968794896,
            0.360177353825025,
            -0.3313214354347339,
            -0.422845761561105,
            -0.11223795730644834,
            -0.10651322782900417,
            0.027022945650684752,
            0.16964029903401423,
            -0.3090514647012207,
            -0.4649912924428812
        ],
        [
            0.07782729937481551,
            0.2456520578732056,
            0.11668329185314094,
            0.07337321272214789,
            -0.3376040425591636,
            0.4480940549346702,
            -0.2767585973817293,
            -0.0003577253541486453,
            -0.37030187621051364,
            -0.36839000059124316
        ],
        [
            -0.4073425651682214,
            -0.1125695619184866,
            0.11682310645078896,
            0.49575145630979617,
            0.16854616004908132,
            -0.4960734913737254,
            0.14491436512648925,
            -0.007101385648528749,
            -0.14307261788047848,
            -0.32052858967528214
        ],
        [
            -0.35058758330229345,
            -0.009240165647420523,
            0.06730495683462957,
            -0.31428613783578363,
            0.07906131324178385,
            -0.4906609947728799,
            0.37670462654777176,
            0.17797429070803245,
            -0.2365214337476137,
            0.16248406882646077
        ],
        [
            -0.3269737098887799,
            0.2507755091600183,
            0.24034367976453305,
            -0.25609817200542423,
            0.15573641019940612,
            -0.4456725483584486,
            0.3316320036305167,
            0.33401334360377355,
            0.3244612963324503,
            -0.0870808678374502
        ],
        [
            0.25207400572552446,
            -0.44490507201620205,
            -0.39822181149277786,
            0.06057757521647667,
            -0.3074332056649564,
            0.43364441781910357,
            0.37693426538523284,
            -0.32194735628481297,
            0.43962270325136105,
            0.08788153529373977
        ],
        [
            0.3436973988741354,
            0.08770624166518216,
            0.1000240669431098,
            -0.04076838018593876,
            0.01045299073778015,
            -0.13819329981492678,
            -0.32458151653319495,
            -0.16872183625416223,
            0.36512746483912306,
            0.2795894551531007
        ],
        [
            0.039520941147167636,
            -0.48482193276169666,
            -0.4632558356144928,
            -0.10483644661619854,
            0.47963928042483606,
            -0.4096931681481428,
            0.19906118678250803,
            -0.21198034449153064,
            -0.09958399229730187,
            0.27775276757191486
        ],
        [
            0.4567642544904487,
            0.33671729217209645,
            0.08388136259231682,
            0.23110014749578567,
            0.18058744774199575,
            0.41750725136102257,
            -0.26466882226719757,
            -0.29739398610287693,
            -0.06852787120729936,
            0.13323536058512123
        ],
        [
            -0.3367657411718186,
            -0.422048971793619,
            -0.0793055295463449,
            0.44439468202067467,
            -0.0390197776838366,
            0.04349705044160879,
            0.27146699848830286,
            -0.09627895460248428,
            -0.18623131686933236,
            -0.4142003743002115
        ],
        [
            -0.24719395283937204,
            -0.2434492205042978,
            0.45150130804705363,
            -0.38835241015711547,
            -0.47186577353326103,
            0.0902433351219477,
            0.03064697668769785,
            -0.4872482649599667,
            0.503561657979648,
            0.11938298956636186
        ],
        [
            0.4719360963407899,
            0.2794180277318611,
            0.25409610788869824,
            -0.004960558608789795,
            0.4266699061670862,
            -0.005455213340172448,
            0.2841357491936141,
            -0.4608236783860695,
            -0.020017487490582582,
            0.16432810840813555
        ],
        [
            0.27660021631762455,
            -0.16664653030715915,
            0.42509527113011525,
            -0.04253276709135438,
            0.41025847609461774,
            -0.47714697059636196,
            -0.013509137139218634,
            0.4202806324430162,
            -0.2340275462661986,
            0.08960826259962479
        ],
        [
            -0.3863545616072312,
            -0.40028252245965595,
            0.4612551988018362,
            0.06679372212625294,
            -0.06604816072067134,
            -0.0889076124565497,
            0.4035431541723305,
            0.014943897525599848,
            -0.1400088826426308,
            -0.2596584152953447
        ],
        [
            0.37313523727706077,
            -0.10476392213145325,
            0.3620609531783621,
            -0.45811607628874007,
            0.4770872611606751,
            -0.13779500730506197,
            0.36587778535524756,
            0.02889346039868877,
            -0.19791248348872695,
            -0.2186405115847642
        ],
        [
            0.4876706165913749,
            -0.03699659925271386,
            0.39487952964114426,
            0.025423289283922196,
            0.10263069622209181,
            0.2754965539835651,
            -0.32099196546687664,
            0.1541361740554163,
            0.12730504482981783,
            0.3092118574731303
        ],
        [
            0.01901822786352037,
            0.2338810034427722,
            0.03787087349861041,
            0.32530256797986,
            0.4718387545705383,
            0.4863986817550582,
            -0.28122415428302655,
            0.16077636626495617,
            0.38110436518376556,
            0.06569721917122306
        ],
        [
            -0.3388239890564015,
            0.3329346789246625,
            0.1562466550052629,
            0.2541789324746904,
            0.23662721538318196,
            0.32761678696724666,
            0.41825070356290145,
            -0.49499846067485104,
            -0.30243867180090855,
            0.07046095257579663
        ],
        [
            -0.20946142858094985,
            0.4346253877695043,
            -0.4276495420684136,
            0.3097628564565106,
            -0.18662214327258017,
            0.3783357739213668,
            -0.11941312029414818,
            0.42455722947439245,
            -0.44506330818418594,
            -0.04058821122510328
        ],
        [
            -0.2985907460397977,
            0.10994960023632804,
            0.00972914414919077,
            -0.4745210944058507,
            -0.1850730981962531,
            -0.26616443069781887,
            -0.1844985504973051,
            0.3647215020041718,
            0.24363931422913504,
            0.12614489391955125
        ],
        [
            0.2384760408997452,
            0.2083047060865036,
            0.029243982188152006,
            -0.13859911995793647,
            0.24195123604782756,
            0.307469222494105,
            0.049870083204652464,
