{
    "ApplyHiddenSize": 10,
    "ApplyLearningRate": 0.03,
    "ApplyOutputSize": 2,
    "HiddenBiases": [
        -0.30905047603137875,
        0.3280060021467615,
        0.37995807092838657,
        -0.026276992933934356,
        -0.2953025811069329,
        0.09326101699933066,
        0.040200362586077135,
        -0.2026344298077285,
        -0.12974628913466368,
        -0.03515040594882341
    ],
    "HiddenOutputWeights": [
        [
            -0.47738589216034494,
            -0.18486655855996187
        ],
        [
            -0.10163768582698274,
            -0.10728310864578358
        ],
        [
            0.05502369559120406,
            0.2606752473183304
        ],
        [
            0.3218700584855569,
            -0.08921158899748127
        ],
        [
            0.06876113416586316,
            -0.48301918653297193
        ],
        [
            0.23150686471408935,
            0.258438522892191
        ],
        [
            -0.35187997389889525,
            0.18000967719233438
        ],
        [
            -0.2311371693757735,
            -0.38948924060354795
        ],
        [
            0.3880075371875277,
            -0.40741664615619777
        ],
        [
            0.32221306169738456,
            0.09761346975848414
        ]
    ],
    "InputHiddenWeights": [
        [
            0.4434240906312933,
            -0.4693493312081057,
            0.03936223558991055,
            -0.4965219306385527,
            -0.0833554193335361,
            0.2342738680598992,
            -0.49856548723050426,
            -0.08360296865831006,
            -0.2163310168154658,
            0.22469955025510419
        ],
        [
            -0.10626217300660311,
            -0.4626551613511417,
            -0.20216232510956236,
            0.36568326289701675,
            -0.46974738237214,
            -0.012405675412494092,
            -0.11317266367872594,
            -0.4347777901737657,
            0.2297391019523294,
            0.28692243704429315
        ],
        [
            -0.24945882286289361,
            0.10579848988531526,
            -0.03391872101376244,
            0.4210754121961663,
            -0.047615399268309655,
            0.06718961929840438,
            -0.34477862519834473,
            0.2705360185125584,
            -0.20590664733128547,
            -0.25325271858137827
        ],
        [
            -0.08250654832525711,
            0.19118290856000533,
            0.17233573245558745,
            -0.32155869287935057,
            -0.3734463447792472,
            0.3826590054867533,
            -0.2078966771729273,
            0.37644123467360335,
            -0.5039517294355104,
            -0.08245234590932976
        ],
        [
            -0.226410335399243,
            0.08343210998814668,
            0.38581921162202126,
            -0.45637092963545406,
            -0.01697682566330226,
            0.048295705143847345,
            -0.18128245806724091,
            -0.457825793593579,
            0.3102476910298014,
            0.3992861650489459
        ],
        [
            -0.0076430130925455465,
            0.1387876259700115,
            -0.04892928073056007,
            0.005352058017552035,
            -0.016433636968647924,
            0.27634223268397035,
            0.4437289664895275,
            -0.15351774998040274,
            -0.5463257438929501,
            0.0852260964841399
        ],
        [
            -0.0937043999385186,
            -0.37483971677207506,
            0.34760700516236337,
            -0.37454356025587754,
            -0.4518139709561169,
            -0.2765806444684635,
            0.4146853032745527,
            -0.2380359442910143,
            -0.08664824191597366,
            0.02602381329977897
        ],
        [
            0.32115950018211065,
            0.08401430435218167,
            -0.36729849693280897,
            0.48567346786296506,
            -0.27979654960299694,
            0.2547518874599025,
            -0.2241123755877198,
            -0.47213999414688246,
            -0.08268572635105531,
            -0.4482143345088137
        ],
        [
            -0.1971830907979254,
            0.4451743889470722,
            0.19002963100555573,
            -0.2676453457691119,
            -0.2633225467481122,
            0.428078675976289,
            0.09080897887559239,
            -0.4377359901735941,
            -0.5393565362441382,
            0.23657537593426659
        ],
        [
            0.0067034781731577266,
            0.4169502097702197,
            0.42136588601066644,
            -0.09368269151552883,
            -0.18333346889270188,
            -0.1528112045624507,
            0.3101400280574332,
            0.06347109022204973,
            -0.17288273817768135,
            0.33847907102817426
        ],
        [
            0.3466728651857258,
            -0.46582516161677096,
            0.48564132817639083,
            -0.0015962277791134098,
            0.07149387794872715,
            0.3193026736031992,
            -0.29326524717429137,
            -0.14772090052533765,
            0.252704184747897,
            -0.4509506027977381
        ],
        [
            -0.2544085899629853,
            -0.1952800957196497,
            -0.44084270252741126,
            0.23991895494364598,
            -0.33920526880702395,
            -0.44658338957032945,
            0.11951435544211363,
            -0.08970299509002222,
            0.3042565445326679,
            0.265958309877732
        ],
        [
            0.15142772934004947,
            0.3062537785854687,
            -0.2706940609809185,
            0.1977336245612199,
            -0.07635961187658412,
            -0.24467818450394915,
            0.33477311108346325,
            0.44213803275709834,
            0.27921218143243814,
            0.2767293207163088
        ],
        [
            0.28822654169468614,
            0.40273595318639016,
            -0.15490819492449442,
            -0.18251336565875162,
            -0.3893698358243911,
            -0.29536858138623956,
            0.4666807065896997,
            0.06447269726851156,
            -0.5125520034037546,
            -0.055645844927247314
        ],
        [
            -0.2664328914839997,
            -0.29644779318945585,
            0.15401067142860542,
            -0.09020896508544209,
            0.1347904549267628,
            0.026055044271406102,
            0.1751520782976458,
            -0.07092177028389374,
            -0.2824833905826707,
            -0.3193423370631832
        ],
        [
            0.11695638758402072,
            0.4820160268287746,
            -0.1400318668070181,
            0.18220420599358564,
            -0.3890996866769225,
            0.3291453205314516,
            0.22788307211699152,
            0.4176541142109104,
            -0.2722746654549777,
            -0.02925282874787124
        ],
        [
            0.017009625101994164,
            0.2765077923645543,
            -0.3706450034012874,
            -0.4423885774126408,
            -0.012768134520125879,
            0.013516071341452173,
            -0.1965193931817556,
            -0.425109602061072,
            0.2699054666711022,
            0.4267590945420241
        ],
        [
            0.20462944066847125,
            -0.26861184089796564,
            0.19624656923351178,
            0.13876025984843796,
            0.10179857709792459,
            -0.0631744871889949,
            -0.2071532989984178,
            -0.34349554962754786,
            -0.17732219748901754,
            -0.35672845976650924
        ],
        [
            0.34691839993263524,
            -0.20277358490513195,
            -0.09224383683233005,
            0.1116634789836372,
            0.2927616238467585,
            -0.3022206576796599,
            -0.3827413026545563,
            -0.4267195267938261,
            -0.3041708308210188,
            -0.14433733317215588
        ],
        [
            0.29821209139879,
            0.04715607935961429,
            0.19567941472350325,
            0.04595349492845512,
            0.32859801590675786,
            0.3514409290036071,
            -0.4262909057699925,
            0.3746525849350704,
            -0.035390858730692205,
            -0.05762227387258756
        ],
        [
            -0.3585386033556085,
            0.40848025101895163,
            0.34031164299137073,
            -0.27296435115193984,
            -0.46618341928079743,
            0.20463619414354736,
            -0.04319177131068548,
            0.339774638896268,
            -0.10138590768452704,
            0.13617859417677744
        ],
        [
            -0.37021927996186366,
            0.06711308897754559,
            0.4944350798756182,
            -0.11893784198406446,
            0.24526996884769856,
            0.5071555408791149,
            -0.1992876161703231,
            0.33228038273403143,
            0.05812858824494281,
            0.08873168277881126
        ],
        [
            -0.1348831404824873,
            -0.1364990438850531,
            0.26481541477345966,
            0.10853198660698452,
            -0.05204305068171639,
            0.272098926441474,
            -0.2623725365033069,
            0.23843411616979393,
            0.004744850639840115,
            -0.2066544206929737
        ],
        [
            0.41921438518469195,
            0.23704429590661794,
            -0.06958006441113275,
            0.09075349019902666,
            0.1048844814719677,
            0.40453716914267546,
            -0.262125774514675,
            0.4037849136648921,
            -0.010244594860358601,
            0.44091292398198056
        ],
        [
            0.44449689364790856,
            -0.13193433214033126,
            0.09844020085981159,
            -0.1320070987910522,
            -0.43573035609573535,
            -0.2293342558509087,
            0.03731980263471581,
            0.41852729139894307,
            -0.09136646793459975,
            -0.33032606646629414
        ],
        [
            0.12889284517910699,
            -0.30907003579049935,
            0.030135340094403374,
            -0.218886841555745,
            0.0006598299660972107,
            0.05855691238390981,
            -0.007605935430926734,
            0.27752822657181964,
            -0.35630180378745546,
            0.022555500640620892
        ],
        [
            -0.18224593865676442,
            0.06919390908125746,
            0.5069632973982671,
            -0.3278741457475025,
            -0.1280073630118778,
            0.2692202590035939,
            -0.4559499611559168,
            0.11539548052663712,
            -0.5029744255170655,
            -0.15983368617983146
        ],
        [
            -0.15249588333016562,
            -0.2679787865553175,
            -0.3002164725331306,
            0.26795531833274916,
            0.34366217302260504,
            -0.31605344256351775,
            0.07242788254095031,
            0.43036646370283993,
            0.1368840889079834,
            0.45725961528872305
        ],
        [
            -0.24075636772725859,
            -0.28026836641652647,
            -0.46208371163634065,
            0.45408891751875036,
            0.3244080919814071,
            0.16942793694554512,
            0.2593245890021104,
            0.17491489701162333,
            0.2331152078223215,
            -0.48773405999963454
        ],
        [
            -0.2940165598165482,
            0.18208854129243254,
            0.30530177431650574,
            -0.4855058177559609,
            -0.3507266980749398,
            -0.06176252053658767,
            -0.1585723131782712,
            0.36501547680475066,
            0.1237787860377238,
            -0.40370410860742634
        ],
        [
            -0.380394294354461,
            -0.46022841927842645,
            0.16384243411106283,
            0.4638807928821088,
            0.27790000865461745,
            0.4794233913890678,
            0.3686909878538278,
            0.04230479078939729,
            0.19437541270483286,
            0.4482256638930294
        ],
        [
            -0.24388598202513947,
            0.39959024725659076,
            -0.2736317131724378,
            -0.4993398891195194,
            -0.39969752322084007,
            0.43012880158699834,
            0.023322786885716828,
            -0.26696113802574406,
            -0.3120153602659716,
            -0.3925297554648317
        ],
        [
            0.18418724430376865,
            -0.1710848580264423,
            0.05143825341491617,
            0.45839111347579703,
            -0.3867480556569212,
            -0.3326081115002282,
            -0.3276556200194863,
            0.11056548121094402,
            0.3554171784318574,
            -0.07755242290952961
        ],
        [
            0.19510489601504918,
            0.23130933312050397,
            -0.3647974538020111,
            0.04260168761381713,
            -0.30355736567169217,
            0.36471327747375526,
            0.4259330919190676,
            0.2852293909917066,
            -0.41400202794784013,
            -0.17729792166104788
        ],
        [
            0.2443438152274283,
            0.3308431706305621,
            0.10543016837132907,
            -0.2127930704643193,
            -0.4395444867948827,
            -0.24176595065574236,
            -0.4847622284625143,
            -0.4441817164276956,
            0.07230406480791327,
            -0.2250748611983478
        ],
        [
            0.341102961959729,
            -0.31916501220856086,
            -0.3796918250546996,
            0.09736047901578615,
            0.44213396743406047,
            -0.4328680967849462,
            0.039367254632580555,
            0.20103898650725008,
            0.2995135822568647,
            0.12294086364690432
        ],
        [
            -0.4136251709582069,
            -0.09429351890578151,
            -0.4083842866852356,
            -0.3252125381473212,
            -0.04162511622406529,
            0.11336596749287173,
            -0.4100524486186508,
            -0.4500517811946766,
            -0.4472588037360224,
            -0.42798259227900554
        ],
        [
            0.29209972685724145,
            -0.41095894275645073,
            0.2671491188636214,
            0.09003060783676729,
            -0.4842546647593949,
            -0.36479364235531375,
            -0.35110103986438085,
            -0.11993708485811587,
            -0.11803037604391092,
            0.1284686529678093
        ],
        [
            -0.4655228554321449,
            -0.46936280811653347,
            0.2294633721793404,
            0.4715380928926741,
            -0.3245044554673134,
            -0.08502403460516379,
            -0.47363100715766343,
            0.11524846591109417,
            -0.4837920665965007,
            0.40048573610134336
        ],
        [
            -0.3564032671924739,
            0.0886142024567498,
            -0.08462354508082895,
            0.2846733833569173,
            -0.2257636774254409,
            -0.44345907121631,
            0.13497844170766152,
            -0.34232949136575197,
            -0.1143883807784953,
            -0.010091395218016271
        ],
        [
            -0.2966175355902239,
            -0.3399128541946553,
            0.25852043971649824,
            0.1562772321642912,
            0.19223641873217845,
            -0.03511281267457403,
            -0.3095366495207463,
            0.3561598413385274,
            -0.4632064156243234,
            0.3470243674522145
        ],
        [
            0.19088422078855824,
            0.128260659857209,
            0.21496692421778318,
            -0.26112508289827874,
            -0.48569049660741515,
            -0.4670790465247961,
            0.11174147870693354,
            -0.47675909389296206,
            0.3551445508592195,
            0.05518098331318665
        ],
        [
            0.12268150945599406,
            0.480421990415627,
            -0.20458924991549457,
            -0.1270084749024342,
            0.12374429794672451,
            -0.24538041522198842,
            0.077588623405211,
            0.4023694056034756,
            0.36814103562623407,
            0.17740075668062752
        ],
        [
            0.01573526192408122,
            -0.15889461312710504,
            0.14784366368941274,
            -0.1313525294600977,
            -0.094900193843113,
            0.31450092670016694,
            0.05763086076617334,
            0.34949184274061507,
            0.25435309514998516,
            0.19563875300397604
        ],
        [
            0.3869233785041917,
            0.08822485293029146,
            0.4137876041462804,
            -0.21812297932962488,
            -0.19595787517001959,
            0.36386611867153207,
            -0.2836733297758241,
            -0.17864471062822257,
            -0.13875889789222962,
            0.2503521714106137
        ],
        [
            -0.14174791490938785,
            0.037307375751362566,
            -0.33284337688325993,
            0.15343186526510486,
            -0.010010756698995933,
            -0.18413528730108303,
            -0.4028919060587174,
            -0.3323509516158429,
            0.25548732707305544,
            0.07048872370638362
        ],
        [
            -0.017434666376376542,
            0.12124474567935169,
            0.389514800335953,
            0.004028588702348386,
            -0.44328871366332323,
            0.2429534438655112,
            -0.5040109248588539,
            -0.23665288566383072,
            -0.41163620649762883,
            0.20443281098856925
        ],
        [
            0.19577030770429402,
            -0.3888180978748141,
            -0.38746568505793755,
            0.019170026211944167,
            0.17027840909356248,
            0.29139497137064246,
            0.0914203206661659,
            -0.4678547591130153,
            0.28548634675912943,
            0.11201491388923418
        ],
        [
            0.46305361227745306,
            -0.11886182889790664,
            0.4527219819672766,
            -0.05221639656466662,
            -0.1425247328122344,
            0.36030380778161686,
            -0.1940094293183529,
            -0.3289896645556515,
            -0.09306918616632806,
            0.4383388293096244
        ],
        [
            -0.07979449232073198,
            0.13262538621693806,
            0.05185205678584436,
            0.4246852683448844,
            -0.428502762955409,
            -0.1403984850520423,
            0.1860131742836614,
            -0.5064578772371722,
            -0.25863888548615693,
            -0.4870640666634942
        ],
        [
            -0.3939216299563195,
            0.4681207958782477,
            0.5037990511902062,
            -0.2120983364405907,
            0.021334254069614547,
            -0.2118318297588596,
            -0.09125736216528985,
            -0.2220618979296034,
            -0.4334185924642269,
            -0.07689721330670682
        ],
        [
            0.022467741880959645,
            0.41038686564515303,
            -0.28098453878393864,
            0.1822137137468928,
            0.2057604258092226,
            -0.34497374424098964,
            0.48357050382173494,
            0.20571624925097334,
            -0.22487880167870644,
            -0.003107235235424114
        ],
        [
            0.2269821306367998,
            -0.03490062932778403,
            0.19453032192409297,
            0.3863894883038795,
            -0.4556096977428854,
            0.2538820441181746,
            0.4506935571863631,
            0.20368342317037666,
            -0.49754589961043155,
            0.3792446698323717
        ],
        [
            0.19468254795311923,
            0.3070606484790387,
            -0.30660609826312574,
            -0.45201772883440433,
            0.32097699351033554,
            0.3909528245224887,
            -0.008940655382105804,
            -0.2853484401622824,
            -0.44844573852454706,
            -0.34575939523378024
        ],
        [
            -0.19687751310277832,
            0.20756298901316966,
            -0.26427190758759195,
            0.4367910111837979,
            -0.17026635102292867,
            -0.35389898477567844,
            0.0071242120908149575,
            -0.04782232721569947,
            0.05517558695430754,
            0.33897533211368475
        ],
        [
            -0.24058623877065344,
            -0.4111350660270685,
            -0.01950883908252438,
            0.11192988572862167,
            -0.14787513604513491,
            -0.39094472316276824,
            -0.5050501015763353,
            -0.04843798183492864,
            -0.1063613635261078,
            -0.3766822516265009
        ],
        [
            -0.4523320442303042,
            0.15511770478698172,
            -0.08403218889910839,
            0.10374586887049823,
            0.3487955384609969,
            0.08162346000223768,
            0.08095124730223269,
            -0.47550246175594896,
            0.13976132341938297,
            0.14172903833792508
        ],
        [
            -0.17925369045928252,
            0.08871277824664328,
            0.13865057267342265,
            -0.4846538036602801,
            0.4103405147601947,
            0.3922577065006616,
            -0.47273890645920147,
            0.46289220888179217,
            0.235878133667194,
            -0.10372633752277227
        ],
        [
            0.12306374506687072,
            0.4174589627929747,
            -0.3603186202137344,
            -0.04542664757135281,
            0.02321504805850531,
            0.47124355143417257,
            0.4476930269968997,
            -0.4771724839381193,
            -0.3122090167116323,
            0.3738276154457775
        ],
        [
            0.05529455310328307,
            -0.03491969402197519,
            -0.3642214996629268,
            0.03230899683817364,
            -0.3511713028663561,
            -0.15677392126136183,
            0.07564344518816404,
            -0.09467252574811343,
            0.24841432149048048,
            0.03625452242940829
        ],
        [
            -0.39026093532701384,
            -0.0568481575055033,
            -0.006869409550263663,
            0.44772021094644593,
            -0.15509616991368372,
            0.2114494979235866,
            0.26932529268133426,
            -0.06897728351962616,
            -0.15902856984084907,
            -0.19535712212811335
        ],
        [
            0.04107155878193695,
            0.3380933403920185,
            0.060553344288386164,
            -0.457899152225054,
            0.48256105597106486,
            0.08441471495591224,
            -0.306804697938116,
            0.34354376191384817,
            0.08533444824662353,
            0.08238151843812626
        ],
        [
            -0.08248155346457814,
            0.4204506102536902,
            0.16028678584412143,
            -0.230012227295599,
            -0.48646907236628223,
            -0.044019139052270014,
            -0.13461789683448303,
            0.4211170255790882,
            0.19853580526924827,
            0.33300231719664597
        ],
        [
            -0.4688454161061909,
            0.08233745806117784,
            -0.1276860151727159,
            -0.07570473607485875,
            0.009806847719143573,
            0.08408786374915155,
            0.16490295674209007,
            -0.1332556471145876,
            -0.37811005339809906,
            0.42679766931002444
        ],
        [
            0.2804803315690211,
            0.4101245093186105,
            0.1546265391407552,
            0.3008277212528746,
            0.14827930779484605,
            0.051562637025494386,
            -0.43694627139705305,
            0.43050743094753424,
            -0.32502135035952473,
            -0.011840947412732738
        ],
        [
            -0.41171456019089053,
            0.06133435290687267,
            -0.1801885656954797,
            0.4122584778514021,
            -0.40641213190502645,
            0.06575795046614727,
            0.38800419763223104,
            -0.41563917730063965,
            -0.3679128213084485,
            -0.0585340835533139
        ],
        [
            0.002036541689920959,
            -0.24944780130001618,
            -0.27368497770483186,
            0.4852575411288726,
            -0.1887365417103154,
            -0.37136287208825347,
            -0.4791121174078764,
            0.31913488216586167,
            0.19683506339978446,
            -0.4945628752333925
        ],
        [
            -0.024079092341467358,
            -0.4167230295675745,
            -0.2998238429978894,
            -0.0686495487488901,
            -0.02663238846032253,
            -0.20187416417709406,
            -0.3821187272395497,
            -0.4939193513503166,
            0.27941569529162225,
            0.13927587969986102
        ],
        [
            0.09167821851992008,
            0.2570649064444202,
            0.39205942401128113,
            0.39418187547321676,
            -0.05894004668109821,
            -0.08685154379499957,
            -0.05901201655789093,
            0.3523395666424256,
            -0.16126445069740625,
            -0.482102684962709
        ],
        [
            -0.29077961154025267,
            0.35349891844670717,
            -0.3683083691139638,
            -0.04748286194325649,
            -0.19384872650089646,
            -0.44111505391001565,
            -0.25300615828879497,
            0.33071073092531894,
            -0.1904131011356233,
            -0.3475252008180487
        ],
        [
            -0.03485009635167651,
            0.254163102434338,
            -0.04028739968474322,
            -0.24210511991386088,
            0.38359089139375985,
            -0.23742148969994734,
            -0.4296259425978196,
            -0.1708953744276902,
            -0.40590088510043854,
            -0.11298380897795461
        ],
        [
            0.18840559974899157,
            -0.2829291269341746,
            0.44191703405795346,
            -0.1013949906842397,
            -0.4007939677856101,
            0.007928835770122319,
            -0.24365212225020783,
            -0.2803998545260142,
            -0.06952728301320386,
            -0.19947466027332603
        ],
        [
            -0.1431831355749985,
            -0.03144628300270411,
            0.478260512260893,
            -0.24970604585809236,
            0.16004165247608299,
            -0.022272938775095872,
            -0.10159356589613981,
            0.10683277798431116,
            0.41056615771604527,
            0.20941818622490638
        ],
        [
            -0.19488017578635866,
            0.46251894664568677,
            0.38654785233004735,
            -0.3714489860209515,
            0.37424948813551107,
            -0.1963292089281179,
            0.01003955642437128,
            0.037680015392169565,
            -0.30520245276431845,
            -0.4602417727644142
        ],
        [
            0.09421200934637511,
            0.3127842020004995,
            0.004164155197392663,
            0.3051404618898836,
            -0.35395849584461647,
            0.40830600434769365,
            -0.039351165832946275,
            -0.17978367876198578,
            -0.33696993442254847,
            0.027395454325785343
        ],
        [
            0.4316377372011463,
            -0.031622950650498166,
            -0.16658207926236357,
            0.03197355948026432,
            -0.002717761792808321,
            0.22271611020838378,
            -0.4560731719361003,
            0.10734875452505807,
            0.32671968176156074,
            -0.42902515291839943
        ],
        [
            -0.09094914919862544,
            0.09642248039617748,
            0.10281022408150796,
            0.24948613773797682,
            0.29412346780113774,
            0.3919695189396044,
            0.1498654751582664,
            0.06901505339688674,
            -0.28802680605828207,
            -0.2231353428132856
        ],
        [
            -0.29439459268689616,
            -0.016755520204661565,
            0.05021603129523588,
            0.26900696438446775,
            -0.4010965012571273,
            -0.4553558638368036,
            0.003373842309962698,
            0.026837986415861763,
            -0.06829106255971316,
            -0.11561696383458543
        ],
        [
            -0.07821312645180199,
            0.18867676784634865,
            0.4795760607511752,
            0.030824784188894182,
            -0.4222095293293749,
            -0.4458125699245716,
            -0.0542205567708699,
            -0.13972835376884374,
            -0.29316732732674977,
            0.002101275201842119
        ],
        [
            -0.488171077821194,
            -0.19139007434272678,
            -0.22304814431553188,
            -0.3178130168043507,
            -0.04170277820872654,
            -0.48087267241900583,
            0.3874150417028193,
            -0.4396730151052697,
            0.44405527485629476,
            -0.47385650123636064
        ],
        [
            -0.0351100360956895,
            -0.33010883286402465,
            -0.3479492610348615,
            0.32110491453541645,
            0.30634547188639577,
            0.49694483354507984,
            -0.035829177555282525,
            -0.42158905310101913,
            0.29143860044350844,
            -0.1305134766957417
        ],
        [
            -0.43825600781437046,
            0.17294890265012566,
            -0.2689720112759553,
            -0.08695883824160222,
            0.27535788179886544,
            -0.3314302134852875,
            0.2574299692903461,
            0.13523893957518154,
            -0.26045729742646806,
            -0.1316508636534839
        ],
        [
            0.4049788531565563,
            -0.5006761304318034,
            0.0701721452387064,
            0.2806553067330121,
            -0.04146656378499551,
            0.4143422652438425,
            0.235707566803633,
            -0.2212740100918822,
            0.36406995671605774,
            -0.48869876012929925
        ],
        [
            0.49034445827740236,
            -0.4224110124093864,
            -0.30674422869056106,
            0.2565185613609553,
            0.2385511996443204,
            -0.27902591852101,
            -0.43761634246768144,
            -0.007612583780326036,
            0.33723412138304687,
            0.1591891350042715
        ],
        [
            -0.39015172606366655,
            -0.2682650305094972,
            -0.40559881356456934,
            -0.24046050452686246,
            0.1970441007763495,
            0.166708095820477,
            0.12022871302201124,
            0.06687599907572724,
            -0.4534095037952608,
            0.23127970595931016
        ],
        [
            0.36353355001194726,
            0.3923524232254566,
            0.34915244979700183,
            -0.21817733972297668,
            -0.2219054750350172,
            -0.045293670039362445,
            -0.2571281973735866,
            -0.5001532773862761,
            -0.443297781549543,
            -0.35919823905252035
        ],
        [
            -0.27463284275488253,
            -0.18542164618147264,
            -0.27271814776309256,
            0.2209865359343431,
            0.22960494210689605,
            -0.16491772399450727,
            -0.23810139859709115,
            0.3612847876131037,
            -0.4694456362146719,
            0.10210450500314261
        ],
        [
            0.011056309577337163,
            0.48598628045904746,
            -0.48032132198655,
            0.2525936954990647,
            0.43713867864075945,
            -0.2742827996146789,
            0.2643170336163505,
            0.17913975118280623,
            -0.4214617783313766,
            0.010992354530024395
        ],
        [
            0.41397705833687287,
            -0.003298930931217607,
            -0.48903571807203267,
            -0.33404610686163533,
            0.15943528841807195,
            0.29322264579469365,
            -0.5098178551097974,
            0.3131537106387744,
            -0.053318000791644754,
            -0.013152258552093368
        ],
        [
            0.08624773243142862,
            -0.32841543407942014,
            -0.053306775101313986,
            0.37718045531313993,
            -0.24642354166319172,
            -0.037147469748662815,
            0.23646010594253114,
            0.46792820716365413,
            0.3004218881413854,
            -0.48970186262846177
        ],
        [
            -0.2867038308175794,
            0.37881348435990836,
            -0.49722352041885237,
            0.3419511761935621,
            -0.014615854298343361,
            -0.16687452034665975,
            0.07500110194318518,
            0.16437078432878258,
            -0.08727915283656033,
            -0.48416178705388546
        ],
        [
            0.2601352098556962,
            -0.25523512902672474,
            0.3110893623893561,
            0.4194242233936665,
            -0.4642413005718924,
            -0.06619705898485953,
            0.2826478424804667,
            -0.26004095766236673,
            0.3581802974829634,
            0.4221628614051324
        ],
        [
            -0.33010661112444284,
            -0.36140870306294887,
            -0.27706471663031274,
            -0.4849691496231873,
            0.4087216484019005,
            0.36706126561057273,
            0.2433874363244719,
            -0.171765266897903,
            -0.07810823886176671,
            0.04930383250563589
        ],
        [
            0.4592099606523229,
            0.4026986159147709,
            -0.40182075282765223,
            -0.29638764613128926,
            0.4789592487216789,
            0.023174310296031737,
            0.30509521214928903,
            -0.36312910686079936,
            0.28392656697146057,
            0.2583230411989114
        ],
        [
            -0.09848433947571958,
            -0.04064032914912847,
            0.002573641793504003,
            0.08750444818790262,
            0.09031253063701773,
            0.2513459973880377,
            0.3613940626009531,
            0.4602163596963656,
            0.20808012866530073,
            0.16041871177525466
        ],
        [
            -0.45278893103366535,
            -0.181813623543632,
            -0.5056616940931478,
            0.041949795090565005,
            0.019527110392925717,
            -0.16907143506030894,
            0.3056077673218063,
            0.22514641883649195,
            0.16751092524756633,
            0.41488297190907425
        ],
        [
            -0.24532880053034908,
            0.19828784784039571,
            -0.41418391277326483,
            0.3450904008675633,
            -0.4290633919948696,
            0.2232129379132963,
            -0.3161785477784976,
            0.3431028553261924,
            0.31335952664766537,
            -0.34028060360015466
        ],
        [
            0.3622051367083257,
            0.15527235906339407,
            -0.025204953261371777,
            -0.3830591706962134,
            -0.2059626711328892,
            0.3765411041940583,
            -0.07635991295848081,
            0.009696152446331357,
            -0.28494547744586196,
            -0.41629120373121953
        ],
        [
            0.19905135123785012,
            -0.1810585217123517,
            0.4750092997317995,
            -0.39126314475920193,
            0.4070073496489467,
            -0.45058017350051427,
            0.09055553420596171,
            0.29906695233479924,
            -0.10438203734316287,
            -0.29102477077625943
        ],
        [
            -0.4863803273574297,
            -0.19547756064072383,
            -0.2856211659326202,
            0.35203643460920836,
            -0.3293484004750364,
            -0.3369953352990103,
            -0.1595382836765204,
            0.35005047033187187,
            0.1575517540294023,
            -0.3068646582703551
        ],
        [
            0.12263706140709861,
            -0.3778569507699869,
            0.35478596793058953,
            0.0772271334510119,
            -0.22641561241703448,
            -0.13855431999194034,
            -0.2987129663277951,
            0.46288057054113463,
            -0.4677744696514474,
            0.04146517383603058
        ],
        [
            -0.15653208777840236,
            -0.380548006995473,
            -0.4898919897359619,
            0.2964744096438933,
            -0.30003714432276624,
            0.41951523315372996,
            -0.29044439234190655,
            0.2856234189685086,
            -0.1431320605521361,
            -0.33313944061002804
        ],
        [
            0.1909278964055183,
            -0.18772932765041248,
            -0.4824698229068737,
            -0.35772812447963015,
            0.16158836711989227,
            -0.28548913092095324,
            0.28351304854232284,
            -0.30213205459876863,
            -0.33691088495381755,
            -0.17706799579825128
        ],
        [
            -0.03798521959702769,
            -0.06162482256797201,
            0.33422066207435336,
            0.06268923896439942,
            -0.052844184930371234,
            0.2622810338788863,
            -0.23146445053388973,
            0.3337269297498322,
            0.07973763823108972,
            -0.2254195699968414
        ],
        [
            -0.0897777609789978,
            0.4178093208588345,
            -0.2694678691283531,
            -0.04716086122856365,
            0.2895504585434322,
            0.4433077081393948,
            -0.14235498272289848,
            0.3919476562450698,
            0.25884769797250784,
            0.19126981543111873
        ],
        [
            -0.23754600270218482,
            -0.3306506168669989,
            0.2101789101298079,
            -0.15835397143603724,
            -0.4426736623777779,
            0.09224197849317381,
            -0.21126969533682677,
            0.26092837999659874,
            -0.21587611854547553,
            -0.1369691018431772
        ],
        [
            0.0663319934756715,
            -0.3896485610612884,
            0.40016171753689334,
            -0.4850569582901151,
            -0.05541424864870758,
            0.2882152737498436,
            0.4059174740889521,
            -0.03402503860453946,
            0.4706532610699518,
            -0.002685926992321725
        ],
        [
            0.3159619624940851,
            0.22010898948746785,
            -0.4573984887624041,
            0.02905575683249709,
            0.008154097707013658,
            -0.013795915709456805,
            -0.4807452251611304,
            0.3766649842965114,
            -0.1280630133934014,
            0.24300500699706565
        ],
        [
            0.18326553867737735,
            -0.05695154768469442,
            -0.01361555673801325,
            0.1035844957434543,
            -0.14371565963806596,
            0.37477087452310176,
            0.0913120114645985,
            -0.16439497444709866,
            -0.17247398037519318,
            -0.21498426971035353
        ],
        [
            0.06307502506982182,
            -0.44336144739982275,
            0.0734097471822492,
            -0.003912632396077927,
            -0.08178462815101431,
            0.3770826136673025,
            0.28226242905489723,
            0.3728037613619719,
            -0.2180396008226925,
            -0.48240389434780534
        ],
        [
            0.16886220503919588,
            0.04766824463577978,
            0.030299594993403615,
            0.27283670854588654,
            0.30915443046082736,
            -0.46662959044253494,
            -0.11006414977994726,
            0.14060750700553792,
            0.21402640313682347,
            -0.4643108060819554
        ],
        [
            -0.29983146792677196,
            0.16975221942970375,
            0.09727029324120666,
            0.03277881966108489,
            0.3545480148440597,
            -0.21430569524370208,
            -0.12833482524833667,
            0.2548588515193226,
            -0.13711423896431835,
            0.12803765640825143
        ],
        [
            -0.20510029237825347,
            -0.18538734424238137,
            -0.2553528379617672,
            0.24091445934514932,
            -0.4056510931110064,
            -0.46726498649706494,
            0.050611132487963596,
            -0.0061089104262166604,
            0.2102625698206178,
            0.21503697587932794
        ],
        [
            -0.3336203001345965,
            0.22761202451243812,
            0.140068502489936,
            -0.004815966463659502,
            -0.008231867896333634,
            -0.07503782927324247,
            0.4202079255562658,
            0.3581967576951509,
            0.3727661067452556,
            -0.09293904804805851
        ],
        [
            0.1709691802104612,
            -0.4063790799784648,
            -0.46532479034544194,
            -0.06585362514530163,
            0.014613601067366273,
            -0.2798402459778173,
            0.2774875630243264,
            -0.4483325628110923,
            0.02443848042303726,
            -0.3529282289521305
        ],
        [
            -0.35219817760838673,
            -0.29455760193578784,
            -0.3154120509938657,
            -0.3076076701052161,
            0.10240458827506878,
            0.395050791145723,
            0.37951644156486486,
            0.04335369955655507,
            -0.3940940971239795,
            0.4084894572400552
        ],
        [
            -0.12557355726169983,
            0.44230944174851616,
            0.3744332493803445,
            0.47224273819337004,
            -0.44318687818070895,
            -0.3811293170047424,
            0.0510002976935766,
            -0.3122083611573092,
            -0.3777450001037944,
            -0.2499925714189232
        ],
        [
            -0.010625692977938937,
            -0.23817303832808825,
            0.1750132530807442,
            -0.4624125472750702,
            -0.28627245111958893,
            -0.18290861854511348,
            0.28051589520568687,
            0.03340319273270926,
            -0.05127963915624408,
            0.3069605285487801
        ],
        [
            -0.1231929730962829,
            -0.04745852748394051,
            0.45913231366769724,
            -0.1302363874218749,
            -0.10352074615061142,
            -0.47147294980318694,
            -0.010592096944424844,
            -0.4795675838605817,
            0.21065533504466205,
            -0.33250350076613233
        ],
        [
            0.4344180117125164,
            0.1493737244221764,
            -0.0949840261851473,
            -0.5005338009306345,
            -0.12121431330350163,
            -0.35587497557470643,
            0.42243830541975214,
            -0.029884396839719524,
            0.34367816280110614,
            -0.35907104753044095
        ],
        [
            -0.056687012334708645,
            -0.3084529952901807,
            0.0026705773502544734,
            0.24428180028405092,
            -0.08998119772331735,
            -0.3787599284216341,
            -0.34354116251686784,
            -0.37644296873374355,
            -0.22681387040588247,
            -0.18042115864690145
        ],
        [
            0.09028430808919034,
            -0.05890661647030662,
            -0.03624425841165079,
            -0.11605410900407116,
            0.46092958862476013,
            0.4392521819082847,
            0.15176301343009557,
            0.2090545283481012,
            0.04653035126379415,
            0.18235679951609005
        ],
        [
            -0.3552027089977702,
            -0.2168858258130998,
            -0.38374733608703515,
            0.30486084082798864,
            0.3354308109900297,
            -0.4016831995005497,
            -0.27758673487529384,
            0.16288271256473477,
            -0.22195274078579982,
            0.41091972583124037
        ],
        [
            0.031039843872656552,
            0.35241466654834375,
            -0.1028007713644674,
            -0.023237806645479423,
            0.3310777885527429,
            -0.08793890601418215,
            -0.11737897338775227,
            0.375566431559864,
            0.07078634695055283,
            -0.2847370947899895
        ],
        [
            -0.350613078748072,
            -0.3347480853607491,
            0.16735226519848775,
            0.4067458730707945,
            -0.27011911589569815,
            0.4232645502505435,
            -0.11333561858832258,
            -0.24094824128080283,
            -0.2832473014047365,
            0.42515585374657777
        ],
        [
            0.43837020667739246,
            -0.06086510356238071,
            0.23767915138729845,
            0.0789681994317537,
            0.3843063356263568,
            0.4848752859556379,
            -0.4791948057201098,
            -0.27560622155380604,
            0.24430711652179998,
            -0.49609890298863063
        ],
        [
            0.4420491109139446,
            -0.4506179509851912,
            -0.47925738114464483,
            -0.0499688013245904,
            0.39974874199078503,
            0.16967033764344142,
            0.4643560781597323,
            0.34705981810102915,
            -0.3555144122721286,
            -0.3628747515257436
        ],
        [
            -0.30921679106918376,
            -0.04666302490667649,
            -0.4395793529281003,
            -0.034598265237896796,
            0.2900677754978155,
            -0.32353681616865465,
            0.4422392100494477,
            -0.17562019449683172,
            0.26647983513688417,
            -0.2689071086245281
        ],
        [
            0.13370427774514482,
            -0.3821412643152246,
            0.07695836293724752,
            0.4062061939367424,
            0.4362108748841322,
            -0.48664541477243217,
            0.048021983828320604,
            -0.18047851357168548,
            0.3569487067080083,
            -0.326010473758606
        ],
        [
            0.3081426072954369,
            0.14006793238363907,
            0.22224609553588337,
            0.2997022448720135,
            0.3674972462226564,
            0.08114681993861302,
            -0.3139801211518947,
            -0.39075000388851966,
            -0.31464531853170813,
            0.18935191601197188
        ],
        [
            -0.4823455990620799,
            0.4910193259919377,
            -0.509720498122264,
            -0.2460827244730238,
            -0.44534443340208996,
            -0.1152733656013633,
            0.14296587600305694,
            -0.2529558284133224,
            0.4073893308688365,
            -0.3462197782608923
        ],
        [
            0.15267768452070085,
            -0.24631592457009488,
            0.43273014550158895,
            0.0339624963028543,
            -0.4814487153231926,
            0.22016860509003697,
            -0.48591865449709665,
            0.31843072583592247,
            0.20316712176195337,
            0.004056032656483826
        ],
        [
            0.01807121113067725,
            -0.012225066834515463,
            -0.4837926341450767,
            -0.39863066840938316,
            -0.17098674925119145,
            -0.1532936170192355,
            0.192906994945257,
            -0.08114959693603674,
            -0.45943565178411805,
            0.4406932223717391
        ],
        [
            -0.20068368835867081,
            0.07757352485969006,
            -0.17828525193406705,
            0.32763668309083455,
            -0.4020550993682411,
            0.052623988350290814,
            -0.002133548177635612,
            0.3652987955512406,
            0.20830334529811748,
            -0.3290581731036533
        ],
        [
            -0.2947497063762118,
            -0.27760445848145515,
            0.34140664605729654,
            -0.2172533061265004,
            0.046100657455143954,
            -0.31152729447599176,
            -0.10736762452838118,
            0.041614926730835326,
            -0.2094239918521617,
            0.036198387999675743
        ],
        [
            0.475426293390787,
            0.22389859017165237,
            0.16757597879994202,
            0.013827280868250798,
            0.12492575605527637,
            0.4364876702545969,
            -0.21166707177703745,
            -0.34851796588093586,
            -0.0765920890869908,
            0.19243924533479684
        ],
        [
            0.015932037601312527,
            -0.44224880442596687,
            0.3567004473636432,
            -0.2959238333293779,
            -0.22164558746973143,
            -0.19307843625561777,
            0.20014500681400374,
            0.3156461687357152,
            -0.18756266986756304,
            0.15118703294121863
        ],
        [
            0.4807442887106398,
            -0.49793723817704,
            0.4129782140470136,
            0.14652530644434317,
            -0.2159194761147273,
            0.2921901667294469,
            -0.2805049443870043,
            0.37828674283779506,
            0.12737332996125453,
            -0.4141207562417588
        ],
        [
            0.34654623509975496,
            0.45399271966620525,
            -0.27139853192884544,
            0.22349960024062895,
            -0.12406175032896756,
            -0.13052919404595692,
            -0.0491115077217351,
            0.2251722470925234,
            -0.3192517831244395,
            0.4768052289995425
        ],
        [
            0.4920588682623082,
            0.12984319774958905,
            -0.3401101544163537,
            -0.3410425401019823,
            -0.43626949970570345,
            -0.2173117934027322,
            0.41087679100173086,
            -0.12892549940012232,
            -0.20169142482353863,
            -0.44594402697616575
        ],
        [
            0.17233841274424755,
            -0.2595934783732011,
            -0.2892064652210912,
            0.34625488142015715,
            -0.48781209847416446,
            0.31385777665676373,
            0.4824736411771373,
            0.2883344015616657,
            -0.23900555589363245,
            -0.3052641687062897
        ],
        [
            -0.3409369964981424,
            -0.42716646131046426,
            0.2727969173436553,
            -0.33523330102467896,
            -0.01393286907728575,
            0.2672826207087596,
            -0.4838339659405631,
            0.45198162617742466,
            -0.37510555372870613,
            -0.40705954776780157
        ],
        [
            -0.15544874772301712,
            0.34156977326257104,
            0.093125236636168,
            -0.48623443712268305,
            0.4268782125740847,
            0.21360231051185347,
            0.1758058331475351,
            0.05582902754304795,
            -0.18251337134567985,
            -0.24398097201670274
        ],
        [
            -0.10364208480375246,
            0.2909364260295646,
            -0.23281912213527758,
            0.43246718080491975,
            0.30022200131237015,
            0.32942101496789034,
            -0.21808613812795016,
            -0.10722634447413831,
            -0.23528572581197035,
            0.3215974902102946
        ],
        [
            -0.27015939124553684,
            -0.009778224835560097,
            -0.31445823780532467,
            -0.22799831849790972,
            -0.4402784500966857,
            0.03084927867449292,
            0.3175143650015152,
            0.1509997029602509,
            0.034190069612056596,
            0.45583073927335344
        ],
        [
            0.27671109420514034,
            0.17426071304293017,
            -0.37378427066610603,
            -0.4360045927460108,
            0.07144638923456961,
            -0.3542353863534945,
            -0.43211082438183035,
            0.473105671471333,
            -0.22534628826637865,
            0.31351752497221713
        ],
        [
            -0.1614334523441727,
            -0.04216281860330697,
            0.2527201243966988,
            -0.4048732656866366,
            -0.3088854646880067,
            0.29452305221672864,
            0.1922756427996875,
            -0.38353899518362106,
            0.0840332892003389,
            -0.1585799770255744
        ],
        [
            -0.05583689918197336,
            0.4537047733122938,
            -0.3084815637721262,
            0.4142950520259428,
            0.062218065232688025,
            -0.02911947598695256,
            -0.015537718982518435,
            0.2045437638567328,
            0.12861888264211713,
            0.20946418257130775
        ],
        [
            -0.388743896287815,
            0.3350154822410203,
            -0.20336846010511495,
            -0.3476258458001242,
            0.2816972839259281,
            -0.26907036480472296,
            -0.19259481251328647,
            0.3666329053861122,
            -0.07902501107316325,
            0.4779396387941888
        ],
        [
            0.42744108603491265,
            0.35606637870416064,
            0.32831181606187665,
            0.27076538704625885,
            -0.20544962492666036,
            0.05639527270281107,
            0.30937275176705986,
            0.18992644973177233,
            0.17648484222803557,
            0.39901690859901506
        ],
        [
            0.0036658295768560666,
            0.3898227686571875,
            -0.39223819381399816,
            0.2919218097422118,
            0.1328923070402117,
            -0.11455507841074432,
            0.16135443824662923,
            0.005856527298997503,
            0.4290158158588424,
            0.11036790071848677
        ],
        [
            -0.20937307655899218,
            0.2997822267523879,
            -0.044553627164121666,
            0.33911494622014415,
            -0.2569295347298249,
            -0.27106065699879134,
            -0.1675474156259544,
            -0.27259750023070034,
            0.036540807424232206,
            0.0417588573251074
        ],
        [
            -0.46187142928567393,
            0.038959260550235124,
            -0.026152166277880966,
            0.02842667354572937,
            0.05927411550426212,
            -0.24284688586050598,
            0.4578633572137586,
            -0.18797516448466647,
            -0.39057787599704763,
            -0.25370233106938717
        ],
        [
            -0.49780987855298664,
            -0.09964694492274577,
            0.16080874469251596,
            0.054120237562890965,
            0.5092983782813986,
            -0.036925255506973134,
            -0.20898657609788515,
            0.12379220946194254,
            0.23384797480782496,
            -0.27865740982818826
        ],
        [
            0.4763990522741455,
            -0.03848332720513054,
            -0.03040058475667755,
            -0.18535397566676334,
            0.18815984870141939,
            0.4884691926128751,
            0.17391219972600785,
            0.15664540794051962,
            0.43064435577359017,
            -0.30330867175721254
        ],
        [
            0.4437449864586279,
            -0.426771044078875,
            0.017095320059273146,
            -0.24566865038596863,
            -0.07464808447286728,
            0.1961114621851182,
            -0.45185392935789886,
            -0.21600414160899561,
            -0.4394636797382706,
            -0.49507022635261694
        ],
        [
            -0.23539114025511038,
            0.3865288805478219,
            0.21228914933830004,
            0.3760947527965057,
            0.09347323203448493,
            -0.37597178309429824,
            0.38746229861028875,
            0.1504335914858221,
            0.045040061078827985,
            -0.40069056981421197
        ],
        [
            -0.040806103786612466,
            0.013896145528603694,
            -0.23994177758752266,
            0.24888849628116086,
            0.4910641597009464,
            -0.32942931400571696,
            -0.3303713540825043,
            -0.39320884116441884,
            0.04275273191302227,
            -0.30954342115967404
        ],
        [
            -0.09044734922668936,
            0.08394329017406722,
            0.016726460827754065,
            0.3911270616698981,
            0.36770991793316543,
            -0.005116635265673459,
            0.27068080611957107,
            -0.21876685382934377,
            0.4667630012917785,
            -0.03621104506309661
        ],
        [
            0.34896892400749985,
            0.33499784653220965,
            -0.49036753816642553,
            0.30699342255589634,
            0.017439298771602604,
            0.10409745447405633,
            0.061880786073703765,
            0.1967340760535928,
            0.3994867153949055,
            0.028299592113904367
        ],
        [
            0.44477328328336024,
            -0.406317103453811,
            -0.1653038800226601,
            -0.2008938721310948,
            -0.17108045900162433,
            -0.2634304148882452,
            0.15767560239747905,
            0.3425584761882496,
            0.42327500180717126,
            0.26245816141227674
        ],
        [
            -0.2807445491857406,
            0.1435773301944886,
            0.16152964552133964,
            -0.3964518043858915,
            -0.08962376326238333,
            0.44881718075991667,
            -0.18109409689873784,
            -0.05589942061321145,
            -0.07790118563151385,
            -0.30654441584171827
        ],
        [
            0.14211097451848387,
            0.22342201255823385,
            0.3852185397701653,
            0.017296045518772982,
            -0.005043767349681577,
            0.4789713068665118,
            0.08716841803343932,
            0.4285905394148304,
            0.5061779840798966,
            0.10268604916042534
        ],
        [
            -0.4067241852930738,
            0.3405403910952495,
            0.11033235192703224,
            0.1520266379316265,
            0.020351489725671457,
            0.019058561637193695,
            -0.06068201022618846,
            -0.4946006561090553,
            0.20253608908168766,
            -0.21194868314369733
        ],
        [
            -0.3808754915339021,
            -0.15829913942022078,
            0.39783476400017337,
            0.34471833699964144,
            -0.0005050702672728135,
            0.24699943449156275,
            0.23227941896124427,
            0.26780857379985806,
            0.2892086783620796,
            -0.49026085153241117
        ],
        [
            0.18333121051281373,
            -0.08204266885370323,
            -0.014821717318298634,
            -0.24799736109928383,
            0.3977480293484246,
            -0.20512739155207377,
            -0.4297339754864993,
            -0.3085934786484372,
            -0.45573178584433416,
            -0.33634535728890924
        ],
        [
            -0.49510037245690686,
            0.0034330834852826443,
            0.3644824208147953,
            0.3385568718401628,
            -0.42159137750671705,
            0.09704891416936563,
            0.12212963904003388,
            -0.3150730026948232,
            -0.44859189522308135,
            -0.1461534413753846
        ],
        [
            -0.2601666064001918,
            -0.4550294255444711,
            0.018754994618492556,
            0.4888958511975135,
            -0.06414441886100539,
            0.149861021087647,
            -0.06915878209561156,
            0.32337158552579215,
            -0.4535897212543907,
            -0.1653445503767284
        ],
        [
            -0.17489982763106957,
            0.43771134322321664,
            0.20107730313808808,
            0.4438883777482612,
            0.3167283036585971,
            0.017403566681018254,
            0.05740446525012,
            0.48045364760810444,
            0.2938353652899478,
            0.44837521294218496
        ],
        [
            -0.12235870088373338,
            0.21360205750895192,
            0.2303674015543169,
            -0.18838748479252185,
            0.2597800664493032,
            -0.19425746371072194,
            -0.42514909526401956,
            0.07114702508371139,
            -0.2876752006605099,
            -0.22933330376727762
        ],
        [
            -0.25607369325145146,
            0.42503380643648253,
            0.2372530733025185,
            -0.34736639007018993,
            -0.20940081333425062,
            0.1290214111602224,
            -0.3668780526949143,
            0.4851401194083546,
            -0.32311703799741226,
            0.35572550921204
        ],
        [
            0.2847123508689126,
            -0.2674237586183503,
            0.07345034493805201,
            0.22178128494640595,
            -0.2216744170409436,
            0.2917726449730445,
            0.14725906749609438,
            -0.19325196560572386,
            0.5046816665680901,
            0.3473103279059789
        ],
        [
            0.34208956141502533,
            0.1011310922648345,
            0.4337372034963812,
            0.4805915760980241,
            -0.23852883444413867,
            -0.2795503381102428,
            -0.2312324751029064,
            0.09464922688493198,
            -0.4524954461587753,
            0.4280678008689197
        ],
        [
            -0.2752829381300006,
            0.34729740073049886,
            -0.30017909397571724,
            0.10628452572138038,
            0.31362062179186484,
            -0.31767043099034104,
            0.2913933093361023,
            -0.49177852195705835,
            -0.24240638533331269,
            0.2361995035149425
        ],
        [
            -0.42894721370396494,
            0.21459605557457,
            0.23413540029863472,
            0.038377599202993336,
            0.08602453869288054,
            0.13818930811352098,
            0.15535797809421084,
            -0.4460936501560778,
            -0.29153911902333407,
            0.1167508251195981
        ],
        [
            -0.2632185596681216,
            0.2687200384680512,
            -0.5033861936390229,
            -0.2566223731532568,
            0.21112877668153973,
            -0.10035646870573166,
            -0.13812347130529437,
            0.24747006614035788,
            -0.14951926304097393,
            0.014378185703124949
        ],
        [
            0.0469851353630035,
            0.37144691739019736,
            -0.04780349864468786,
            0.4799499512558033,
            0.5047202228601716,
            0.06944431365650812,
            -0.4750155660060643,
            -0.22403162800953397,
            -0.3991539910321686,
            0.0783524525947849
        ],
        [
            -0.06413511422107872,
            0.39098983327961784,
            0.05736625014391534,
            0.01339552121530533,
            0.3334491695859849,
            0.36285202103997016,
            0.1009973302901362,
            0.28453401792846905,
            -0.4513426668821769,
            0.277235683179184
        ],
        [
            -0.1594282775122843,
            0.2971121701436326,
            0.11538693319241626,
            -0.39006292149848804,
            -0.06205975266836042,
            0.25449296908204716,
            -0.35281251975837336,
            -0.025274251435727847,
            -0.47560381815845165,
            0.11345556931434371
        ],
        [
            0.3272728252999624,
            -0.019759573948832414,
            0.2460446231557623,
            -0.15345620407427038,
            -0.16569122401375075,
            0.26855362679534595,
            -0.06516913271948988,
            -0.1953966346275583,
            -0.0966553271607419,
            -0.465453796155641
        ],
        [
            -0.09089819757524702,
            0.14594275624703443,
            -0.34009002042785236,
            -0.07255226459072775,
            0.47565106777284355,
            0.1517140318645469,
            0.4633692072092085,
            -0.11472291919742722,
            0.0794939500698824,
            0.4657898882650081
        ],
        [
            -0.4679618624836509,
            -0.38548848998867075,
            -0.5038652955331915,
            -0.06282131988584545,
            0.14543501827459912,
            0.27152379181878405,
            0.043944358602515124,
            0.3307184824007975,
            0.1484362973463667,
            0.17046057644155424
        ],
        [
            0.34927417215384665,
            0.39358620828452834,
            0.3779542004485784,
            -0.10434597501463898,
            -0.2970734059546095,
            -0.4150000757599278,
            0.2585093955279433,
            -0.12084806121818113,
            -0.016992915944778274,
            0.012820949025001324
        ],
        [
            0.33975449857231105,
            0.1585156561318123,
            0.01613500464465017,
            -0.24172150851559812,
            0.058953173948450406,
            -0.1389519888719708,
            -0.13427016983733583,
            0.3422432977009775,
            -0.0312114587649229,
            0.24881176931781082
        ],
        [
            0.09883059984528303,
            0.33811104084537247,
            -0.45964656514243607,
            -0.29158669580824165,
            0.5197794709527017,
            -0.08639443032444245,
            0.2827451534290842,
            -0.2795454983193076,
            -0.09851442991330163,
            0.3816626014827389
        ],
        [
            0.48753161288091623,
            0.05158461273303312,
            0.04556757049495981,
            0.40566773442474924,
            0.32395433362665266,
            0.20158001784917978,
            0.18429715093502483,
            0.1310394160343101,
            0.07258730087782073,
            0.4454641989511342
        ],
        [
            0.2655283779126104,
            -0.2555501721265344,
            0.08557068016548658,
            0.34288348375950645,
            0.11005347816567948,
            -0.25160571339359,
            -0.27488010244650923,
            0.26881490847621436,
            0.4728560459159519,
            -0.4805680588166375
        ],
        [
            0.07075579300388186,
            -0.3099400226322346,
            -0.16219371840805527,
            0.30156845464478954,
            -0.35441364642189443,
            -0.2620993092636808,
            0.4665711150893813,
            0.4140650390957102,
            0.4382044559128105,
            -0.1088320254291838
        ],
        [
            -0.27214405332538993,
            -0.33684782946616376,
            0.29482812936991554,
            0.17519713962737982,
            0.21015780386890912,
            -0.24720739176537446,
            0.449418171426513,
            -0.09921002965084176,
            0.15132644273333085,
            -0.2490858629312133
        ],
        [
            -0.5001156149119204,
            0.19042224675262115,
            -0.5055247194277493,
            0.2936912409378994,
            -0.4731507879993946,
            0.31800950546418055,
            -0.4033056311753261,
            -0.23940025450949182,
            0.18973087541807818,
            0.20018063144732884
        ],
        [
            0.172242845957441,
            -0.045496322664648696,
            0.3356026110536179,
            -0.05608213342952723,
            0.36302514950159587,
            -0.45697258545343805,
            0.39084067466487443,
            -0.05830857957789793,
            0.07610410589232953,
            -0.1493988062638514
        ],
        [
            0.404592138930355,
            0.30712533652372415,
            0.33231430189184064,
            0.17738071351882057,
            -0.17139489168094876,
            0.1372653015288225,
            0.1661460309583358,
            0.34429314312689147,
            0.47388354773216346,
            0.47117773266036717
        ],
        [
            0.21209124988073205,
            -0.4516791836536566,
            -0.3860736207228369,
            0.33823904113902414,
            0.26694280215458416,
            0.24255669727223325,
            0.030517242636780167,
            -0.1305814641415704,
            -0.4372827437665424,
            0.16762616143353165
        ],
        [
            0.3855467080045456,
            -0.2081527986434234,
            -0.062375651829518076,
            0.17107020396308656,
            0.4602098308126958,
            0.281945567330183,
            -0.01981797308926563,
            0.04898054137014488,
            0.245339359232364,
            -0.4585449985891808
        ],
        [
            -0.2475366165929143,
            -0.030032282700831914,
            0.3219311072663841,
            -0.0058271036675887015,
            -0.09581618195581522,
            -0.2857781799190381,
            -0.15270306982480292,
            -0.4191347595194661,
            0.3999469720372954,
            0.32951332507921965
        ],
        [
            0.03014540674232253,
            -0.029000722315022327,
            -0.44461605395142606,
            0.37915830239803905,
            0.11148390362219049,
            0.1491092232565029,
            -0.06836763013636815,
            0.4713378587850168,
            0.37179690392136977,
            0.27349453461024553
        ],
        [
            0.2604836631428253,
            0.16858549377421625,
            0.07118407956244857,
            0.18317892404170982,
            -0.3841565418581142,
            -0.022493595803504247,
            0.1502978548668409,
            -0.47662219314455856,
            -0.36100540377804025,
            -0.44520695379481323
        ],
        [
            0.0965184353098937,
            -0.17090114690515448,
            -0.039111440919605604,
            -0.2260479116202778,
            0.44857235485664587,
            -0.4870586921817149,
            -0.10205022574054852,
            -0.14262464910659184,
            -0.004903546452712691,
            0.15359801198832457
        ],
        [
            0.08326035151572915,
            0.17220281881628635,
            0.06117589574203507,
            -0.03236323567778399,
            -0.2511669875204377,
            -0.11576942356808914,
            0.20843374408531923,
            -0.07249802246776409,
            -0.03179978867870576,
            0.11214907280299073
        ],
        [
            0.2646884783110468,
            0.37191052104464517,
            -0.4979685410677284,
            -0.275792676675886,
            -0.3621019173754601,
            -0.4523409827383121,
            -0.17645250782851454,
            0.4777536248746743,
            0.48894118269912773,
            -0.00943826507465176
        ],
        [
            0.48800524362399955,
            -0.3941138536802612,
            -0.3576344531911012,
            0.11163178743338306,
            0.055594767580532486,
            -0.45269814847781814,
            0.07204689854842174,
            -0.031688634174836035,
            0.38532184168287686,
            -0.050023401942631766
        ],
        [
            0.36799966289213615,
            -0.4452705908456874,
            0.43412164804587355,
            -0.3961566241893981,
            -0.35198724469116227,
            -0.43854258868861457,
            -0.36183012995944935,
            -0.5033363940023238,
            -0.01721663733782712,
            -0.01196558784260774
        ],
        [
            -0.43662099880205446,
            -0.3980791195541572,
            -0.28342587225292076,
            -0.47780885764727016,
            0.4889005009094378,
            -0.42344851451288085,
            0.002191876428913069,
            0.10369448093773323,
            0.2893564354723496,
            0.033352899024883316
        ],
        [
            -0.4868064528030171,
            -0.44079993886495294,
            0.2172666802016053,
            -0.4849321778325365,
            0.21609050246102535,
            -0.27145390200021635,
            0.16907501976921913,
            -0.13308135977512364,
            -0.16682735666551246,
            -0.024255223257856506
        ],
        [
            -0.34778339322281643,
            0.1340213806610601,
            -0.14498819443380148,
            -0.49275566778835517,
            -0.4408519004423479,
            -0.3614860120811427,
            -0.0941238753880631,
            0.39057395695053704,
            -0.3323612289035188,
            0.41594984301363175
        ],
        [
            -0.0139867623463083,
            -0.3074502330505277,
            -0.059509253644400344,
            -0.35039965217982466,
            -0.12281233392186687,
            -0.3850643163566365,
            -0.29595301836095234,
            0.2580808313174019,
            -0.06725566557554616,
            0.08068534940467056
        ],
        [
            0.46369278961313004,
            0.30705778604812134,
            -0.4456572147386668,
            -0.3718407178723403,
            -0.09581470449532371,
            0.37815700152623827,
            -0.3093240617905827,
            0.05379741106776278,
            -0.46964676986323445,
            -0.42074839489567983
        ],
        [
            0.35494259062945965,
            -0.3023600442559701,
            -0.4787951154879536,
            0.3264492318083897,
            -0.022245364349895477,
            -0.23513267034754243,
            0.3625660806182153,
            -0.42811230101684206,
            0.288444270511873,
            -0.3802101897375189
        ],
        [
            -0.47907400249525484,
            -0.36913202352836244,
            -0.4539840895155898,
            0.42873198722273625,
            0.2109132230153075,
            0.24617141878787835,
            -0.060645086680242315,
            0.07448044316243717,
            0.21872847557500882,
            0.07375710772477874
        ],
        [
            -0.3171464778373862,
            -0.24671910135268177,
            -0.17430122546401083,
            0.23498977645628835,
            0.07604431580321004,
            0.12647052264300784,
            -0.07354363443982752,
            0.07518139316867306,
            -0.23048030256354118,
            0.4924069008157612
        ],
        [
            0.10620216315858622,
            -0.1846522917513222,
            -0.47333641276067706,
            -0.1767084063416598,
            0.19867002357180172,
            0.2242011509486842,
            -0.18542137730510747,
            0.11457039567924876,
            -0.18207255424402174,
            -0.015102304604467253
        ],
        [
            0.243038245067072,
            -0.05748867769462303,
            0.3907740914285067,
            -0.08769197346625457,
            -0.3711502630937272,
            -0.38540416771406666,
            0.29355899527710866,
            -0.33796109899500226,
            0.4202910808582502,
            -0.1419471557559549
        ],
        [
            0.35556538993580944,
            0.1113424175852762,
            0.26896910665120244,
            0.4241734733073072,
            -0.25521611080891626,
            0.03276181496846781,
            -0.4035930433678172,
            -0.4818306812100467,
            0.23397973904155656,
            0.2651901769134663
        ],
        [
            -0.3443572633874425,
            0.47622567598743565,
            -0.12318830400393774,
            -0.008756871518966322,
            0.3834835056641482,
            -0.4297306116565947,
            0.20267701035965766,
            0.3060432817346907,
            0.2595209077159306,
            0.37671240141554385
        ],
        [
            -0.34130458406914815,
            -0.26830971147351074,
            0.4782160139633874,
            -0.4105686510866887,
            -0.13065796720522774,
            -0.19161677182086762,
            -0.23663323133764136,
            -0.3009612102143964,
            0.16457440673210794,
            0.45709884276434043
        ],
        [
            -0.15751636273560887,
            0.4463706867010181,
            -0.0667135682826379,
            0.24360091961095087,
            0.359111648916953,
            0.42327157861841974,
            0.39457544743657386,
            0.20224332049387272,
            -0.04666903652087064,
            -0.20318502368803723
        ],
        [
            0.026119930808370835,
            0.387593360438782,
            0.31051328392119454,
            0.47356503353694407,
            -0.2800014370632689,
            -0.20097168504086285,
            0.018004290954165347,
            -0.3092363264886379,
            -0.39237559061812277,
            -0.16237047431967971
        ],
        [
            -0.28765606116318054,
            0.39607267126743556,
            -0.38237106433785134,
            -0.044271645365874954,
            -0.1504131296928294,
            0.31710398174474724,
            -0.1415414728662689,
            -0.349992619825621,
            0.2855783970762598,
            0.16973575667998217
        ],
        [
            -0.4323941308502374,
            0.4611457025579854,
            -0.020587522831503745,
            -0.14074823619505952,
            0.18631067816457947,
            0.11889130278262844,
            0.16875159576912316,
            0.12067457953962547,
            0.016345034837789194,
            -0.4777428322676303
        ],
        [
            -0.016454094055399004,
            0.4859820716301334,
            0.012487221329559683,
            -0.3335894590693521,
            0.3470214205782817,
            -0.02163687516182876,
            0.32048840574417614,
            0.2166445470938879,
            -0.16296663137505432,
            0.46951559136914367
        ],
        [
            -0.2478536457554019,
            -0.143484136872921,
            0.327929261884561,
            0.055575009778250084,
            0.33483455079545343,
            0.07434865682017754,
            0.26954720258482323,
            0.41832092777533747,
            -0.182045803642409,
            -0.4477171381174961
        ],
        [
            0.03999883615886309,
            -0.46619741928242286,
            0.2403859217359384,
            -0.20652123432446834,
            -0.23514026194539753,
            -0.3584327670590533,
            -0.3616768432462405,
            0.1747850679355807,
            -0.26244192839689817,
            -0.09210717199517773
        ],
        [
            -0.39879254789953406,
            0.055205042804371884,
            -0.21287328679171044,
            -0.3578814867723688,
            0.30667434666095456,
            0.10169837609967255,
            -0.0742805693049437,
            -0.47552713404350344,
            0.4238584079904911,
            -0.5002960711211226
        ],
        [
            0.2454266879838939,
            -0.28242505112338206,
            0.474631139684403,
            0.18888526816588358,
            -0.08238526293298838,
            0.26302727192421954,
            0.2457738753571816,
            -0.20458563699125903,
            -0.034507083330814294,
            -0.28643793415510665
        ],
        [
            0.4619676854736475,
            0.4068588289664171,
            -0.3716847739141884,
            0.3379616782339137,
            -0.16552731540601776,
            -0.1513205565091649,
            0.17295451255001265,
            -0.12240263767990847,
            0.3881457516221974,
            -0.3779605532598983
        ],
        [
            -0.4009420531033385,
            0.21301652551914016,
            0.15347858475136708,
            0.14487749849808101,
            -0.3853607312219078,
            -0.15024811720701667,
            0.3167618155576186,
            0.48122687950269455,
            0.03222422227017027,
            -0.331091941027059
        ],
        [
            -0.46730069233454563,
            0.18723551331766253,
            -0.08472027905260662,
            -0.2191399548393663,
            0.023748353778166247,
            0.43553682912808706,
            -0.16510279634581537,
            -0.03277520541415736,
            -0.13815449140678937,
            0.0972148949733358
        ],
        [
            0.1628534346420192,
            -0.4446644313225629,
            0.01927207348199897,
            -0.11006960548683878,
            0.30532731745270436,
            0.15505966569964355,
            -0.20761667010981094,
            0.31013899500006076,
            0.5051275100361756,
            0.17531394524045932
        ],
        [
            -0.21716096198007004,
            0.4562725457723379,
            0.05599329139296362,
            0.4944859434747782,
            -0.42282848356189817,
            0.4139529616861752,
            -0.23619941811135267,
            0.232225753868497,
            0.02021059891066973,
            0.36927532430167775
        ],
        [
            0.14430961961984876,
            0.0015974504323630126,
            0.1569362987179145,
            0.09912278606185104,
            -0.33166707124054584,
            -0.46629721553813397,
            -0.062161001746929546,
            -0.011557123832827728,
            0.2592987507591241,
            0.13707072051640476
        ],
        [
            0.4356593881170871,
            0.2470961522270672,
            0.35503031349264597,
            -0.1714957042351356,
            0.11615818603454664,
            0.45517787947362515,
            -0.12605663162325784,
            -0.40359289144874644,
            -0.3697486514743096,
            0.13559186782114727
        ],
        [
            0.05977798528316419,
            -0.3244091968641657,
            -0.3161489089276723,
            0.45582803041968006,
            0.05115188127583306,
            0.24095240717991137,
            -0.42076762854243493,
            -0.23240182947119728,
            -0.14785801830714995,
            0.4382288544151778
        ],
        [
            -0.34467188708698143,
            0.11177190867382737,
            -0.4882649234262032,
            0.14677079427677453,
            -0.29331295406482577,
            0.3350479506224815,
            0.3725724926825815,
            0.3863071222870573,
            0.3302924108215979,
            0.011998360705520815
        ],
        [
            -0.13061353311343737,
            -0.2213220664015821,
            0.2418326285190631,
            -0.20843261934288185,
            0.18060118913330228,
            -0.05367174659765133,
            -0.32213655774522276,
            0.34421328818870184,
            -0.04584567206648234,
            0.2965537004573878
        ],
        [
            -0.3872562604571363,
            -0.4338085395150796,
            0.3981053569597688,
            0.05338712063024201,
            0.34557252920472925,
            0.17600128292083855,
            0.09143649078300288,
            -0.02648975333661591,
            -0.07465535724124651,
            0.3960781815551686
        ],
        [
            -0.4971734401433208,
            -0.3552107515678794,
            -0.04069011102910648,
            -0.16131044789696772,
            0.020486656699492296,
            -0.24288680452624015,
            0.3996148576513569,
            0.2761960348020695,
            0.21204106417958657,
            0.27793028318366214
        ],
        [
            -0.4310557027112226,
            0.45288186526395635,
            0.10515791068979836,
            -0.07059596438156603,
            0.44375377333992055,
            -0.44300052738080514,
            0.3327603404374525,
            -0.14375650541283205,
            0.19678822709374247,
            -0.4254349687595519
        ],
        [
            -0.32633611006466423,
            -0.07528401864176348,
            0.020935864857364116,
            0.1255452548658598,
            0.2246503806311809,
            -0.4877337769301879,
            0.33383550564789627,
            -0.043663007964878896,
            0.4841889907319759,
            0.2465751949319821
        ],
        [
            0.14576862759908238,
            -0.23634214616060095,
            -0.40522952352126507,
            -0.43209723125337857,
            0.06871755114684117,
            0.457595610980248,
            0.12601709391222354,
            -0.4844433728352912,
            -0.4919492673503025,
            -0.4082428934734755
        ],
        [
            0.3876188681017021,
            -0.3250448142350697,
            -0.47396907675284805,
            0.043531912495983274,
            0.04901661143474668,
            -0.344218119433498,
            0.020034771639140286,
            -0.34945009900719415,
            -0.18656927721613087,
            0.03983358260514234
        ],
        [
            0.42804561806078373,
            -0.056069112219325,
            -0.08490975362248261,
            0.18304957903574365,
            0.023009696807425987,
            -0.38344692436874234,
            0.3123407657197818,
            -0.2153527067400824,
            -0.2308266893015633,
            -0.07815305316345457
        ],
        [
            0.06034790079517211,
            -0.3606052454675756,
            -0.2280059234868941,
            -0.37836083592314285,
            0.15514186825822748,
            0.4479356979000029,
            0.4366953939466168,
            -0.3399119651168202,
            0.0800566905001483,
            0.14245737276537015
        ],
        [
            0.06960277450115093,
            0.2194687642114337,
            0.34181228408571834,
            -0.4183374671926237,
            0.47191455290083656,
            0.29286014078938416,
            0.3518905669664557,
            0.055978671652567404,
            -0.0013249787372452736,
            0.4669075803358707
        ],
        [
            -0.35903555204727133,
            -0.49971363362389215,
            -0.37686271143002364,
            0.03623095544438367,
            0.20858212905665782,
            -0.19818433629111556,
            -0.3914755117739483,
            0.12382488343107795,
            -0.27365452429025455,
            0.14455826096492247
        ],
        [
            0.03886589951788256,
            -0.03202577511346534,
            0.391499036737411,
            -0.23027608853050738,
            0.2364455003437957,
            -0.0007892512631453246,
            0.2712330266167799,
            0.06134289868014668,
            0.06391038545102704,
            -0.07994956535811629
        ],
        [
            -0.3463533041423583,
            0.3817010939126015,
            0.12544517995524135,
            0.38885556076144484,
            -0.3263198072798036,
            -0.47146038623890946,
            -0.009666337300597176,
            0.4934813885544217,
            0.4607367681534369,
            0.26406203421408675
        ],
        [
            0.17696541220068518,
            -0.32751889482699514,
            0.08358309140394066,
            -0.21823931571857397,
            0.4351081644335153,
            0.2128968091241749,
            -0.3521690443248442,
            -0.4576392459767339,
            -0.18852892252210474,
            0.018620843561450162
        ],
        [
            -0.44244687917021597,
            0.3837418912808614,
            0.029711415988084366,
            -0.219205185689051,
            -0.2958822040401119,
            0.28176947593131707,
            -0.21702963097133274,
            0.2068849073904346,
            0.33344842383234113,
            -0.2842906954284472
        ],
        [
            0.22147280754785664,
            0.487077271817175,
            0.37057637548362443,
            0.013750432728431477,
            -0.3872407584011736,
            -0.3946827545055516,
            0.0430914927853424,
            -0.4205479587036438,
            0.21435225098105937,
            -0.2782415766958452
        ],
        [
            0.34370485821749563,
            0.4367981201889209,
            0.35367793188951974,
            0.2226083530330159,
            -0.4456248986538433,
            -0.04556172723680519,
            -0.1660999021887441,
            -0.3845556390270273,
            0.12407744300595039,
            0.20498071539558516
        ],
        [
            0.4402903978825709,
            -0.05764145686519196,
            0.1449983764095049,
            -0.1648531040802336,
            0.023920243792165865,
            -0.17590331338474735,
            -0.20925576085155392,
            -0.15082218588402077,
            -0.2979951093889017,
            -0.15551320738570396
        ],
        [
            -0.24541283154539228,
            0.24411908312710562,
            -0.3205371389985447,
            0.39824314778912917,
            0.3965350731835853,
            -0.151775993888097,
            0.2874768664179308,
            -0.3452486444933363,
            0.4065929149369166,
            0.33346299763025267
        ],
        [
            -0.44848189293041607,
            -0.17176505907765058,
            -0.2814368347586432,
            -0.2301368122183449,
            0.21860848963990293,
            0.34975201468139644,
            -0.45850495651544854,
            -0.38192243812837506,
            0.330622302003534,
            0.17566995647451678
        ],
        [
            0.05692595231142447,
            -0.39184268381204834,
            0.29952136021883136,
            -0.1719189854898089,
            -0.03132216212211802,
            0.358940012403441,
            -0.37042202275897423,
            0.33857961190444463,
            0.23266179345751783,
            0.18980666824734613
        ],
        [
            0.06432681503669864,
            -0.22210673157671135,
            0.19099622192508098,
            0.018598643323353536,
            -0.40091448231441873,
            0.46910676357974934,
            0.47686733988911734,
            -0.27978647607025064,
            -0.05699584569816176,
            -0.3842216261372839
        ],
        [
            -0.24695839411030351,
            -0.08966695017857468,
            -0.09835382140748139,
            0.4516996454373704,
            -0.055462943948651325,
            0.4870373906184094,
            0.2939746892587427,
            -0.43607212896340675,
            -0.18508172667605305,
            -0.08545604833374361
        ],
        [
            -0.2803116706166291,
            -0.4076717138648272,
            -0.3944405994703583,
            -0.3870646856999493,
            0.0830771382473118,
            -0.1138163316744795,
            -0.406768170164387,
            0.33970938223897995,
            -0.015509986632039669,
            0.3621074933843261
        ],
        [
            0.15044767787423063,
            0.03321316456725227,
            -0.07057029939261175,
            0.16764530168911052,
            0.44114173413786273,
            -0.06128519923405697,
            0.47758332969578215,
            0.29002701027740546,
            0.1313617276266529,
            -0.4846752535545834
        ],
        [
            0.16239653226347886,
            -0.17083670097638173,
            0.3057653633202179,
            -0.027498263087576916,
            -0.4433687481347271,
            0.010388705458233925,
            -0.034643624024277384,
            -0.16431876827338515,
            0.12401931808222494,
            -0.3255283053333498
        ],
        [
            0.18782378996867838,
            -0.49898493959324736,
            0.2831352567184185,
            0.3579751493081993,
            -0.4304630562111847,
            0.10765946571599438,
            0.3279030356308601,
            -0.4006706707630089,
            -0.14792886800047786,
            -0.28444900457551686
        ],
        [
            -0.4760813484032277,
            -0.3090752973052784,
            0.39510732174427715,
            0.15579513745063525,
            0.24719802033946803,
            0.4511298861785501,
            0.39473807482089834,
            0.4271348617273267,
            0.32944335939975555,
            0.2528571026137015
        ],
        [
            0.4306408015945722,
            0.12466599012901877,
            -0.4898910031708446,
            -0.06723028319923845,
            0.4308502003641181,
            -0.29173961974357365,
            0.1532961667177477,
            -0.3062783271113412,
            0.4935157843638753,
            0.1175910418569023
        ],
        [
            0.055260097174088474,
            -0.2547701595246561,
            -0.2981514262750259,
            -0.42093097374771526,
            -0.30843478849600026,
            -0.25862338035761295,
            0.34822749339451325,
            0.0014459145129005263,
            -0.4201549298204083,
            -0.24361748945615136
        ],
        [
            -0.36496755092170735,
            -0.0729614882203437,
            0.15597471735473356,
            -0.07963733619195311,
            0.45934745735533244,
            0.3599651949418461,
            -0.18195502521137843,
            0.33451121736757095,
            0.2010435726907982,
            0.46214721293852
        ],
        [
            0.4776083931893997,
            -0.4957440338592245,
            0.1677880134855488,
            0.48887729590325907,
            0.4425812988282324,
            -0.15992957468602573,
            -0.4055653727823257,
            -0.17197668189049525,
            -0.16735842609679702,
            0.49726946824015317
        ],
        [
            -0.20294056022686535,
            -0.36324873077256903,
            0.40703166959921616,
            0.1418388503876066,
            -0.4595869862072206,
            -0.12261950394212806,
            -0.029072500476077925,
            -0.21820107093933783,
            0.08945921585087777,
            0.26281275703773027
        ],
        [
            0.19828819915744103,
            0.39710369015394503,
            0.05195319955349245,
            -0.033240820624976464,
            0.1824807041309635,
            0.4227784635388855,
            0.44425453437620477,
            0.4664087576789289,
            0.4379360086448042,
            -0.16114715263976137
        ],
        [
            0.07481159638506196,
            -0.47796845527993864,
            -0.2887870074435432,
            -0.008756780783002337,
            -0.21944734299750296,
            -0.42396025357039285,
            0.27285336873651217,
            -0.266204834800082,
            -0.48977753078193026,
            -0.3979884127970135
        ],
        [
            0.05316627792618497,
            0.16780023690230775,
            -0.13506520205053096,
            -0.2515644715745864,
            0.3900977014766881,
            -0.49421114969107316,
            -0.0005862203163204682,
            -0.35912349642287344,
            -0.3618130777275437,
            0.3310866183590507
        ],
        [
            -0.4846445073461725,
            -0.14214877259103337,
            -0.4919360536339124,
            -0.13584166588557878,
            0.3523113928184474,
            0.3529187032454028,
            0.2712666161074905,
            0.3337696855456694,
            0.1866923073405416,
            0.36329162975127555
        ],
        [
            -0.26670793851148694,
            0.22562912454804915,
            0.44236737523548986,
            -0.36024283687016273,
            0.21338899588638172,
            0.437889780122929,
            0.318975407639925,
            0.3682487406523343,
            0.3008064527485599,
            0.11258292957194456
        ],
        [
            -0.03150370843441888,
            -0.2044126627257953,
            -0.2637862207894292,
            0.25578108114940046,
            0.3267258518421217,
            -0.16597696216360178,
            0.0819781170940724,
            -0.256901733967101,
            -0.3949895971345541,
            -0.31455712653516354
        ],
        [
            -0.45706540308569404,
            -0.01653639286473486,
            0.054467125413896124,
            -0.19269232015065108,
            -0.2738423687957427,
            -0.22482218866097298,
            -0.09276799981624136,
            0.11790628684551371,
            -0.43588130101567396,
            -0.38760645749753503
        ],
        [
            0.10875688496336582,
            -0.07404763157870828,
            0.27920032187282984,
            0.06616823109295314,
            -0.12489879123876674,
            0.37162412964895036,
            -0.4643058102701561,
            0.3314622894560576,
            -0.43767459289655347,
            -0.08017632951471108
        ],
        [
            -0.338922962522458,
            -0.28669087612189453,
            -0.03704632017820135,
            -0.2695474347400509,
            0.19774586216754506,
            0.08576621616377866,
            0.4297394083811998,
            0.2908356578073216,
            -0.46496250908930087,
            0.08086679795705319
        ],
        [
            -0.032705143487134984,
            0.31117129067650734,
            -0.016901490984208734,
            0.14190561177927888,
            -0.217318338846023,
            0.15644524697716955,
            -0.0592414088309258,
            0.01218752820632526,
            0.3107008576114937,
            -0.13189602343397236
        ],
        [
            -0.45387293343939866,
            -0.04807137343810557,
            0.3307350820420462,
            0.09065740509257278,
            -0.4453693261094221,
            0.20330450807552122,
            0.06391369025043205,
            -0.20869612315951705,
            -0.29521070374238884,
            -0.01824066525859192
        ],
        [
            -0.12183662875673404,
            0.2696016227318034,
            0.43833842002813345,
            -0.41559969066275765,
            -0.3662459980972712,
            0.2532396196020966,
            0.1240914661656357,
            -0.2544105272377996,
            0.14909595290888772,
            -0.41246576233323834
        ],
        [
            -0.3529053243097535,
            -0.01722747736564765,
            -0.09622568017574358,
            0.3804333159647035,
            -0.3416162316827386,
            -0.017596520999802343,
            0.39355668673640615,
            -0.033698960507214326,
            0.21116685071475655,
            -0.21989852218202283
        ],
        [
            0.24670911362866854,
            -0.30765479944138624,
            0.14655909767684966,
            -0.14279594339444115,
            -0.3726057892729068,
            -0.1844074468915275,
            -0.09851257782581271,
            -0.2500444906822166,
            -0.07508176159595013,
            -0.46047959372715197
        ],
        [
            0.08432019666611391,
            0.4350146965952071,
            0.332277177926982,
            -0.48188308727326706,
            -0.38203615006898844,
            0.04441729860989665,
