{
    "ApplyHiddenSize": 50,
    "ApplyLearningRate": 0.03,
    "ApplyOutputSize": 2,
    "HiddenBiases": [
        -0.2703914189032774,
        0.48234025911566114,
        0.32655173259753334,
        -0.3583694904975305,
        -0.34130944066425245,
        -0.2908463405040274,
        -0.439725898003785,
        -0.3231486525788134,
        -0.1224911302992783,
        0.4206045512157571,
        -0.31317683916658573,
        0.05100621594154235,
        -0.09749227781710451,
        0.02198392835334343,
        -0.29997300479525724,
        -0.2529769041926655,
        0.3834765992221881,
        0.11031901101014455,
        0.37016913991252776,
        0.1306302691023988,
        0.3945341963946257,
        -0.18814357170529433,
        0.21649278794213273,
        -0.3483645426487769,
        0.4835381089277388,
        -0.2662237104465727,
        -0.0012203771188366635,
        -0.437239594054387,
        -0.06445591128739799,
        -0.06786114140817508,
        -0.45383285638482357,
        0.10125055774773774,
        -0.23233893973485573,
        0.567631516810348,
        0.19227990047863922,
        0.07887722919562032,
        -0.35012112886900915,
        0.29924373687934963,
        -0.4261430481454938,
        -0.48818274675862755,
        -0.1833258927524912,
        -0.4458505374801972,
        0.4512066404655362,
        0.389577610115237,
        0.2333511942485439,
        0.11525322087605977,
        -0.3752684065424647,
        0.1922990125417132,
        -0.41741483267787594,
        -0.5227135966668742
    ],
    "HiddenOutputWeights": [
        [
            0.37757797791254905,
            -0.17299283253028472
        ],
        [
            0.32742219172332804,
            -0.09407199479903819
        ],
        [
            -0.4137161120835624,
            0.5778593933461287
        ],
        [
            0.20698109563887265,
            0.2307896434942195
        ],
        [
            -0.30547976454614234,
            0.43760204728785557
        ],
        [
            -0.2979937453820739,
            0.591847260440938
        ],
        [
            -0.05124922906051431,
            -0.22003516467227388
        ],
        [
            -0.4307077941938197,
            -0.18407020064556073
        ],
        [
            -0.4417610279389339,
            0.2356539699887855
        ],
        [
            -0.32818246047982463,
            0.06676781118942353
        ],
        [
            -0.3049450675403821,
            0.24225565401754032
        ],
        [
            0.45892843371552133,
            0.057394306665526064
        ],
        [
            -0.5012111385669847,
            0.3733920849187439
        ],
        [
            -0.25830543102468334,
            0.5215900995432462
        ],
        [
            -0.6539522802197895,
            0.2004561273638667
        ],
        [
            0.43967094338061075,
            0.03712744332983333
        ],
        [
            -0.3728855483114617,
            -0.33592592912580715
        ],
        [
            -0.367667221930268,
            -0.11805690701649621
        ],
        [
            -0.40417632564798134,
            0.35931092297116574
        ],
        [
            0.3679341753150005,
            -0.295807335372918
        ],
        [
            -0.21705081906111273,
            0.03865393643784467
        ],
        [
            -0.4315012743830413,
            0.22499215781762114
        ],
        [
            0.19150227505042114,
            0.22855211177299894
        ],
        [
            -0.47749169014512977,
            -0.3697479667405375
        ],
        [
            0.1447553804120876,
            -0.19378313651551063
        ],
        [
            0.240041323799607,
            -0.5006427246320471
        ],
        [
            0.31789148458187794,
            -0.05575908283020365
        ],
        [
            -0.03741958339415624,
            0.31879284054669654
        ],
        [
            0.41005828801173744,
            -0.11932632511964535
        ],
        [
            0.6497342367058742,
            -0.2685420114733829
        ],
        [
            -0.3056641577077171,
            -0.41501056366904787
        ],
        [
            -0.10610971124909051,
            -0.2800316613315202
        ],
        [
            -0.4488223079052303,
            -0.2723207845000772
        ],
        [
            -0.3788763088614999,
            0.46389470964410046
        ],
        [
            0.02462666229895458,
            -0.33003402888130856
        ],
        [
            -0.3544407090687355,
            0.28905448511583454
        ],
        [
            -0.17352687068762648,
            -0.15007112271319625
        ],
        [
            0.18604371292725352,
            0.416680106432744
        ],
        [
            0.028590780721280153,
            -0.6460639062505273
        ],
        [
            -0.31993638439173966,
            -0.1128322522382956
        ],
        [
            0.30408363406380673,
            0.0865967430991099
        ],
        [
            0.08057610977030549,
            0.20929011405156697
        ],
        [
            -0.36420785194783334,
            0.3617554087386425
        ],
        [
            0.36845984073559995,
            -0.16605114158870538
        ],
        [
            0.24035256991675943,
            -0.25838249575185757
        ],
        [
            -0.39943361723863635,
            0.09721732544482041
        ],
        [
            -0.17466138454108826,
            0.49576190342755033
        ],
        [
            -0.6984544470895339,
            0.32551724573730534
        ],
        [
            -0.00286161889084664,
            0.45001179724450946
        ],
        [
            0.4091679746757288,
            -0.3526779608653162
        ]
    ],
    "InputHiddenWeights": [
        [
            -0.18230243241590202,
            -0.48276457783301663,
            0.49330450970165446,
            0.012497719926599458,
            -0.40608971663123594,
            0.5866237874301098,
            -0.49118499347385686,
            -0.1896768367984723,
            -0.014254882460317147,
            0.13340594076234363,
            -0.19483684879380436,
            -0.03678293401826657,
            -0.47422652415364497,
            -0.17034529403627538,
            -0.01769697685100624,
            -0.09440990935958782,
            0.15385287828128572,
            -0.4504263687358308,
            0.36358234491007624,
            -0.26068078892822855,
            -0.3320636520064809,
            0.2637148404993548,
            -0.01723152662983374,
            -0.4756315517171671,
            0.2974038282237931,
            0.37179466650865123,
            0.3291586767174076,
            0.4486876405883748,
            0.1326831359520199,
            -0.5498486588855693,
            -0.33553651679659663,
            0.37015966491406654,
            0.46609360883164,
            0.3543767229182576,
            0.1426727201211741,
            -0.3725135942069342,
            -0.11352211067015053,
            0.49086916682626197,
            -0.5391435595320834,
            -0.42905903688731084,
            -0.4716860979418662,
            0.09864281508039247,
            -0.04523627608469925,
            0.30671952339685915,
            0.20569457950777403,
            -0.43653742009632274,
            -0.3477776234788228,
            -0.1879797725351507,
            -0.18964634559912646,
            0.02745684054779473
        ],
        [
            -0.18911909340645064,
            0.34031570901224456,
            0.17104846091051412,
            -0.15668693033757644,
            0.5216311476991473,
            0.4204761531938611,
            -0.5292653693930028,
            -0.436677225584719,
            -0.26092616539563723,
            0.05430350065155256,
            -0.16376227991476122,
            0.46735146712571324,
            0.29211398806691297,
            0.4862081032480217,
            -0.26751955478823536,
            -0.3463323630422148,
            0.3729368015235144,
            0.13208344388780718,
            0.021957208177923317,
            0.17367458316186335,
            0.22747287166639768,
            -0.29906695373762643,
            0.21213953957220058,
            -0.45121377086819536,
            0.0697425547785031,
            -0.44140276152256686,
            0.1617174695762964,
            0.05022852217965558,
            0.1540194179197632,
            -0.49453412857846585,
            0.31076408001942246,
            -0.49321632274171456,
            0.36920623180343876,
            0.151005815321217,
            -0.08129359494175194,
            -0.25736277879183683,
            0.3770582575080756,
            0.024825288661423032,
            0.29540080603982233,
            0.41520551352483465,
            0.018587321072080155,
            0.40750765020764695,
            0.15535512197220136,
            -0.08088359264525244,
            -0.08949757453703762,
            0.250990723966272,
            -0.08184300573219211,
            -0.1707324075924237,
            -0.10818653536890135,
            -0.3595463737950279
        ],
        [
            -0.34114771343430733,
            0.013893939662694364,
            -0.28147298892107037,
            -0.3882171628109177,
            -0.4107520622553082,
            -0.07575513856410258,
            -0.34663377112243715,
            0.31172782371208574,
            -0.2694286244097973,
            0.26386335408584394,
            -0.13963627070692122,
            -0.3809388709436718,
            0.37611160795326504,
            -0.3171878855263757,
            0.2143712360000699,
            -0.28703719067379857,
            0.3987428131236811,
            0.04095547274952519,
            -0.3222855880546585,
            0.1306834552010267,
            0.07233201940847525,
            0.40338674655393797,
            0.47967552901297533,
            -0.09015118393211412,
            -0.023500311778998084,
            0.1770809687987669,
            -0.15763865478072983,
            -0.2785594918228229,
            -0.18669614927767827,
            -0.1082857154584995,
            -0.08919319715742371,
            -0.4217485734842674,
            0.1453871185194233,
            -0.21983502288655837,
            0.4513009754590866,
            -0.2895360078756856,
            -0.011867819186277754,
            0.24285170352117585,
            -0.17754760696121852,
            -0.19426232030690013,
            0.4460997803266882,
            -0.13809513201404142,
            -0.09612943789614746,
            0.07003707309376343,
            -0.48629716020814695,
            0.06650161687996772,
            0.3773799739992166,
            0.2662491222861242,
            -0.23349516574292445,
            0.3988313002210098
        ],
        [
            -0.48149949398531383,
            -0.05546782932643092,
            0.09889822593162326,
            -0.20413977678049228,
            0.25125388153696016,
            0.38298739420227507,
            -0.4158853176776638,
            0.3460714352987681,
            -0.38735608541291755,
            0.3335770742448854,
            0.4775125733783302,
            0.31602519207385915,
            0.42990473342086644,
            -0.4086880055675875,
            -0.24977426911743444,
            -0.2467479472572468,
            -0.23645568256570806,
            0.06657552406027098,
            0.5001199324106861,
            0.13870496362695298,
            -0.04975648867965687,
            0.03429731345146762,
            0.03841578997307609,
            -0.024744724716461563,
            0.027127594536166894,
            -0.2082852286226734,
            0.3513597518060105,
            -0.36713697742381496,
            -0.3435516977657346,
            -0.04981656253523271,
            0.07105558755435872,
            -0.005432716694583389,
            -0.18288985646339995,
            0.38725437362263015,
            -0.4299985816489929,
            0.03755177798539066,
            0.4038590284994318,
            -0.45835097819809717,
            0.1642938559739671,
            -0.38886131448673567,
            0.19485693826878323,
            0.3981527070394897,
            0.016691395223446117,
            0.1972432454627422,
            -0.38285920329978157,
            0.4279071111718687,
            -0.11144258411336051,
            0.01826109540178017,
            0.12316730678963453,
            -0.4216606121759524
        ],
        [
            -0.4562085577472243,
            0.030017615827434944,
            -0.15307756341421622,
            0.06183301758650164,
            0.31354157108853353,
            0.4051673042441908,
            -0.4841220170260026,
            -0.3395914777945693,
            0.011206730983620017,
            0.10676361768029274,
            0.27140556724340875,
            -0.4719946283798896,
            0.19164728577786033,
            0.5612657456759276,
            -0.26219879330553186,
            0.11132362188034439,
            -0.3263857923296828,
            -0.4680425817483599,
            0.06907144769246239,
            -0.12284717471414353,
            0.3597859576704613,
            0.038563355280382655,
            0.015987958216525492,
            -0.012886379215256028,
            0.3853815956606116,
            -0.1607010973555955,
            -0.07321964229364539,
            -0.4921661016137443,
            -0.02402476149124264,
            -0.07936658291685081,
            0.10066461448085659,
            -0.08091324891723485,
            -0.4796296105565527,
            0.3072864649247083,
            0.33141423344743476,
            0.34075993118526504,
            0.2596434037709779,
            0.09509759918894127,
            -0.10041787806983435,
            -0.041551029197687245,
            0.29165545602940934,
            0.3087732350229486,
            -0.1747371612943506,
            -0.2934712270617,
            -0.41720173215938305,
            0.12108348797899271,
            -0.1776879470654003,
            -0.1915842037305477,
            0.03713851388788706,
            -0.2509423467374879
        ],
        [
            -0.04145932787399984,
            -0.0264433516697646,
            0.539982750603019,
            0.04713641805136665,
            -0.18723141585310124,
            0.07081636428839547,
            0.30737991702425993,
            -0.2477317494255657,
            -0.42574940904418573,
            0.2724881042963947,
            0.06666636782288353,
            -0.3816624687849132,
            0.29739129317259444,
            -0.43792505166376294,
            0.36585297013989626,
            0.314088321511529,
            -0.5036445701770005,
            -0.44374757278132015,
            0.17610499066718877,
            0.020051224632879696,
            0.38199199641287107,
            0.03842382730256046,
            -0.305902941251053,
            0.07054015173852474,
            -0.0035205326482377294,
            -0.36402051852783773,
            0.17750316346873787,
            -0.3672490905482151,
            -0.1324900845251733,
            -0.298561714539763,
            -0.3669993149267168,
            0.18626335203801478,
            0.0022184351628374782,
            -0.3911347903455569,
            0.371126117920277,
            -0.3079800618153,
            -0.23190171641163004,
            0.06392330514797415,
            0.030268297720674717,
            0.10461793042347223,
            -0.29585881523120505,
            -0.49336919979822896,
            -0.1115981660094772,
            -0.5076920625252008,
            0.18076150813692907,
            -0.4530398544452977,
            -0.35476743940810307,
            -0.3176885545952788,
            0.11547487341994624,
            -0.29576212556446824
        ],
        [
            0.22577736094617787,
            0.4724402055450125,
            0.14900528440707472,
            -0.10647103261023413,
            0.3038340561007255,
            0.3731686609886531,
            0.4684649052969147,
            -0.12094762817553048,
            -0.07297720718500839,
            0.3354797874208477,
            -0.45121317983520864,
            0.053348035779878705,
            -0.3219513098278367,
            0.3873785704349157,
            -0.0832827414391788,
            -0.1941741526056976,
            -0.07105448774333883,
            -0.48687235358487485,
            -0.385992902951735,
            -0.41816563829472764,
            -0.3214909870728579,
            0.383168379987115,
            0.41882768455412517,
            0.25441315926170893,
            0.49707931333209077,
            -0.39117022577122473,
            -0.06650272554849668,
            0.05135705527205617,
            0.4370567009882341,
            -0.14919857499653147,
            -0.3950823160026581,
            0.049977516670906226,
            -0.014544505126587857,
            0.23093177314059357,
            -0.07161658951234615,
            0.3678861740909167,
            -0.13462694529231303,
            -0.10953318991388221,
            -0.28176600393943196,
            -0.022711901657802035,
            -0.037178770023211564,
            0.04829582921552496,
            0.4722454967552542,
            -0.3718429132350674,
            -0.4422248461359056,
            -0.286201476729264,
            0.3045434045125146,
            0.07242715204517454,
            0.31380512578652736,
            -0.3914295405914472
        ],
        [
            0.20895542896557168,
            -0.13620373918090517,
            -0.3142201407619677,
            -0.035450326256209246,
            -0.3602076262083098,
            -0.041255642962784264,
            0.16236213249144854,
            -0.3051928149128781,
            0.010981757779866423,
            -0.18205822763242396,
            -0.09060748018315878,
            -0.4892855488213492,
            -0.1963657932680293,
            0.16994466236585426,
            0.1043918201956786,
            -0.46285543385194855,
            0.11344509955517335,
            0.06399037554472753,
            -0.0541011554848361,
            -0.2532914224187009,
            0.3387947455266682,
            -0.006139757846013047,
            -0.37678535749609604,
            0.10898856942866061,
            -0.17723626552405017,
            0.10742182255737219,
            -0.41143374366522956,
            -0.08328151163183566,
            -0.475124693349079,
            0.0036194183674821486,
            -0.5106316662621176,
            -0.40342876331609645,
            0.06760956452956167,
            -0.13067866881414492,
            0.2155119750598259,
            0.33001562496046305,
            0.2149586965284018,
            0.009273863832196123,
            0.23084994370387746,
            -0.29018555746975006,
            0.2966975647697842,
            0.408471013363388,
            0.44793598778921057,
            0.13052655361804832,
            0.020121521004780575,
            -0.29609553588402393,
            0.359004594420176,
            0.3793660741316183,
            0.36731606415946,
            0.3874354250105061
        ],
        [
            0.48612728701056873,
            -0.05714834662218832,
            0.48809477144490554,
            0.1425168569368173,
            0.3152873730791702,
            0.5032321160999819,
            0.2459613492159002,
            0.08463136612193685,
            -0.38084970386575445,
            -0.4388542394826547,
            0.2803688625470215,
            -0.3072847303221885,
            0.09117382087059105,
            -0.3411242462979046,
            0.02950899899051758,
            0.2712410733822472,
            0.3709367307661351,
            -0.033972486972839284,
            0.05468579913855506,
            -0.5110040107843838,
            0.40953366160057536,
            0.38365934238745275,
            0.12976662408048362,
            0.1556443586242117,
            0.24861418740911456,
            0.3354466147098728,
            -0.2736100589137286,
            -0.07732348812142047,
            -0.4684087212055367,
            0.08098238553716774,
            0.46476529228031244,
            -0.48979203584409964,
            0.3292783437314986,
            0.4477412572433748,
            0.28929850224288634,
            -0.006543948122597535,
            -0.37634882146818854,
            0.40417905344714655,
            -0.2861019413501081,
            -0.35877003736311847,
            0.17592674436648248,
            0.28032113362703603,
            -0.2602342736135179,
            0.2578914225158855,
            0.4784702571721188,
            0.2866952049037323,
            0.30870267673417295,
            -0.2579346709715907,
            -0.23020990528785137,
            0.4116731286907585
        ],
        [
            -0.30857886010291713,
            -0.3846579564956835,
            0.231036316648882,
            -0.15763736198618844,
            0.1720129480659058,
            0.3015651511898721,
            0.23052657642072358,
            -0.07535531942716397,
            0.18056483242417043,
            0.16683388651639136,
            0.004171148037893484,
            -0.284828581899606,
            0.11585284960685635,
            0.43180523606809135,
            -0.10121069903044197,
            0.1927130825447417,
            0.07762143046203306,
            0.3698969482152629,
            0.4542029457392809,
            -0.06323228866467075,
            -0.18560692775430843,
            -0.11972317745194214,
            0.4928450988028819,
            -0.2710339306117888,
            0.12740917088816403,
            0.21288061713349377,
            0.42025538582617966,
            -0.14279343674589415,
            0.37547709060056217,
            -0.47256445912703565,
            0.3802273502026375,
            0.22495333711437906,
            -0.18097319720796107,
            -0.1731887042911442,
            0.38207248284976114,
            -0.17493689095669118,
            -0.4997691739439367,
            0.47630064045789205,
            -0.12450241955421089,
            0.4187643191707434,
            -0.4315406070991893,
            0.09741720161965155,
            -0.13835074736993871,
            -0.3744817663314881,
            -0.016328055219567077,
            -0.32563336083694955,
            0.2358693329873913,
            0.3668755453368109,
            -0.05438593932784078,
            0.3976438738082756
        ],
        [
            -0.44919534643778736,
            -0.3713068565406484,
            0.20240176823762152,
            -0.4682945048074339,
            0.362451071668814,
            -0.2777962374118168,
            -0.3431940167151147,
            -0.4567946612877881,
            -0.27505731988209914,
            0.060957976355842255,
            -0.4431906152290234,
            -0.10088357954585249,
            0.3931904359540664,
            0.03958135830975163,
            -0.04352451006955691,
            -0.25444457825480143,
            0.11223651993990595,
            -0.42906762086808026,
            -0.21356099251882163,
            -0.41424363146500426,
            -0.4345731165349216,
            -0.3789308245570072,
            0.026139631860099568,
            -0.35654864623680804,
            0.49703207657703635,
            -0.19118681811295898,
            0.4072327435134458,
            -0.05341574620783097,
            -0.12263668970990323,
            -0.04322991299053845,
            -0.44072581229641444,
            0.4802205006122187,
            0.11736615428605204,
            0.4374989417069876,
            -0.055271080029936887,
            0.21932393312996395,
            0.2695541230814949,
            -0.2867660993665509,
            0.33328026881186174,
            0.1338797266903213,
            0.3764899879811788,
            0.16536710741658597,
            0.1228502511117404,
            -0.38123165813408155,
            0.15527723188567571,
            0.2637892045178787,
            0.48881072171519546,
            -0.4567588122243886,
            -0.39775184451970763,
            -0.12832136228716545
        ],
        [
            -0.23192903816090504,
            0.13920312947704933,
            -0.054542697208821926,
            0.2091623408452668,
            0.5126461613740981,
            0.15180122887340972,
            -0.43944573373330637,
            -0.027453013648498337,
            0.007539860316522906,
            0.4869144345508295,
            0.5028293816279842,
            0.2630913440227583,
            0.10180906815144135,
            0.3331423791464993,
            0.4029168247579008,
            -0.21627801197459529,
            -0.08365833457195501,
            0.29538599485013894,
            0.5230391451117883,
            -0.32351410729367014,
            0.32451766813354854,
            0.4517246537471324,
            -0.4389459919327769,
            -0.048227101303025356,
            -0.09364152817661871,
            0.36296967367679184,
            -0.034247732038711565,
            -0.26094187013052966,
            -0.4511209735601598,
            0.4133768611111022,
            -0.1193162730487567,
            0.045412017415212017,
            -0.09765886342969028,
            0.341409986621773,
            0.3493303727700465,
            0.0024405825920592434,
            -0.08695440394833237,
            -0.16827391234565964,
            -0.274752639303124,
            -0.014593226313805562,
            -0.16595601039349747,
            0.37032456224561594,
            -0.04669293293393239,
            0.30040366812413055,
            0.13284136046615896,
            -0.3032315196968293,
            -0.2218273569741218,
            -0.11890205178477714,
            0.18046968926422655,
            -0.0790153239257261
        ],
        [
            -0.25204023811119947,
            0.45035666063270297,
            0.3096770737869135,
            0.07166875209303498,
            0.5344985382288395,
            -0.12615247965040238,
            0.24880804691205602,
            -0.21272622126027663,
            -0.34738281500471824,
            0.09000846676487301,
            -0.3364205508115689,
            0.1219697034045702,
            -0.2503037465224208,
            -0.02275120871221878,
            -0.05884187779811561,
            0.10152341939881143,
            0.18199678759471738,
            -0.19832604680694832,
            0.20287450254147507,
            -0.29816646783265716,
            0.09051121591008197,
            -0.4579622375385971,
            0.38561255320356674,
            0.4338641773721729,
            -0.1128624699685179,
            0.2538715720612334,
            0.424571449728635,
            0.009577438731727292,
            -0.3945060898112358,
            0.208643994685447,
            -0.12337073745108604,
            0.03622663250035456,
            -0.44939306288233316,
            -0.19419160991129536,
            -0.0961220629990089,
            -0.034087498080149006,
            -0.27014408029617376,
            0.48619803012034685,
            -0.23918881025438507,
            -0.07382510525212778,
            -0.28107327672071125,
            0.025658698103346592,
            -0.23153938291579348,
            0.3926080356161936,
            -0.37924871054356657,
            -0.1820226476283779,
            0.006712657895582186,
            0.3817040117371829,
            0.2721311677828168,
            0.464962916589191
        ],
        [
            -0.09236749908122177,
            -0.12897241090889955,
            0.5035555069246557,
            -0.30572601370623814,
            0.4854928384970428,
            0.4407062904163268,
            -0.268633827939892,
            -0.45519680804663004,
            -0.47590970936435045,
            -0.2691358784751639,
            -0.08969922822021961,
            0.0810991563984218,
            0.203660184114253,
            0.39517162386089033,
            0.07433720730445388,
            0.47617647087827686,
            0.04713424361696005,
            0.3347600852692266,
            -0.07308662888375302,
            0.4164052994924294,
            -0.2666048734786814,
            -0.0877785194269676,
            0.37067798441256333,
            0.2675387280341221,
            -0.13388714049968609,
            0.3744826140702531,
            0.38181666929463826,
            -0.32401999356939226,
            0.46056508586842887,
            -0.348563877155912,
            -0.22948213841885157,
            -0.11983562052986062,
            -0.2035594698743414,
            -0.3623335469990145,
            -0.007821009420495536,
            0.14317250208775636,
            0.37605465607614685,
            0.4957599863754099,
            -0.5770674981721527,
            0.21061333323360323,
            -0.09434769355927702,
            -0.3419752043736427,
            0.3564530270853869,
            0.008477204080588788,
            0.18758340163464013,
            0.25871059166202975,
            0.0854780035179162,
            0.4961486830612015,
            0.3531460117068769,
            -0.3126896838231089
        ],
        [
            -0.30668359770104653,
            -0.3666863649426062,
            0.4239495617428212,
            0.4740669661688942,
            0.37624995864676114,
            -0.3100153552920496,
            -0.013006710471965787,
            -0.2951679703545391,
            -0.060332610758984086,
            -0.07315986387807098,
            -0.4229933087132667,
            0.4756482549388309,
            0.1498413861589488,
            -0.017034758908736375,
            0.4128724561194157,
            0.4997625235548166,
            0.18785113184889543,
            0.07051597894202974,
            -0.10627691121897509,
            0.051217396092622165,
            -0.156998029482308,
            -0.3628598806812358,
            -0.012546498022742018,
            -0.14928587829789128,
            -0.06377258227963968,
            0.20536957736164646,
            -0.4006804612551169,
            0.1130789471732424,
            -0.17044308598511804,
            -0.3364303942994373,
            0.01334956797063318,
            -0.18623254443143122,
            0.10205565733949662,
            0.5125782035537061,
            -0.3647375278488278,
            0.251776144575918,
            0.20752628636708031,
            -0.1441706562391122,
            -0.08177235309923307,
            -0.11977302381961524,
            0.37859680865646284,
            -0.4681916753782106,
            0.5282645234155362,
            -0.14539052229958682,
            -0.046014534722375385,
            -0.47314789094219073,
            0.18420887008718634,
            -0.47926385144007133,
            -0.40113007806596873,
            0.21322499036971912
        ],
        [
            -0.04109635446338346,
            0.09318399610164747,
            0.06695244316354629,
            0.09000421345836,
            0.03327273295667589,
            -0.22989871642216617,
            -0.09116805107158549,
            -0.4684238126780868,
            0.46878849320326327,
            -0.046083370430112146,
            -0.2709923707814884,
            0.09391963007279415,
            -0.2510927205414513,
            -0.20414753420519036,
            0.2403690769309331,
            -0.04840871122966775,
            -0.15448547642900587,
            -0.3956745152404197,
            0.12660079252459494,
            -0.22079175863444875,
            -0.413104001862335,
            0.00028598610953537156,
            -0.012634091888620316,
            -0.03190078639059645,
            0.07887303681142757,
            -0.25714749137354254,
            -0.2846516188508725,
            -0.3490206346429895,
            0.2974231746199178,
            -0.2021350861677468,
            -0.35104157847781414,
            -0.171303589476034,
            0.16790392147236158,
            0.34196819179323906,
            -0.01722729729136347,
            -0.0584592651494586,
            0.21082573391417941,
            -0.18345125753763963,
            -0.44288417642607897,
            0.09229952021678113,
            0.2591086544926719,
            -0.3924499709785215,
            0.3512261841035095,
            -0.3667757542336002,
            -0.325468972118581,
            -0.21065249836614938,
            0.3386334177108558,
            -0.42024601738847395,
            -0.20725328105616117,
            -0.29978099400158364
        ],
        [
            -0.2229168970397712,
            0.35380609876435776,
            0.4732474161994685,
            0.2932161814092582,
            0.1285292105766331,
            0.36138712488931446,
            0.45544916747617686,
            0.0034692788240954947,
            0.48691632460542333,
            0.31186966765716284,
            0.28455877684019026,
            -0.058115523307482625,
            0.42881816349496654,
            -0.25957807465496596,
            0.4362083371970245,
            0.2388655488616118,
            0.39814562360671074,
            -0.4300319470622966,
            -0.23839313348435537,
            0.09469387068081488,
            -0.4573477792424773,
            -0.24465186909196482,
            -0.11538539948026286,
            -0.32777577255016555,
            0.10156945407726284,
            0.3016409445596387,
            0.09386454511627618,
            -0.41497163454429314,
            -0.3660687584229364,
            0.35885041333240036,
            0.3333414214091307,
            0.48100612426170436,
            -0.29480051289963854,
            0.43514163484810453,
            0.045377823945528625,
            0.34639156514019404,
            0.3404190530459907,
            0.030514398126851933,
            0.20730935419398783,
            -0.0206175984929009,
            -0.0029191053290432184,
            -0.4666277471377684,
            0.1422994360870344,
            -0.4145943462692988,
            -0.2532347696791214,
            0.08318923638478787,
            0.056562340490656414,
            0.22025758771592394,
            -0.3709993450508693,
            0.403321944740329
        ],
        [
            -0.4496957523710465,
            -0.1668408094332233,
            0.3231809046860835,
            -0.20934371296999094,
            -0.4149684276109634,
            -0.3663735246302196,
            0.09996981734251922,
            0.28030946836310305,
            0.09124283478674769,
            0.03816632124429107,
            -0.04989830867416112,
            0.0017143737690835203,
            0.24877436115450594,
            -0.30712159121162963,
            0.02937821038774465,
            -0.1489475280824102,
            -0.049321221927081174,
            -0.0006203135936342016,
            0.4658175336661865,
            0.24875226161702438,
            0.4920525174796577,
            0.03142414057467701,
            -0.32340897151947384,
            0.36238937443321995,
            -0.06653918647909064,
            -0.22080623507232847,
            -0.17356514940028853,
            -0.1302482447367489,
            -0.4111890135319438,
            0.307038350615224,
            0.37023615952620154,
            -0.10746417685864892,
            -0.4069711405906971,
            0.47294682561326973,
            -0.37423546098847793,
            0.07714034597007766,
            0.03181242927303328,
            0.45275507243030166,
            0.04053622158721097,
            0.488536831919506,
            -0.32118786021510665,
            0.32360738541211775,
            -0.16008205188672442,
            -0.5022313242457447,
            0.2896270270618858,
            -0.32889286890325803,
            0.49984864085304104,
            -0.33253634137325255,
            -0.4037745119436697,
            0.39465661025048576
        ],
        [
            0.24522340173753449,
            -0.3504529446357277,
            0.5184042388539213,
            0.18146345339698336,
            -0.4625810375922042,
            -0.03065901793304036,
            -0.31631763972797333,
            -0.03932275151561055,
            -0.07257296953999574,
            0.4368805139860609,
            0.40718812049282177,
            -0.4893530080137202,
            0.4675113954667035,
            0.5377821466970791,
            -0.27425741191509084,
            -0.31038447882291575,
            -0.44066658712528095,
            -0.005146756623411412,
            0.42853106169880184,
            0.25621153139135333,
            0.458321364578947,
            0.10417292548060453,
            -0.1789231941501251,
            -0.11090055613040464,
            0.166987685411092,
            -0.4920072600840739,
            -0.13556413017241403,
            -0.15679225649722134,
            0.3899856015822128,
            -0.1960666132689986,
            0.04318775050780677,
            -0.059728811086855925,
            -0.20593565887171955,
            0.3447881840223583,
            0.03998120946162238,
            0.2954804131756056,
            0.267795776203254,
            0.2947747220294366,
            0.25278884791627027,
            -0.40539620130176124,
            0.48508339338038925,
            -0.31332708111311675,
            -0.11039224705695219,
            0.3852642093945195,
            0.015554472029777913,
            -0.2981187226983877,
            -0.32783650498030475,
            -0.3753590139915328,
            0.2711655917361938,
            0.47710724524899856
        ],
        [
            0.16624960498231273,
            -0.21125540403612622,
            0.21810963708209177,
            0.23250850729088204,
            0.31728399247997235,
            0.5481200120349966,
            -0.003075986812892447,
            0.2961245162610629,
            -0.3258634234089321,
            0.23277205841871607,
            0.012048382287001844,
            0.3875026615091159,
            -0.2955928963420871,
            0.35362112564844805,
            0.3109746111856274,
            -0.06279173176506814,
            0.3878421317386359,
            -0.00014275858155559328,
            0.3273874379719485,
            -0.3657179327190861,
            -0.4367336433732524,
            -0.3745111291052587,
            0.14035300102496526,
            0.04568895885368702,
            -0.03077044696229142,
            0.40050834224434406,
            -0.002349085767962153,
            0.05460121904722694,
            -0.06207017668147943,
            -0.44915725509474047,
            -0.16873416065507357,
            -0.030178384009678653,
            0.21886089030333808,
            -0.4587657710292997,
            -0.02502561847786987,
            0.050607930384677584,
            -0.11760070698725694,
            0.16262145898827446,
            -0.5043627886655011,
            0.4588380872014772,
            -0.15649265427498313,
            -0.32624604886963193,
            -0.04133463233416567,
            0.36882750626142113,
            -0.46210451592771357,
            0.46505465052470324,
            0.13422677675961822,
            -0.28133943480959367,
            0.21945149264719355,
            -0.27763217601947887
        ],
        [
            -0.35488697150924653,
            0.18226190400446954,
            0.16384584697597465,
            0.18971000868048407,
            -0.38474596421984664,
            -0.4427041539048577,
            0.011566601821041045,
            -0.1392074714257233,
            -0.053787720702920164,
            0.13631461050381025,
            0.28814872047676915,
            0.16722438070405338,
            -0.14246205148123714,
            0.4870585114839627,
            -0.082227433987672,
            -0.2595896832470011,
            0.18542308205216074,
            -0.23897944085860934,
            0.2605599068503557,
            0.15614413896049584,
            0.12419130563661847,
            0.28516264944116143,
            -0.0443106138897299,
            -0.22579985644495199,
            -0.37674234349883773,
            -0.15006882332566282,
            -0.3799754754356982,
            -0.34977765075118816,
            -0.36493202618065734,
            0.38999346998584306,
            0.368089035953777,
            -0.34946945929944173,
            -0.053014503970123084,
            0.1357742524703014,
            -0.3989283888113699,
            -0.26593152792196806,
            -0.20260296984893153,
            -0.4399412574718085,
            -0.24695462391483372,
            -0.313684581251995,
            0.06549141951955952,
            -0.4611095922817547,
            0.042962530684169484,
            0.2703825345818887,
            -0.18683169137806735,
            0.39686323140548485,
            -0.02128755093588938,
            -0.46040172134779883,
            -0.09323656114984709,
            -0.3857849416351109
        ],
        [
            -0.08494928496135969,
            0.13276775005111857,
            0.2485734693283446,
            0.513313683215775,
            -0.08180657015713173,
            0.01573273962609778,
            0.06493819472632786,
            0.02009536672275227,
            -0.17208403114741158,
            0.41479958920412047,
            -0.31618069909733926,
            0.3089685459473734,
            0.43993769182956144,
            -0.19995634707518964,
            -0.4113100046359865,
            -0.3371821038242731,
            -0.501735649082029,
            -0.011809225349916425,
            -0.14032342164349104,
            0.2038622668793304,
            0.47323019491876767,
            -0.28065820752932336,
            0.2701563773632698,
            -0.11908511903126812,
            -0.4356767099659967,
            0.04260249839574231,
            -0.4939471355566096,
            -0.1327084438579014,
            0.3964402872916117,
            -0.2418596825194989,
            -0.3903742697826801,
            -0.13125458497511924,
            0.3553690993893171,
            -0.056702480316332966,
            0.4381108946437909,
            0.44488757311612215,
            0.056732530765187,
            0.3987857199230418,
            -0.02164699412178794,
            -0.06608760359902797,
            -0.0377767422975179,
            -0.4364964116555276,
            -0.03782815632497645,
            0.18957743687986015,
            0.15594782839033092,
            -0.2307448551343544,
            0.5522765478582766,
            0.12024118808297156,
            0.32216479203616577,
            -0.022796261005557178
        ],
        [
            -0.0747218336810773,
            0.08012408879752593,
            -0.3970531875850505,
            0.4975533009138923,
            0.04326347507606149,
            -0.08946701812594242,
            0.1365656696432138,
            0.02948192806337741,
            -0.19953913006615498,
            0.4433755406152823,
            -0.0748384010778501,
            0.13045234621654878,
            -0.19478573412499847,
            -0.13235761593228726,
            -0.027537686011881283,
            -0.3554814139069434,
            -0.36153624284327984,
            -0.08741739813588356,
            0.24381818309916803,
            0.021385027296589355,
            -0.1404617112923395,
            -0.17945595043281307,
            -0.21807253090198875,
            0.17775529945131135,
            0.43782922183748,
            0.3743138970898067,
            -0.17455087583056733,
            0.2335386905986887,
            0.3400492429566403,
            -0.23735900876021473,
            0.18565070789811772,
            -0.011388535365455093,
            0.44163507471144187,
            0.26265402032329793,
            0.010015565314433076,
            0.38647340062765506,
            -0.4568306003426885,
            0.11736740128574717,
            -0.0800233960473012,
            -0.1447757426283238,
            -0.266608245164006,
            0.2224457005087638,
            0.3688309631904902,
            -0.017414126663838604,
            0.34530746121121736,
            -0.23060873850599992,
            0.02893544873422144,
            -0.24304566132133534,
            -0.1398962998798483,
            0.2942710693201121
        ],
        [
            -0.4746551923886779,
            -0.34058905784387616,
            -0.41509965100792384,
            -0.15365410601168256,
            -0.1353109043834239,
            -0.27768080468753004,
            0.26869291413075963,
            -0.1552659976212603,
            0.0645635666660857,
            0.4761691688260336,
            0.49067044538058724,
            0.03623581175723785,
            -0.46807589898268154,
            -0.3614255816847054,
            -0.029069428629714966,
            0.28142395619220784,
            0.22469653783954388,
            -0.47715905120806873,
            -0.27155919473356327,
            0.3772675011265921,
            0.14093542561590025,
            -0.40504120856666026,
            -0.4510504502142124,
            -0.17365896551026286,
            0.0657282473973439,
            -0.4755358812813181,
            -0.0644774051566232,
            0.08349820929961813,
            -0.4456840743851078,
            -0.07692939988554184,
            -0.00043954395551612117,
            0.4850350186423279,
            -0.4484264328384842,
            -0.1890536448843861,
            -0.283103581721336,
            0.2678644524984126,
            -0.28306584581916716,
            -0.3614144214228354,
            -0.2830170598293966,
            -0.12936356218689202,
            -0.08661124819533865,
            -0.40950305485792493,
            -0.18244501130508525,
            0.20598276515035369,
            0.3551715488656655,
            -0.3930657825815645,
            0.19675420373208677,
            0.39488896618496877,
            0.06479839894608115,
            -0.1593113947823177
        ],
        [
            -0.03683062948890295,
            0.4765588899717559,
            -0.36255913067955725,
            0.4973142438050939,
            -0.43974709995996325,
            0.512395477016552,
            -0.18618495215597955,
            -0.1307058474008884,
            -0.16553245963121607,
            0.16084430833979005,
            -0.1184783183561662,
            0.25083823741586964,
            -0.4288066026710087,
            -0.049919549137791806,
            0.3203982215454742,
            -0.31347481196261656,
            -0.24154764810989066,
            0.3543950776927181,
            -0.10524151246027345,
            0.025460354543933566,
            0.38005353924700613,
            0.4506189660618554,
            -0.13517402083044763,
            0.44175531925874684,
            -0.07753942433770386,
            -0.3205006936177383,
            -0.2272820471686309,
            0.18445773077273522,
            -0.1802328013624205,
            0.21496682744130646,
            -0.5148658781030149,
            0.04369313201529645,
            -0.513435196816853,
            0.16651530788025742,
            0.19115114654498536,
            0.16228033633605318,
            0.26293409975418813,
            -0.24193229791094079,
            -0.2568733506613594,
            -0.35680554780777274,
            -0.024794867522792478,
            0.41805354383922544,
            -0.1476112644239683,
            -0.10022921643620965,
            -0.14623332566917727,
            0.4731850861090592,
            0.20426742105891,
            0.48054814053432837,
            -0.2739021989390734,
            0.42418506712666554
        ],
        [
            -0.39724086648124246,
            0.13107252149361473,
            -0.2986964193321535,
            -0.0020989436988653873,
            -0.2630402654018823,
            -0.21591168447138345,
            0.1282271633698192,
            0.021520891855530706,
            -0.29817865001763155,
            -0.25570277789132284,
            0.10382170424570246,
            0.08566876036651933,
            0.3249003468511045,
            -0.34708348935067396,
            0.12497860678577731,
            0.1678897580601804,
            -0.21800973116224687,
            0.444892544338009,
            0.44998537041011527,
            -0.043270674977490785,
            -0.4153043592862792,
            0.46963412164656176,
            -0.007179111849876612,
            0.29202770490205104,
            0.3494315758385057,
            0.42694476191006997,
            -0.4829225913796398,
            -0.2998704025973286,
            -0.1571449426602885,
            -0.018164314679267338,
            0.025136008147517798,
            -0.18245453866321773,
            0.1797168460753496,
            0.419013819341975,
            0.31646138675417756,
            -0.4704679593415051,
            -0.22499316009483472,
            -0.1688037732499358,
            0.32735101665766997,
            -0.44902277712404537,
            -0.015900176230610942,
            -0.020029307761353334,
            0.05983641200955767,
            -0.35841554030896366,
            0.42044547937715915,
            -0.24435548044628178,
            0.3295480018168302,
            0.43753959409212995,
            0.14664338165173313,
            -0.49849579929659205
        ],
        [
            -0.19264023727277277,
            -0.09894645762437582,
            0.1500484043626818,
            -0.37305975073883835,
            0.09691672518407211,
            0.3577923817314835,
            0.23386096168451045,
            -0.19652747740166654,
            0.2772164703262056,
            -0.3929707971461133,
            -0.3100219111289188,
            -0.028627489036799084,
            0.20806069682706782,
            -0.06287198482424668,
            -0.20435719783733938,
            -0.43108048801618654,
            0.32849529235856445,
            -0.4333743944183561,
            -0.22484470001916865,
            -0.01981942554425058,
            0.2760924199792116,
            -0.16099937972621295,
            0.4102901527494615,
            -0.14686457150663992,
            -0.004433920121870221,
            0.171596829003423,
            0.2581410540745794,
            -0.441970205758174,
            0.06924413027893178,
            -0.22927255956321127,
            -0.3442296554562517,
            -0.23903042194925708,
            0.41476626956032975,
            -0.1614417348301415,
            -0.28681696157800174,
            0.2554086534949173,
            0.17817590150856938,
            -0.09351602566875397,
            0.179321212248524,
            -0.007409685136600914,
            0.023882570921735086,
            -0.2591067470354096,
            0.19644457486892855,
            -0.23784878152214764,
            0.06087462193898384,
            0.00946017512918373,
            0.49818490651257724,
            -0.24660606132558616,
            -0.17136757373661024,
            0.181542083708569
        ],
        [
            -0.3210370744418113,
            0.26068956765420676,
            0.03615251000646246,
            0.3640105946296219,
            -0.39922560875428925,
            -0.2939777891746732,
            0.44747437034179255,
            -0.3821383343551453,
            -0.38199500138069586,
            -0.1579092231164495,
            0.3773570271029765,
            0.20981945617825973,
            0.084937257288722,
            -0.04272501269307413,
            0.4245811893862609,
            0.4955785977807926,
            0.2450427051752412,
            0.24452628616018054,
            -0.08134417342187039,
            -0.34386988069245794,
            -0.029265873522131843,
            0.46485665907788865,
            -0.15431045123957843,
            0.16748164043249772,
            0.3627491608369772,
            -0.41814352103370467,
            0.2768665367848696,
            -0.37867281447650875,
            0.10629238660738478,
            0.23628261144112186,
            -0.1922035134368482,
            -0.03089390328880677,
            0.06278132090180619,
            0.4134217751568753,
            0.4306787518569667,
            -0.2881028621397348,
            0.10840408305838348,
            -0.12082076268070756,
            0.016018046574154163,
            0.17935808423543595,
            -0.296167515841376,
            0.21040348333649553,
            -0.4619158057099737,
            -0.4208921290485918,
            -0.304431558713733,
            -0.07829629498105961,
            0.12173592533738987,
            0.3303161204431787,
            -0.04063473085156526,
            0.2859008437763516
        ],
        [
            0.41570298897010144,
            0.198834539627923,
            -0.047447105376894054,
            -0.14233991936523788,
            -0.08325812363925802,
            -0.4245351646446392,
            -0.3418377510476081,
            -0.4654817741386751,
            0.0897106350058729,
            0.19187173443717065,
            -0.26138747530469514,
            -0.2400417097583701,
            -0.11367377668248084,
            0.07409652906443254,
            -0.1703663053562173,
            -0.07889555910442808,
            0.16741460281760767,
            0.46936772289326656,
            0.5113745852952818,
            0.34637038264195225,
            -0.35949547817083854,
            -0.19999039470025565,
            0.1695349492268264,
            0.03677892117657208,
            -0.3622896928121859,
            -0.13156387256950244,
            -0.10430665441947187,
            0.06241866553728141,
            -0.17625770974668747,
            0.15865727559095646,
            0.24640768226312468,
            -0.16092690077837093,
            -0.37381754075163476,
            0.10495966620076613,
            -0.5000312248319233,
            0.14962742911182572,
            -0.41321875921861095,
            -0.07332795250344154,
            -0.12000717544483899,
            0.2708486892978514,
            0.4088607116452803,
            0.2069091404144702,
            0.03349835033144254,
            0.12230638252685841,
            0.452227916333954,
            0.0074080736884879345,
            0.26972042769435506,
            0.22148366731575592,
            0.4854769677959012,
            0.27589771397710106
        ],
        [
            0.08004882932598464,
            0.22077474775870448,
            0.12310393314091515,
            -0.14666464795008505,
            0.007309396606569636,
            -0.42628617909601296,
            0.45943174872315257,
            0.17845384031944164,
            -0.10719766532041536,
            -0.10742671857595736,
            0.37089033170211405,
            0.4990755799229231,
            0.32629426446065213,
            0.17910154322973346,
            0.10188246812905277,
            -0.0637219273743865,
            0.07959396759453706,
            -0.4209398805597767,
            0.4835860103560958,
            0.02738748759276527,
            0.39328188749563453,
            0.4130401792958863,
            -0.15119559002773142,
            0.17590485852766605,
            -0.32737247411965487,
            -0.4871334966777847,
            0.26827459215270627,
            0.08130878162364334,
            -0.041850587086797855,
            0.3833121412946116,
            0.04958803136016324,
            -0.21469076113907806,
            0.1691981321806733,
            -0.13395075667961417,
            0.4717083049119314,
            0.28891924855304796,
            -0.37833710536644083,
            -0.435537576624864,
            0.38699854172149956,
            0.43394035276343057,
            -0.18246241873657157,
            0.23523977682770522,
            0.3909053742010625,
            0.1992222410567031,
            0.4790495290993317,
            0.16740556537299406,
            0.024404718448794688,
            0.4468996291891587,
            -0.018986202275747474,
            -0.3140117243104565
        ],
        [
            0.16407278596168706,
            0.11325710975020631,
            -0.29479119193015435,
            0.255600842657276,
            -0.4051744995858517,
            -0.263029752479443,
            0.28358806373127415,
            -0.4768245528734091,
            0.15490506116642302,
            -0.022705573044581477,
            0.22833348783923552,
            0.4190621556074997,
            -0.40065963358060097,
            -0.2759394708554872,
            -0.0075968823826537725,
            -0.15006528856963128,
            0.11179032208119179,
            -0.423265786973866,
            -0.034618372006209985,
            -0.10220698097763067,
            -0.36791667542228024,
            -0.23789038352435793,
            -0.24972386172922828,
            0.18766806617808252,
            -0.20474944754170918,
            -0.26184940423446473,
            -0.40853097725039683,
            -0.24747914836869736,
            0.10021907626265218,
            0.2688931808833651,
            0.13210762019231426,
            0.2782683441146851,
            -0.4524253586763558,
            -0.11267050760925156,
            -0.24509389990909836,
            -0.05932319864323462,
            -0.4844042851691642,
            0.26538907939676215,
            0.34319461291016085,
            -0.23631461617094318,
            0.10364925376103092,
            -0.06402714924888456,
            0.4629009474697331,
            -0.08456029700782954,
            0.17241069064068795,
            -0.3516647901717601,
            -0.36185610845322996,
            0.21641678001283818,
            0.4923209868616523,
            -0.26585039422686296
        ],
        [
            0.15242758578010593,
            0.10692523822927469,
            -0.2296403147782022,
            0.21722870310110096,
            -0.3956472230979983,
            0.2348795717706492,
            -0.2903764768153945,
            0.2488655167609625,
            -0.13910341274439159,
            0.47821015927240124,
            0.07491057481350888,
            0.2500002489169808,
            -0.17351678596165537,
            0.48356406940502494,
            -0.35664190348614455,
            -0.4733078447246856,
            0.16039018264696575,
            0.36577438654358546,
            0.2725118050142932,
            -0.4677367828939296,
            0.41138444873767444,
            0.3373329365474324,
            0.30894772374812746,
            -0.2801755813051616,
            -0.4271734544195699,
            0.34137940905224745,
            -0.3223853847140013,
            0.45580479540209384,
            -0.027899633389046583,
            0.11475296686500405,
            -0.038047426320206926,
            0.2985572930827594,
            -0.08050140705869188,
            0.4585344689751357,
            0.04703783869182184,
            -0.049531294395152234,
            0.21049593828214244,
            -0.1861217477110153,
            0.33863085093786904,
            0.13174515473495393,
            -0.09348871796078588,
            -0.2942937703511914,
            -0.03819414768403069,
            0.0437881313202251,
            -0.1250429309466857,
            0.49398161142769936,
            -0.4121569841354333,
            -0.06873061178912694,
            -0.18481297395804122,
            0.22961421955674688
        ],
        [
            -0.08154430128516328,
            0.21962529273253667,
            -0.3428923767017557,
            0.49961418290158754,
            0.03572122570575338,
            -0.26989217304404906,
            -0.05759564329014461,
            0.09486963918561311,
            -0.41977125698399753,
            -0.114787344341142,
            0.14857436975870456,
            0.1772370017418531,
            0.5012178082905325,
            0.37534970176805693,
            0.34109522174318074,
            -0.08091855079029903,
            -0.3050875124571519,
            0.11993069492706351,
            0.45981557217131386,
            0.06014498238865117,
            0.24557188186988982,
            -0.46816757434363176,
            -0.2041458499293114,
            -0.4336923058961427,
            -0.4376674483834281,
            -0.5578005317538527,
            0.22213146043034146,
            0.12363081911649557,
            -0.46663341189678825,
            0.34256524815914763,
            -0.2588857227771978,
            0.0047962328258864565,
            0.4108062083705975,
            -0.035853235085657485,
            0.17633875806336585,
            -0.12325007464617141,
            -0.26190098257548367,
            -0.4294130033846894,
            0.2723382364612181,
            0.04953409067960202,
            0.016653684219806203,
            -0.2533658961672875,
            -0.1620973835883781,
            0.074579313364293,
            -0.16709491922434652,
            0.3865884497693647,
            -0.13451141138774358,
            0.46081619261947115,
            0.4223352461248303,
            -0.06593178712106143
        ],
        [
            -0.12947513200613964,
            0.23381486328125065,
            -0.18997277478722396,
            -0.005883841994361088,
            -0.07514348151152027,
            0.073672225958944,
            0.4116875131676421,
            0.4159875870649752,
            -0.385104600164006,
            0.25619251609790733,
            0.19814811320438025,
            -0.2420654460777477,
            -0.12795102447524997,
            -0.02953235236395445,
            0.27252178794360454,
            0.3716229476023066,
            0.29301374231207705,
            0.3352423163587934,
            0.15951130532227847,
            -0.20508373921267223,
            -0.1218118708829761,
            0.09916743626361348,
            -0.17923497803578453,
            -0.13145370968071812,
            -0.24900130134808082,
            -0.11948925795024525,
            0.07785787629659473,
            -0.3768097336147986,
            0.21333194300780348,
            -0.37125703407483673,
            0.33673810030489676,
            -0.3755583964887933,
            0.1217973721846611,
            -0.19340826867537994,
            -0.36124297930832383,
            -0.3126615917450465,
            0.12617679838358123,
            -0.28101092117821463,
            -0.39765037873310877,
            -0.3400661684790697,
            -0.2763556395325256,
            0.10237314963511404,
            0.04940903139650786,
            0.4485080650440725,
            0.11703630887615497,
            -0.008637444109533357,
            -0.3429007924978861,
            0.29761475746097726,
            0.05867515662857961,
            0.046427462028980016
        ],
        [
            -0.06058289219231537,
            0.32128872783345924,
            0.13799362277533428,
            -0.21045378178830587,
            0.40925987061074287,
            0.20534668740126852,
            -0.41933150723541857,
            0.07880937613744829,
            0.40770858842684704,
            -0.30159481435974356,
            -0.08819082506173524,
            -0.02810544603549312,
            -0.30608929163149445,
            0.47705849217750346,
            -0.2944257198960335,
            0.482568571352521,
            -0.22536767322800116,
            0.26858515649372366,
            -0.23868757254854653,
            0.16005469568527017,
            0.0817223565716751,
            0.13842254104347787,
            0.16511335675821462,
            0.14116900858363465,
            -0.15382589190971857,
            0.34625424094279966,
            0.03597412457942965,
            0.03102662728621944,
            0.2484815629595528,
            0.42990997403656683,
            0.18999743252207574,
            0.4547659138449162,
            0.10929592815989615,
            -0.4586495986869163,
            -0.07245043500872902,
            -0.4726252889977166,
            -0.11759319933929023,
            0.46371000898671916,
            -0.1702523346761166,
            0.15249110121910286,
            0.16585127936277685,
            -0.1992017034403014,
            0.4966972066966152,
            -0.4270859758272222,
            -0.009645006216645758,
            -0.3723793898907952,
            -0.0033305283825068284,
            0.4428756982132915,
            0.2576780892114114,
            -0.04900831168479791
        ],
        [
            0.36067619663754097,
            -0.31840694612324794,
            0.13460335797539685,
            -0.2740836390264376,
            0.39179136489771343,
            0.22925205955405262,
            -0.42533215268374724,
            0.02219490946282327,
            0.48989971624552675,
            -0.3621189694085682,
            -0.23212401038760558,
            -0.30999384947575015,
            -0.23011511678219354,
            0.3101136868879937,
            -0.2240022242370609,
            0.33233095438611127,
            -0.22782626360442593,
            0.46533374119845494,
            0.11573813940374324,
            -0.2701687041767165,
            0.09367825002972308,
            0.0877860535583023,
            -0.10393204932399965,
            -0.36177446598738966,
            0.04408320670894599,
            0.41592071631365,
            -0.3868563520211928,
            -0.46209319031051477,
            0.1580840365053216,
            -0.027125357490544844,
            0.05058889821845708,
            0.4664685179825697,
            0.07150691155178679,
            0.3043571269439283,
            -0.23186592364632622,
            0.39512780336003667,
            -0.21683585177849612,
            0.2167858609288846,
            0.2896241848210393,
            0.32955401266861545,
            -0.23803124867114425,
            0.18128393745154792,
            0.21045653003524434,
            -0.19675650400786207,
            0.40223467846776545,
            0.4588110626364873,
            0.17479543324740263,
            0.28378714045349945,
            0.4738863665545121,
            -0.43904906341091055
        ],
        [
            0.40727747062458963,
            -0.005674381795963454,
            -0.4207559390668519,
            0.03155428501383504,
            0.2197052779398629,
            0.5467585342335424,
            0.0992120115070514,
            0.38635432110759227,
            -0.4961692048263775,
            -0.4802113276733631,
            -0.3793308746184614,
            -0.17385354494284003,
            -0.28522982147060744,
            0.10989429904460542,
            0.38147492146060574,
            -0.23143598925980544,
            -0.09165977765548773,
            0.12306003051029389,
            -0.24871803725614905,
            -0.40311500510765497,
            0.389890478695448,
            -0.14735329325956248,
            -0.41563364193307123,
            -0.1987330929492395,
            0.35524453432414466,
            -0.3637496003875244,
            -0.18263217054922287,
            0.3276664482936452,
            -0.42064121866302717,
            0.34647531840803153,
            -0.010728806390108635,
            -0.45830904048836163,
            -0.07510542480794288,
            0.2228588098902776,
            0.4430095376678372,
            0.4853972301998274,
            -0.05597064273330535,
            0.10217690699028299,
            -0.46760565105740326,
            -0.11333277006197356,
            0.2762624016163343,
            -0.047470628981489404,
            0.3539558335017382,
            -0.18282455485029392,
            -0.40784695427616685,
            -0.4825051011017409,
            0.1518600424706436,
            -0.2135838919484714,
            -0.004337516768397175,
            -0.06048371757594694
        ],
        [
            0.3739490982559071,
            0.010586174095768867,
            0.12271315602587636,
            -0.40887221419068026,
            0.01869800538128198,
            0.5135258634400233,
            -0.29319486232048403,
            0.2103608491378418,
            -0.4479666059397678,
            0.44084140140789907,
            -0.21737388213771403,
            0.1938005849579276,
            0.14165448193818694,
            -0.05616081106925316,
            0.42142550599582834,
            0.35323387051948685,
            0.02367036120129964,
            0.20055838251555452,
            0.15247032826755375,
            -0.21951229882808046,
            -0.19157797718785394,
            0.3093848851575607,
            0.24062026746615212,
            0.2360238059851035,
            0.3576075746675481,
            0.15202659279634814,
            0.39874481843365417,
            0.1569513193084332,
            -0.4660254024653942,
            -0.3244763054341694,
            -0.1200476515299507,
            -0.10636704339404318,
            -0.14520253013162035,
            0.3203239689113589,
            -0.04758475368226172,
            0.15093360262771735,
            -0.4381256507292724,
            -0.1698468379993473,
            0.3387139829343238,
            0.31168394963665497,
            0.06549136659330491,
            -0.3597383472530246,
            0.3668721887813706,
            -0.19536643109583202,
            -0.2311624692510164,
            -0.0998339135093864,
            0.27710989618721654,
            -0.4554050891051396,
            0.4160463662681226,
            0.23157390276110945
        ],
        [
            -0.15092406585933402,
            0.44627354665213914,
            0.4882370145057973,
            -0.28675544236502487,
            0.2910838589543256,
            -0.10473513188481857,
            -0.3931553773458609,
            0.4359239019398075,
            -0.09150221592916426,
            -0.15699513253059033,
            0.4471631239558528,
            -0.27127287574328146,
            -0.47391524261951357,
            0.09453000793185448,
            0.22925346062857394,
            -0.38250509433256646,
            -0.2407194181291181,
            -0.3635743153885112,
            0.2363280410927555,
            0.4043352871223537,
            0.16753027744242702,
            -0.03164495195660426,
            -0.23470072325287186,
            0.03901934761802167,
            0.19236527093474612,
            -0.1984790920838333,
            0.34033760971579935,
            -0.3788093781884203,
            0.41246504045097604,
            -0.18571676584900254,
            0.38449571868753357,
            -0.09606360793282906,
            0.40929892435849285,
            0.44468158349396386,
            -0.39955882907770235,
            0.00859893494273216,
            0.0037090117737808154,
            0.20284735255336286,
            -0.1029573589451739,
            0.2971280039211215,
            0.06710174043367333,
            -0.04091309830366833,
            -0.14870768385801691,
            -0.20478874162189076,
            0.16708751182078535,
            0.4977983093179053,
            0.41075395035572615,
            0.4600086233676741,
            0.43947121729395083,
            -0.2939429967737437
        ],
        [
            0.23540624552551595,
            -0.46566619509673657,
            0.46538636978714987,
            0.12245445735034069,
            -0.11070105231608793,
            0.125121557628978,
            0.3444163211912298,
            0.4544242871077946,
            -0.36823709940196997,
            -0.08363690129570703,
            -0.2391976572757372,
            0.39916651488628496,
            0.04570167779199299,
            -0.14815072596862347,
            0.2928635449330102,
            -0.40682488655074955,
            -0.1600369326415963,
            -0.14285825631087934,
            -0.2689632028250146,
            -0.17910295813239988,
            0.11385959605633086,
            -0.14975798249140826,
            0.018332654104148548,
            0.40915994358778174,
            0.23299514621426173,
            -0.384583561971249,
            -0.08732865093990315,
            0.38545099338330313,
            0.10270386176892375,
            -0.48467217716724054,
            -0.19415606580920353,
            -0.46227191835018494,
            0.3745395788462027,
            0.24663618208440322,
            0.20916533564379147,
            -0.1795178764209215,
            -0.38997679418906417,
            0.38286429964621316,
            -0.02041584953926899,
            0.30900973318149444,
            -0.15886809942992489,
            0.41293306563913584,
            -0.44797804428056964,
            0.34728498008656244,
            0.0431469340386258,
            -0.19516337287960298,
            0.0876711849174601,
            0.42972126884365985,
            0.16879979662535732,
            -0.2762126630428983
        ],
        [
            0.24535504404748706,
            0.30930264340134045,
            -0.2541058317561274,
            0.3746273803271237,
            -0.015387788508506571,
            -0.28255549642993744,
            -0.4431912810421947,
            -0.17065732235254932,
            0.4322140550618315,
            -0.1107126223501851,
            0.27012462269605836,
            -0.07828604065081174,
            0.2756818493401726,
            -0.13273510135718944,
            -0.19883498737765964,
            0.28920173592403847,
            0.30478459410259784,
            0.10887969980724325,
            0.12356344363907369,
            -0.05849361934770546,
            -0.4021589694369664,
            -0.3562785088225799,
            -0.3882257259098363,
            -0.49076179794743163,
            -0.2108831338298496,
            -0.1493338266275392,
            0.14506827556838753,
            0.0725561213490095,
            0.4198400734178514,
            -0.14939885240334536,
            -0.2865745410927444,
            -0.15655630648885843,
            0.1936477663207455,
            0.19909363640277852,
            0.2572185560550335,
            -0.49414273853769286,
            0.37948791754702194,
            -0.3263968572310481,
            0.10574845484567079,
            -0.39868277919353245,
            0.06490441022176707,
            0.20874314678814282,
            0.4282227947773114,
            -0.12275569186931577,
            0.03967159206294717,
            -0.21339324569962467,
            0.04276886075845569,
            0.3814480293322193,
            0.1626278351939004,
            0.08702595801162159
        ],
        [
            0.3051161675002665,
            0.06431338198062359,
            0.5490586992902605,
            0.15941688514265479,
            -0.0750887495951254,
            0.4765930834411944,
            0.2026740082702019,
            0.23302591599383118,
            -0.0714862515312488,
            0.06068824178917543,
            0.4298324391283573,
            0.46854109697074214,
            0.4505945094511373,
            0.26020026225994675,
            -0.1964640970825842,
            0.0071206356789969335,
            0.25615261075651996,
            0.12693475913664753,
            -0.11835752342797043,
            -0.06797884588888498,
            -0.2519785284911327,
            0.07993998120780504,
            -0.14952671496000994,
            -0.435403531647116,
            0.11744638028427426,
            -0.030171171614634694,
            -0.3355196593637758,
            0.19976806814594475,
            -0.07711284685873145,
            -0.14449192422075796,
            -0.3763787648485985,
            -0.1272352356592271,
            0.1397792966100574,
            0.2562042398773623,
            0.40009548662905475,
            0.15172176634774207,
            0.18736692028684573,
            0.08947162845401296,
            0.09515495806975796,
            -0.38056886787296845,
            -0.10833997589687024,
            0.4950486957337667,
            0.055685440440583975,
            0.2145127782192141,
            0.39230547764397034,
            -0.383305105902875,
            -0.06675134697154107,
            0.45565168404048567,
            0.1348412620950055,
            0.4256953039974625
        ],
        [
            0.10084145237412262,
            -0.44294743760351507,
            0.46679166272727424,
            0.081877165293762,
            0.40613185095252813,
            0.2978036208303116,
            -0.15475039315742928,
            0.18621651665809066,
            -0.22305614376603633,
            0.36879610245197947,
            0.010003231480158028,
            0.0024927380285343593,
            -0.3852441221567543,
            -0.35480930212049777,
            0.45314435197150815,
            0.23863621811180347,
            0.13192236312444516,
            0.4224666775498857,
            0.33425147881605266,
            0.25739464175813714,
            -0.3933094306624921,
            0.34985274021077556,
            0.4791920709732689,
            0.3714778205076704,
            -0.4908852812519373,
            -0.3433765120451735,
            0.1683157747570246,
            -0.3705069269766555,
            -0.01896533520194539,
            0.1373335690081418,
            -0.0544641700063712,
            -0.1401416054079495,
            0.012768695022787328,
            0.08563788917571474,
            -0.2826200456790949,
            0.27613367504701775,
            0.03876119707782286,
            -0.4867354525193375,
            -0.0483780745796772,
            -0.4603931587932149,
            0.1737458717916816,
            0.12286333028005467,
            -0.062122517331155196,
            -0.3153402268721818,
            0.3520576878549106,
            0.43857894098251937,
            -0.05220656006002416,
            0.20150973052561474,
            -0.2620281219968511,
            0.3246502508741691
        ],
        [
            0.4794938785000498,
            -0.469209892490687,
            0.22936334530656027,
            -0.3075729947254366,
            -0.02793527309143901,
            0.054604323749606914,
            0.22566681373443054,
            0.001902197999669882,
            -0.28198696959417263,
            -0.38423704784749974,
            0.3505730031845222,
            -0.14766660063522546,
            0.09231936839336474,
            0.1917698454136395,
            -0.323913487908576,
            -0.4585927125345374,
            -0.40813292251706723,
            0.08168358011984037,
            -0.1803486034471156,
            -0.3144494071103412,
            -0.15174625948438367,
            -0.4765552179960156,
            -0.15147145010886787,
            -0.1879026987553227,
            -0.14228562580583332,
            -0.34791097464822635,
            -0.08004797005474767,
            -0.4039602708750292,
            0.12479409875887461,
            0.4513689039921832,
            0.1439640704438403,
            -0.2682892510183308,
            0.3463461647082474,
            0.1945439960599509,
            0.19488314258864414,
            0.00970414860839815,
            -0.4169812701484125,
            -0.07165693835249612,
            -0.28172602352984033,
            -0.25022834605339833,
            0.40394841670014664,
            -0.2891298029679344,
            -0.24403807185490478,
            0.22591962999543894,
            -0.4879535359068877,
            0.2988097939449201,
            0.28152257492246546,
            -0.35342392275410883,
            0.46419058355567905,
            -0.27925022753317674
        ],
        [
            0.25942338078650884,
            0.18749914535082376,
            -0.4281435180359365,
            -0.19131777678731565,
            -0.11906035842246701,
            0.399333963430741,
            0.3917464458653233,
            -0.4569560147715225,
            -0.03572918472385733,
            0.3226691070859165,
            -0.2760358771272703,
            -0.25330829039278047,
            -0.14473702219024812,
            0.0705909524299958,
            -0.004128788406267879,
            0.26825809275498036,
            -0.3943144772943961,
            -0.3310061988786053,
            -0.46204053572480597,
            -0.00856671893545525,
            -0.1803442838190587,
            0.11849489983303624,
            0.03267978981790855,
            -0.178161648761446,
            -0.32226665251674674,
            0.019368614952397195,
            0.2579270904046785,
            -0.391519200157467,
            0.06801439936555706,
            -0.4973434725095372,
            -0.10632316076788051,
            0.18593744702007237,
            -0.277695124313188,
            0.3770135268077161,
            0.1411486588525573,
            0.40627540457318995,
            -0.4662887640534154,
            0.1352512987986985,
            -0.5043279739572247,
            -0.4602045551776224,
            -0.19771291946278532,
            -0.11214659476911733,
            0.05875340049412939,
            -0.07138717018827352,
            0.17375205248416428,
            0.14085379214963129,
            -0.12823610705500715,
            -0.28639789692297224,
            0.10305723790970799,
            0.08988129553007276
        ],
        [
            -0.2376409089320266,
            0.38823479421252644,
            0.24425503028256543,
            -0.23908260173014972,
            -0.24913330508092418,
            -0.28182968706737405,
            0.31627801879826434,
            0.12069416576594673,
            0.19714472387869214,
            -0.3349688430209937,
            -0.24175738375108533,
            -0.09389491775601859,
            0.25165404255097096,
            0.2731608984094537,
            0.1619033070521911,
            -0.4011673192285747,
            -0.3184718932210404,
            -0.4157214912887141,
            0.3289499174843794,
            0.10950615236806027,
            -0.31606877219211205,
            -0.2081088924797306,
            0.4472952583579409,
            -0.4159585988828398,
            0.45961824793785677,
            0.2201267347225211,
            -0.23726975512025866,
            -0.4700337037236321,
            -0.28099292475432136,
            0.13151522113979108,
            -0.22666832936365444,
            -0.2895192877027709,
            0.27342211512114567,
            0.5071260123198584,
            -0.0685865429481402,
            -0.08679225426418656,
            0.1338836512213382,
            -0.29345722605848107,
            -0.5411647913905039,
            0.23240486195085755,
            0.11777744002933972,
            0.3254444915476052,
            -0.09579483313182303,
            -0.008154904916348078,
            -0.0243418925960354,
            0.4016210812421954,
            0.16460198993671724,
            0.3838603319510049,
            0.12273979541495592,
            -0.08695940782950738
        ],
        [
            -0.2570559146427956,
            -0.17544836216691334,
            -0.3829539380901019,
            0.13331496833253922,
            0.49889923804698255,
            -0.1865148129574158,
            0.2169516354587463,
            0.22310701070454092,
            0.35174046446592316,
            0.19998487450478172,
            0.005097699491778853,
            0.058271614747663125,
            -0.25365077876026787,
            0.026081813824184834,
            -0.0659975131186784,
            -0.034949535098977816,
            0.18213962378448734,
            0.3232233503078901,
            0.26695280990801223,
            0.1851576560052367,
            -0.2987736257084404,
            0.25905958558691355,
            -0.24716045479628238,
            -0.28025206657396845,
            0.32125742195144846,
            -0.4756928503073442,
            0.10321587424094572,
            0.027695607544767006,
            -0.13155499624668585,
            0.1566795253715776,
            0.0822991172646317,
            0.23028546946024733,
            -0.4087815951256537,
            0.27029783679163727,
            0.42758452196765695,
            0.23214319905326117,
            0.23758156296971075,
            -0.22714951090937088,
            -0.5335188836656829,
            -0.39785625543153025,
            -0.16067254566112027,
            -0.3260130159838429,
            0.287830290833339,
            -0.3759152830398145,
            0.4786100971738841,
            0.4032988957282129,
            0.48892000133347135,
            -0.1807582456849634,
            0.3482219826223843,
            0.28893564518842957
        ],
        [
            0.44513916390775465,
            0.20949413672581643,
            0.0309803384739074,
            0.04775423764473488,
            -0.325318570612323,
            0.3388444740170665,
            0.03727892901109351,
            -0.10760153659398333,
            -0.008989602867751568,
            0.2322971595675428,
            0.3828391684847787,
            -0.4753476929805484,
            0.47383767833374923,
            -0.3178932052015864,
            -0.2143394206219836,
            -0.07929475363797418,
            -0.15092329947214234,
            -0.4820975063117674,
            -0.29590517789848364,
            -0.01011071860799767,
            0.39638416052833236,
            0.475428762670546,
            0.3209330294651803,
            -0.0019940964337998323,
            -0.36432103038308866,
            -0.16166109253119187,
            0.2775119502947978,
            0.49465332056367695,
            -0.5124809235909602,
            0.2719754123658824,
            -0.27389617489779605,
            -0.371540771398331,
            -0.4556234098356318,
            -0.42088435466167784,
            0.16407220649169202,
            -0.4767860286471052,
            0.3833563269175577,
            -0.28279038069652257,
            0.1741918370437228,
            -0.19419541268022739,
            0.4144126049993365,
            -0.09199131170551936,
            0.15803346007890154,
            -0.058534927086993815,
            -0.21206619003061952,
            -0.46313237619562586,
            0.36930557422719973,
            -0.06591733020086818,
            -0.07538359340960904,
            0.22043558662650156
        ],
        [
            0.3995413189185359,
            -0.09432621413375519,
            -0.15149785959409645,
            0.15223342351562072,
            -0.01925157335305228,
            -0.1674978237701744,
            -0.425434535709145,
            -0.4170529326221753,
            0.016200311532844288,
            -0.17116110925072628,
            -0.3054799713548287,
            -0.04789951880129352,
            0.14645728321461246,
            -0.28278225052571,
            -0.20663815345387904,
            -0.17514634890528086,
            -0.3387910463893512,
            -0.3745796599759329,
            0.39219507931082515,
            -0.03198697561483166,
            0.15539046267940435,
            -0.32616724429876487,
            -0.4031603272650347,
            -0.2802307321606228,
            0.406172998032099,
            -0.015240598080243804,
            -0.3858240393140345,
            -0.40433362328121863,
            0.4413775026336033,
            -0.1352675720604009,
            -0.11078161536302605,
            0.3388854672916462,
            -0.3461946906946549,
            -0.041281581357165885,
            -0.3813597095196451,
            0.27025926324235,
            0.17615638499804095,
            0.11705110684203933,
            -0.021609839049721233,
            0.3126154446542538,
            0.23797066543735013,
            -0.004383836742553585,
            0.467884079799976,
            -0.40918310477343656,
            0.2771339503409347,
            0.29512889811957543,
            -0.20078041884245376,
            0.41123429997963074,
            -0.34909199337952695,
            0.3442306793595898
        ],
        [
            -0.08375996804357265,
            0.37663303442670987,
            0.306739243311891,
            0.34185509733339475,
            0.0956931649400869,
            0.19517559318088928,
            0.046637238666776284,
            0.3691480373176579,
            0.3594114520224768,
            -0.21196270098527242,
            -0.43589361206517035,
            -0.049863011355535995,
            -0.2325775056381538,
            -0.32020429125725114,
            0.40056155805846216,
            -0.4434212089255529,
            -0.37079417152898775,
            -0.2669458968771403,
            -0.46405206510687974,
            -0.35655846052963913,
            0.2816281975410405,
            0.42943935491733354,
            0.18145400296550188,
            -0.3928573304555285,
            0.1757869437344048,
            0.2932335442900668,
            0.1315767545548633,
            -0.10123213492148593,
            0.47062608622519103,
            0.4468959562623078,
            -0.3110680679716454,
            -0.31059197781929526,
            0.2637012459921487,
            0.46105567189370406,
            0.1713791767535862,
            0.24402430922532714,
            -0.0994288648643485,
            0.39965823505373427,
            -0.404737724201168,
            -0.3887236781374262,
            0.3498433070973494,
            0.35425476796207706,
            0.1439791402268019,
            -0.22941958975165272,
            -0.3376978216585446,
            -0.3320274196935383,
            0.20222173772118324,
            0.3049026259139071,
            -0.40581914376754186,
            -0.25709632010315026
        ],
        [
            -0.3630174794653643,
            -0.3949498082446949,
            0.04804567265907408,
            0.025976723793182752,
            -0.32408215999247075,
            0.3853586926921941,
            0.15080809062781214,
            -0.45727071850908385,
            -0.21065030060888376,
            0.43510490995397644,
            0.4398031555166055,
            -0.023220579621193914,
            0.3850233620957584,
            -0.27657010344735855,
            -0.41566242187317987,
            -0.025734887108741562,
            -0.35434442631973956,
            0.3230853154669668,
            0.5117973078893735,
            -0.5112189415233408,
            0.372490833000085,
            0.43753084047388,
            -0.14288214039219008,
            -0.1928743464153633,
            -0.14675574375697803,
            -0.46137552054002706,
            0.27714834223139195,
            -0.2319431978762167,
            0.17589611673746905,
            -0.3019232984981136,
            -0.07370783827241656,
            -0.22837455825546477,
            0.3958933305628583,
            -0.3120260096987985,
            0.3367998070741268,
            0.027786804835067472,
            0.2270169913354699,
            -0.1484497547238148,
            -0.43279160922440285,
            -0.11230623055355843,
            -0.4989530242546302,
            0.3715248295473571,
            0.42775417015754097,
            -0.35987214657940453,
            -0.3252892529056614,
            0.38842873863114913,
            -0.08654306131370053,
            0.10381399506985473,
            -0.3175721155099406,
            0.07260734907609478
        ],
        [
            -0.36040208497703324,
            0.27282146422618125,
            0.09319770005801477,
            -0.4833478410315561,
            -0.0053308502050056755,
            0.017831676418483586,
            -0.4339583359265131,
            0.0825077427331408,
            -0.3682375555747692,
            0.0702670945486836,
            0.40344919332741586,
            0.4106503518254812,
            0.3177352087437397,
            -0.4047692332513291,
            -0.17544180118019737,
            0.06537079815088159,
            -0.21491957091117736,
            0.12234880927427527,
            0.1001761710198879,
            -0.1489870954874487,
            -0.3546775347622467,
            0.32760605078764987,
            -0.2867201227018615,
            -0.29970569952459186,
            -0.3280201113833238,
            -0.04494416829957146,
            0.33842363275224274,
            -0.09804066356602867,
            0.09159265886436713,
            0.18738229332751422,
            0.18773013490562446,
            -0.496621814055899,
            -0.42750194647186845,
            0.31151162979611197,
            0.2075175773130775,
            -0.40694026046912635,
            -0.19817991537845212,
            -0.09006729236558507,
            0.258579345236814,
            -0.436718061493011,
            0.1661351340564127,
            0.4728701995245483,
            0.3135079313949997,
            -0.029725563395696198,
            0.058036336133497214,
            0.12009649125312653,
            0.06978113520036675,
            -0.41490436355770915,
            0.3522022671995145,
            -0.20201763162772415
        ],
        [
            0.02573374775717954,
            0.14196645412198894,
            0.26592940104503743,
            0.05720563837922843,
            -0.03814227144631719,
            0.019438364294155856,
            -0.14339456638878947,
            0.30487827636965154,
            -0.2731075621830539,
            0.36648405000254153,
            0.16538180731208502,
            -0.017189923367892466,
            -0.418171195654625,
            0.18457833378679275,
            -0.049654230696546654,
            -0.10440115075386622,
            -0.007180786265349571,
            0.4271992732378837,
            0.323936841308621,
            -0.021082238524704488,
            0.20052026706795395,
            -0.17008371517318963,
            -0.23376632433131253,
            -0.34990248717812084,
            0.09866681008192892,
            0.02921810921165355,
            -0.47941933219236277,
            -0.22497218118079781,
            0.3347164020885657,
            -0.49558330917733934,
            0.19579817447788117,
            0.30822980775586756,
            -0.441037620496305,
            0.4823529452674886,
            0.2889638419716426,
            -0.40466610540658066,
            -0.04022343889798789,
            0.23399207475711037,
            0.026138018783979294,
            -0.340841421196551,
            -0.1404281878451847,
            -0.060257796849079746,
            -0.21233746597169617,
            0.3575673986493472,
            0.1438499241480131,
            0.06324006977814038,
            -0.2020877029659808,
            0.24146374378757743,
            0.3026938089886093,
            -0.17030325630576007
        ],
        [
            0.32919048626233116,
            -0.11820561358392291,
            -0.4397234796016281,
            0.18263695664432858,
            -0.3441512515368934,
            0.12234728916226696,
            -0.350445269971408,
            0.3536112422768672,
            -0.09773920716254754,
            0.12590396367301393,
            0.2726001658196057,
            -0.25505480880899123,
            0.23747309648875053,
            -0.2884124908896619,
            -0.14507244552311738,
            -0.38905200752415914,
            -0.354326959370169,
            -0.27082990517886724,
            -0.3287934456045012,
            0.07011698074153776,
            -0.2387847473851404,
            -0.080459162284709,
            0.4507213865546499,
            -0.19376871698486367,
            -0.3767189639214779,
            -0.439141493850678,
            0.48440008562476744,
            -0.14149421867868617,
            0.44624714899869405,
            0.2309147256031279,
            0.44212447478004113,
            -0.3728509857932407,
            -0.347357916991137,
            0.5219038254783689,
            -0.2209668331425287,
            0.49288236260308643,
            -0.5055636614570319,
            0.004588852092735764,
            -0.5318164120281926,
            -0.4497720776447667,
            0.3172275361565232,
            0.043019427992733277,
            0.40249314446790996,
            -0.408297658785662,
            -0.4896764859595683,
            -0.2823943872950916,
            -0.29379989447384597,
            0.4377913379045587,
            0.09138432098046058,
            -0.4551098926269267
        ],
        [
            0.0552741616675388,
            -0.3495855170646366,
            -0.20603090802348062,
            -0.2974711623483507,
            -0.18894857635360635,
            0.2406058108552058,
            0.27874700632578764,
            0.16994553384053512,
            0.2849498347568927,
            -0.32129395989233145,
            -0.07961892746211346,
            -0.3574777154102533,
            -0.29056487126830555,
            -0.30382805456976086,
            -0.018749772762945382,
            0.05413427247259398,
            -0.4472324159627249,
            0.15114931305112977,
            0.4227686513519813,
            0.4285460926061847,
            -0.17821448476705387,
            0.4027608027437673,
            -0.1722614539382913,
            -0.3255418985193152,
            0.5073824697622802,
            -0.03733859588245589,
            -0.3756346657223264,
            0.020740681506685708,
            0.47662511753573406,
            -0.1963365706500359,
            0.11140587243611498,
            0.3899788568859896,
            0.3538620425056233,
            -0.3819405831585971,
            0.391764093733696,
            0.42719484459882634,
            -0.074626919961303,
            0.3814856786940333,
            0.23258142658443703,
            -0.0941713960076696,
            0.3966713160215471,
            0.1835190928605304,
            0.3716966063574477,
            -0.10821571148519159,
            -0.20323589763989977,
            -0.172308962526893,
            -0.10623860677201638,
            0.02298403009917128,
            -0.305247098031806,
            0.097345978618632
        ],
        [
            -0.1474461972091978,
            0.20104208314642197,
            0.42174236073137306,
            -0.33234906324686453,
            0.34086661284861985,
            0.5085547048398738,
            -0.4603433588455068,
            0.33953542689331706,
            -0.48558163792966114,
            -0.020260081571299885,
            0.43755093992742317,
            -0.3307452510044798,
            0.38718718684782555,
            -0.07724309545769383,
            -0.06733330348417073,
            0.10792243515600818,
            0.30021626742279767,
            0.29301231231997077,
            -0.48693753436350423,
            -0.39297172625727167,
            -0.03684381039655093,
            -0.11811418874122169,
            -0.12991896401608383,
            -0.4372229815846963,
            0.4609759996146421,
            0.26019336359090417,
            0.1998886807158347,
            0.030591178399512895,
            -0.20980613280314497,
            0.17894837231852492,
            -0.0013310743002052196,
            -0.2193540781452002,
            -0.29277792042235107,
            -0.09540149822949978,
            -0.2720295941225243,
            0.1435127861590305,
            -0.3175994520399898,
            0.1424871868017367,
            -0.4028487029110553,
            -0.3781827872373158,
            -0.46656471036600017,
            -0.25177776697348986,
            0.26657594220973935,
            -0.09497730390531554,
            0.28159450870066915,
            -0.04501307315847686,
            0.29545540380538493,
            -0.11203512230132891,
            -0.34526620990596724,
            0.2969228685391848
        ],
        [
            -0.1837029479561433,
            0.23990119698714735,
            -0.34005772302636766,
